I 0.082282 -0.006147 0.006344 -0.114852 -0.083134 0.322111 -0.019932 -0.087561 -0.078854 0.015276 0.064063 -0.034406 -0.102847 -0.080513 0.039371 -0.009616 0.079825 0.036153 0.010602 -0.113735 0.057400 -0.010828 0.086163 0.004126 0.070193 -0.053893 -0.052202 -0.064031 -0.046518 0.022058 0.050077 0.121563 -0.187198 0.114589 0.122584 0.053188 -0.027658 0.012871 0.037263 0.071041 -0.130968 -0.037786 -0.048455 -0.052240 0.023138 0.083104 0.005115 -0.182164 -0.071198 -0.018527 0.080497 0.052190 0.100468 -0.079072 0.018234 -0.096676 0.018366 -0.031675 -0.067750 -0.125598 -0.018117 -0.098750 -0.157355 -0.105530 0.004340 -0.152734 0.104701 0.054160 -0.030892 -0.129333 0.080487 -0.038411 -0.018321 -0.019769 0.036154 -0.162363 0.056674 -0.009169 0.077433 0.035824 0.051922 0.097035 -0.145153 -0.085242 -0.131435 -0.097191 0.046142 -0.092575 0.038879 -0.103995 0.048929 0.084655 -0.160816 -0.096510 -0.118438 0.061003 0.004616 -0.044951 -0.155925 -0.018607 -0.077339 -0.006248 0.052304 0.071014 -0.011364 0.002623 -0.142097 0.115719 -0.018966 -0.014125 0.037435 0.040024 -0.015678 -0.064625 -0.080145 -0.122701 0.059296 -0.093294 -0.050404 -0.067973 0.016143 -0.107534 -0.039868 0.146604 0.132827 -0.008256 0.069895 -0.033336 -0.152871 -0.002815 0.127041 -0.008144 0.170414 0.000787 0.038466 -0.043671 0.045751 0.213495 -0.143194 -0.112248 -0.022508 0.093114 -0.002693 -0.095772 0.052115 -0.068452 0.059648 -0.108938 -0.026975 -0.161113 -0.043340 -0.083797 -0.038178 -0.071560 0.125774 -0.241221 0.004850 0.082511 -0.123397 -0.057529 0.054222 -0.034269 0.073620 -0.021024 -0.034659 0.157031 -0.012526 0.021774 0.172731 -0.074225 0.012088 -0.005186 -0.063694 0.026403 0.024052 -0.051009 -0.148265 0.115049 0.002290 0.172067 0.009028 0.128174 0.087920 -0.179551 0.008270 0.032231 0.033509 -0.003142 -0.103992 -0.083818 -0.092245 0.048984 -0.166144 -0.012228 -0.054003 0.071224 0.040472 -0.047227 0.032745 0.034444
t 0.044206 -0.029982 0.003031 -0.087094 -0.070202 0.309045 0.009935 -0.064206 -0.079385 0.004524 0.022498 0.040349 -0.005940 -0.106846 0.030090 -0.120212 0.042534 0.077418 0.008571 -0.073207 0.032692 0.012420 0.093807 -0.006167 0.077134 -0.034859 -0.055674 -0.127963 -0.029343 0.023090 0.016196 0.060727 -0.155845 0.092624 0.121931 0.082795 0.030995 -0.094901 0.048325 0.037599 -0.161240 -0.024998 -0.026518 -0.084029 0.110028 0.077835 -0.003374 -0.248913 -0.025011 -0.039696 0.064441 0.004519 0.090768 -0.148113 -0.001059 -0.065476 0.019383 -0.034676 -0.122724 -0.150863 -0.062231 -0.108640 -0.174599 -0.012725 -0.009522 -0.099200 0.039216 0.036876 -0.027548 -0.176671 0.127990 -0.011148 0.076363 -0.018577 0.072137 -0.107932 0.109879 0.004243 0.074064 0.019774 -0.003663 0.089163 -0.079897 -0.036010 -0.153773 -0.087166 0.030087 -0.146744 0.079115 -0.071020 0.037545 0.169731 -0.134998 -0.064087 -0.120204 0.032267 0.059159 -0.073319 -0.093670 -0.054556 -0.076132 0.018541 0.027304 0.104202 0.014463 -0.016260 -0.086140 0.094347 -0.029497 0.032476 0.031446 0.098109 0.040729 -0.102741 -0.092924 -0.110142 0.035134 -0.072939 -0.069476 -0.073268 0.015467 -0.071064 0.005976 0.150361 0.080723 0.025762 0.092165 -0.020558 -0.067224 -0.114773 0.116938 -0.001274 0.221524 0.093818 0.128917 -0.071661 0.044336 0.211443 -0.141790 -0.057078 0.007145 0.112171 -0.049114 -0.087488 -0.009358 -0.092151 0.018943 -0.079377 -0.014740 -0.157003 -0.052249 -0.011121 -0.039431 -0.033870 0.162306 -0.138584 0.005691 0.013294 -0.158711 -0.058505 0.054152 -0.026372 -0.026655 -0.069494 -0.005545 0.099578 -0.045651 0.018931 0.098329 -0.070703 -0.009177 0.058183 -0.034524 0.040376 0.015381 -0.104308 -0.105814 0.042692 0.058750 0.100099 0.011242 0.040818 0.139952 -0.171008 0.022511 0.027253 -0.034637 -0.009885 -0.075813 -0.045067 -0.107134 0.009104 -0.126940 0.046843 -0.079775 0.034705 0.029802 -0.049297 0.040368 -0.021109
s 0.033713 -0.018393 0.006907 -0.079657 -0.044807 0.250852 -0.000890 -0.063541 -0.066391 0.013652 0.007286 0.024069 -0.004156 -0.082676 0.028630 -0.111460 0.016571 0.047209 0.024691 -0.041261 0.041211 0.027618 0.082683 -0.006248 0.043370 -0.035753 -0.040074 -0.096622 -0.019766 0.019725 -0.009269 0.046406 -0.132690 0.079665 0.078657 0.053020 0.037550 -0.081627 0.042572 0.031183 -0.132603 -0.017010 -0.027329 -0.066658 0.102873 0.059954 -0.006298 -0.203863 -0.022366 -0.041603 0.033830 0.001755 0.085700 -0.104694 -0.013297 -0.050140 0.036035 -0.036569 -0.087741 -0.112450 -0.059295 -0.109222 -0.140928 0.003274 -0.007732 -0.079518 0.010822 0.025944 -0.012758 -0.148791 0.111920 0.000051 0.090597 0.012862 0.057804 -0.086403 0.093064 -0.007518 0.071052 0.022892 -0.017571 0.062556 -0.048026 -0.017531 -0.135977 -0.077389 0.019822 -0.134912 0.074203 -0.043351 0.033104 0.145679 -0.113094 -0.035253 -0.094839 0.028027 0.051262 -0.063963 -0.083030 -0.052721 -0.057180 0.012341 0.013604 0.088720 0.025041 -0.021154 -0.035168 0.088632 -0.021782 0.015810 0.021315 0.077959 0.047395 -0.096980 -0.063329 -0.092933 0.033548 -0.044896 -0.073975 -0.056168 0.019396 -0.051929 0.000369 0.120493 0.067702 0.018639 0.090522 -0.013243 -0.058717 -0.080887 0.091807 -0.002148 0.172912 0.072625 0.118510 -0.051319 0.033179 0.142794 -0.100412 -0.046097 -0.001364 0.086414 -0.041199 -0.086465 -0.013335 -0.065443 0.013330 -0.056108 0.003460 -0.125188 -0.039863 -0.010809 -0.048764 -0.022167 0.133451 -0.107916 0.002374 -0.003638 -0.150125 -0.041971 0.033302 -0.025604 -0.028711 -0.056439 -0.004930 0.072941 -0.024086 0.016421 0.066198 -0.056427 -0.005328 0.041172 -0.013493 0.042083 0.003190 -0.071879 -0.100453 0.035008 0.049293 0.069562 0.016939 0.016337 0.104945 -0.154337 0.007555 0.032070 -0.050191 -0.027724 -0.059943 -0.036589 -0.094342 -0.004270 -0.094190 0.048880 -0.083043 0.015978 0.031648 -0.052328 0.029767 -0.032484
@ 0.017509 -0.013200 -0.009573 -0.064069 -0.032135 0.206348 -0.016289 -0.055280 -0.036505 -0.015413 0.022516 0.000392 -0.026342 -0.067784 0.017914 -0.036612 0.014447 0.029049 0.013217 -0.090507 0.016740 -0.001295 0.081937 -0.019023 0.027198 -0.057839 -0.021081 -0.070232 -0.016921 -0.001080 -0.000809 -0.004341 -0.083772 0.054234 0.065866 0.026393 0.000890 -0.018403 0.021324 0.049449 -0.095940 0.008472 -0.032386 -0.028888 0.045159 0.049555 0.001952 -0.125821 -0.024225 -0.040982 0.043806 0.022186 0.045245 -0.068675 -0.003556 -0.026154 0.019643 -0.013383 -0.042691 -0.060868 -0.053494 -0.058492 -0.085339 0.001043 0.008427 -0.089553 0.017745 0.041757 0.004526 -0.087688 0.090487 0.010372 0.028271 -0.012204 0.015275 -0.100571 0.065969 -0.006355 0.042219 0.038238 0.017848 0.077576 -0.030802 -0.003979 -0.095837 -0.076633 0.031525 -0.084673 0.031050 -0.052678 0.036592 0.129412 -0.099319 -0.059231 -0.066853 0.010659 0.031078 -0.048697 -0.085285 -0.025642 -0.079262 0.018930 0.013078 0.080358 0.003964 -0.013922 -0.050613 0.057628 0.000994 0.012524 0.019355 0.053294 0.030721 -0.072249 -0.037068 -0.092330 0.028324 -0.060869 -0.030043 -0.028679 0.027913 -0.039765 -0.010994 0.106317 0.053828 -0.013531 0.054179 -0.026753 -0.064702 -0.016365 0.106332 -0.006952 0.123198 0.052350 0.070281 -0.035514 0.031805 0.126428 -0.046476 -0.073245 0.013205 0.058014 -0.053165 -0.053327 -0.016741 -0.037732 0.022501 -0.038931 0.018224 -0.100378 -0.025103 -0.048768 -0.013328 -0.023860 0.095508 -0.111392 -0.004171 0.031149 -0.110344 -0.023710 0.016413 -0.010064 0.009270 -0.037177 -0.034586 0.063656 -0.017018 0.042301 0.115767 -0.051789 0.019449 0.026478 -0.021399 0.001746 0.023871 -0.066876 -0.075073 0.053516 0.018238 0.072179 -0.007421 0.035491 0.073050 -0.128212 -0.015946 0.001509 -0.029873 -0.034408 -0.051797 -0.062781 -0.030105 0.017623 -0.088897 0.021176 -0.076989 0.005410 0.003637 -0.031819 0.016428 -0.028485
n 0.015184 -0.016460 0.022773 -0.074550 -0.055841 0.192648 -0.039747 -0.040745 -0.024569 0.012325 0.000574 0.036583 -0.014020 -0.029136 -0.006205 -0.102475 0.040206 0.045579 0.024240 -0.031851 0.024241 0.070880 0.044162 -0.013145 0.036044 -0.022630 -0.048029 -0.099881 -0.004457 0.042145 0.008871 0.022396 -0.094433 0.081282 0.050592 0.003044 0.001469 -0.023242 0.022154 -0.025407 -0.100913 -0.018669 -0.052829 -0.103604 0.083667 0.068863 0.002832 -0.138416 -0.007786 0.002202 0.066753 -0.012702 0.100575 -0.063065 -0.013722 -0.046220 0.060156 -0.021358 -0.062843 -0.060338 -0.039878 -0.052466 -0.079895 -0.029451 -0.005428 -0.070178 -0.002549 0.002050 -0.011102 -0.080427 0.078738 -0.003624 0.074970 0.000732 0.071582 -0.064367 0.062580 0.011203 0.019624 0.029734 -0.029256 0.068332 -0.060273 -0.034921 -0.094445 -0.051882 0.042075 -0.064133 0.051430 -0.013739 0.061952 0.084737 -0.118075 -0.027940 -0.069150 0.043450 0.051568 -0.047599 -0.062142 -0.050039 -0.108546 -0.008672 -0.006448 0.096763 -0.018374 -0.047184 -0.038735 0.116421 -0.024193 0.020441 -0.012312 0.045649 0.010402 -0.095526 -0.020326 -0.053389 0.020575 -0.029152 -0.077699 -0.068252 0.005010 -0.031432 0.012147 0.127166 0.051515 0.000651 0.052744 0.020300 -0.062692 -0.061444 0.098182 -0.004144 0.113302 0.053466 0.120012 -0.041171 0.013607 0.099760 -0.071098 -0.043416 -0.028785 0.054213 0.005369 -0.072479 -0.012626 -0.030091 0.021825 -0.043134 0.004098 -0.055760 -0.050833 -0.037607 -0.056817 -0.074503 0.104071 -0.080733 0.007989 -0.008735 -0.112147 -0.046006 0.047349 0.008139 0.014567 -0.049245 -0.004818 0.052204 0.005455 0.018712 0.044721 -0.023529 0.016959 0.071387 -0.011702 0.054421 -0.007838 -0.026460 -0.058313 0.044299 0.042963 0.022080 -0.014585 0.061970 0.047664 -0.095529 0.024278 0.024509 -0.057842 -0.035825 -0.057709 -0.040796 -0.087669 -0.034316 -0.014124 0.067213 -0.050982 -0.013766 0.021526 -0.005650 0.022689 -0.052737
l 0.006900 -0.018968 0.031786 -0.065994 -0.028088 0.245900 0.015251 -0.075689 -0.058323 0.008146 0.004276 0.015295 -0.017971 -0.110494 0.075373 -0.088347 0.000970 0.061420 0.029009 -0.060623 0.047644 0.090988 0.173089 0.013174 -0.015126 0.009342 0.013790 -0.099137 -0.018338 -0.043611 -0.044129 0.047760 -0.148656 0.077139 0.088495 0.081073 0.051115 -0.067959 0.057866 0.086759 -0.133351 -0.034550 -0.001696 -0.033345 0.066366 -0.004173 -0.052909 -0.188137 -0.021583 -0.001065 0.044525 -0.000873 0.034355 -0.117065 -0.019634 -0.027221 0.011140 -0.026276 -0.081057 -0.107596 -0.050021 -0.155652 -0.121842 0.059259 -0.031827 -0.125112 0.009672 0.029725 -0.023841 -0.159477 0.082008 0.017084 0.149570 0.003492 0.063384 -0.095264 0.096916 0.004527 0.117814 -0.003104 -0.003834 0.066641 -0.034324 -0.007140 -0.139297 -0.133962 0.003107 -0.169316 0.042920 -0.077498 0.009335 0.120914 -0.099505 -0.063285 -0.067293 0.018312 0.045803 -0.053976 -0.114734 -0.056980 -0.060749 -0.017184 0.078167 0.088635 0.051479 0.039517 -0.075147 0.093463 -0.045744 -0.004450 0.022643 0.077549 0.076040 -0.123312 -0.059791 -0.112444 0.022520 -0.073105 -0.098282 -0.020774 0.031437 -0.075143 -0.038805 0.086124 0.144938 0.026495 0.146503 -0.056625 -0.060621 -0.060353 0.076316 -0.000648 0.144949 0.013179 0.127100 -0.072953 0.004484 0.126126 -0.063818 -0.079534 -0.011096 0.082284 -0.044855 -0.103727 0.022296 -0.063574 0.021785 -0.078677 0.066319 -0.150263 -0.014324 -0.039693 -0.009992 -0.007468 0.100277 -0.124460 0.034366 0.033745 -0.151210 -0.076112 0.044013 -0.007121 -0.010471 -0.035858 -0.009501 0.082886 -0.069043 -0.007995 0.054378 -0.093287 -0.047390 0.005533 0.021707 0.050613 0.033225 -0.043229 -0.127194 0.032119 0.010221 0.087517 -0.010519 -0.046234 0.139678 -0.139735 -0.024364 0.024117 -0.031708 -0.072424 -0.021803 -0.030746 -0.087194 0.040584 -0.064325 0.041943 -0.092138 0.011538 0.017594 -0.037342 0.041301 -0.034647
k 0.051989 -0.027336 -0.000381 -0.078293 -0.067392 0.293780 0.005460 -0.045594 -0.070825 -0.004198 0.020476 0.030741 -0.024181 -0.114770 0.046123 -0.107417 0.034827 0.058280 0.015166 -0.077354 0.046656 -0.000412 0.117303 0.001335 0.078927 -0.035196 -0.043370 -0.121990 -0.030189 0.013857 0.003556 0.067948 -0.151011 0.090670 0.114168 0.092433 0.041324 -0.112705 0.048299 0.052064 -0.166342 -0.015678 -0.011261 -0.077293 0.110617 0.069447 -0.012798 -0.234654 -0.032573 -0.027485 0.045373 0.003050 0.068775 -0.150288 0.019375 -0.079122 -0.013859 -0.036015 -0.126014 -0.147828 -0.070829 -0.119091 -0.160613 0.004186 -0.015103 -0.109556 0.033320 0.036605 -0.040224 -0.171355 0.111428 -0.016694 0.081319 -0.011228 0.080828 -0.108344 0.104917 0.007218 0.098522 0.010020 0.010570 0.079059 -0.077022 -0.033635 -0.152799 -0.096557 0.005257 -0.142910 0.085355 -0.092640 0.021987 0.161904 -0.108818 -0.080718 -0.123987 0.022763 0.051167 -0.064283 -0.103291 -0.050356 -0.053917 0.010905 0.040981 0.088808 0.026645 -0.007721 -0.086378 0.085059 -0.021210 0.045120 0.047449 0.092883 0.046671 -0.114090 -0.090212 -0.102500 0.025660 -0.057361 -0.063224 -0.057595 0.020705 -0.083340 0.005389 0.139619 0.093975 0.029811 0.103341 -0.033831 -0.042135 -0.103075 0.091195 0.002532 0.212824 0.080253 0.116632 -0.081646 0.037909 0.211640 -0.136897 -0.064304 0.014461 0.097138 -0.059970 -0.078551 0.012809 -0.102219 0.027915 -0.079327 -0.005353 -0.152745 -0.046912 -0.010959 -0.024368 -0.018484 0.147976 -0.148413 0.014568 0.039525 -0.159475 -0.052926 0.066488 -0.028200 -0.021253 -0.040032 -0.010075 0.121791 -0.053473 0.019965 0.099107 -0.062101 -0.010545 0.052251 -0.043955 0.025142 0.031628 -0.088361 -0.105095 0.033716 0.042628 0.111825 0.008487 0.022580 0.146725 -0.172375 -0.010953 0.016896 -0.031032 -0.027479 -0.076399 -0.030531 -0.112373 0.035928 -0.146187 0.031669 -0.102435 0.039040 0.043383 -0.052183 0.028422 -0.026870
r -0.040929 -0.022987 0.021392 -0.044389 -0.018525 0.150471 -0.013012 -0.040831 -0.052753 -0.004364 -0.021719 0.035915 0.047364 -0.081558 0.039794 -0.093019 -0.043917 0.041364 0.010154 -0.003521 -0.007863 0.045058 0.116257 -0.023771 -0.006166 -0.002342 0.000374 -0.107602 -0.041421 0.005333 -0.037827 -0.040959 -0.059944 0.022286 0.041136 0.059253 0.081327 -0.124874 0.049238 0.018424 -0.110804 0.003068 -0.024456 -0.030953 0.119420 0.016890 -0.048866 -0.173936 0.014354 -0.037179 0.017926 -0.039497 0.022760 -0.095114 -0.037252 -0.006124 0.029015 -0.020822 -0.097072 -0.073725 -0.098576 -0.122158 -0.089897 0.092384 -0.037535 -0.047039 -0.033615 0.000300 0.011475 -0.124534 0.105782 0.022704 0.132616 0.008583 0.037569 -0.047271 0.088720 0.011066 0.069627 0.029213 -0.033787 0.030854 0.026481 0.033541 -0.127550 -0.093283 0.008569 -0.152865 0.065215 -0.017071 0.001460 0.152363 -0.061549 0.009546 -0.040514 -0.013767 0.066537 -0.052818 -0.041327 -0.065068 -0.035377 0.005898 0.025103 0.066672 0.064969 -0.014223 -0.002557 0.021735 -0.020705 0.009781 -0.012014 0.092647 0.073510 -0.112859 -0.049036 -0.061467 0.020652 -0.032995 -0.060634 -0.037286 0.022764 -0.008599 -0.014211 0.059043 0.043705 0.042914 0.100737 -0.012525 -0.010572 -0.113061 0.034143 0.005806 0.136689 0.090838 0.111632 -0.065987 0.005145 0.090699 -0.009988 -0.032944 0.047745 0.075885 -0.058470 -0.043287 -0.059547 -0.030474 -0.008662 -0.055232 0.033061 -0.077194 -0.038707 -0.028832 -0.010662 0.015134 0.088044 -0.014560 0.020049 -0.049365 -0.133296 -0.025043 0.017963 0.002101 -0.066654 -0.078277 0.006949 0.008589 -0.062076 0.031244 0.019615 -0.046197 -0.003202 0.048629 0.019779 0.036153 0.016874 -0.073708 -0.046252 -0.021541 0.073528 0.004043 -0.030113 -0.078399 0.105637 -0.100246 0.000968 -0.002276 -0.085560 -0.039212 0.011003 -0.015141 -0.089938 -0.034436 -0.022352 0.091732 -0.080070 -0.016802 0.014749 -0.038397 0.029345 -0.047335
d 0.044541 -0.033171 -0.034964 -0.094570 -0.094187 0.285760 0.003501 -0.072881 -0.075062 0.001103 0.049277 0.038786 -0.026110 -0.058271 -0.013436 -0.064898 0.073385 0.070886 -0.007757 -0.103094 -0.012888 -0.070925 0.013203 -0.031761 0.122320 -0.064119 -0.092287 -0.105991 -0.049109 0.079781 0.075347 0.027465 -0.113849 0.085479 0.152317 0.048512 -0.040428 -0.018924 0.018400 0.004858 -0.123137 -0.004192 -0.062558 -0.095345 0.070381 0.128412 0.030880 -0.188582 -0.038044 -0.046379 0.111341 0.029335 0.118742 -0.102929 0.017106 -0.075287 0.042198 -0.021812 -0.117444 -0.137470 -0.023327 -0.015615 -0.159654 -0.101614 0.017023 -0.069439 0.099801 0.074352 -0.016058 -0.108368 0.125314 -0.031177 -0.064669 -0.061199 0.037706 -0.127259 0.075879 0.016897 0.009448 0.054593 0.031079 0.110656 -0.119270 -0.082193 -0.128807 -0.054057 0.057471 -0.063185 0.056988 -0.075640 0.065278 0.139895 -0.146692 -0.046045 -0.117829 0.042082 0.051968 -0.058325 -0.051547 -0.013934 -0.092546 0.041325 -0.009219 0.083956 -0.057926 -0.041013 -0.124188 0.069008 -0.013865 0.024809 0.018607 0.092188 -0.004289 -0.039693 -0.095469 -0.106683 0.058273 -0.080993 -0.022475 -0.104721 0.015488 -0.066833 0.021428 0.177052 0.033425 -0.004821 -0.005955 -0.000190 -0.103809 -0.096593 0.161514 -0.004467 0.175900 0.092067 0.073961 -0.029734 0.063155 0.231330 -0.141105 -0.061341 0.007426 0.104172 -0.003940 -0.041134 -0.009857 -0.072475 0.020875 -0.082710 -0.080714 -0.113121 -0.060069 -0.046276 -0.039665 -0.085794 0.147614 -0.149613 -0.013691 0.022019 -0.094360 -0.032614 0.051284 0.004673 0.029750 -0.083654 -0.024298 0.094019 -0.012843 0.054188 0.166622 -0.048988 0.035299 0.066914 -0.068939 0.014632 0.005503 -0.122259 -0.060925 0.085555 0.059412 0.108162 0.004374 0.147762 0.084887 -0.133944 0.058801 0.004703 0.008499 0.055978 -0.101124 -0.083914 -0.068954 -0.001385 -0.145300 0.031191 -0.039798 0.037734 -0.000674 -0.022455 0.044162 0.019421
z 0.076795 0.006318 0.004302 -0.058067 -0.058158 0.195962 0.009582 -0.069504 -0.046665 0.000374 0.097868 -0.054820 -0.120924 -0.017355 0.018085 0.058983 0.098565 0.039935 0.002801 -0.138487 0.036685 -0.031680 0.014135 0.015450 0.074271 -0.012386 -0.052275 -0.000025 -0.031672 0.015002 0.076144 0.103881 -0.132748 0.073913 0.106403 0.031939 -0.086949 0.102024 0.020503 0.082922 -0.042760 -0.060843 -0.017505 -0.006433 -0.075214 0.078388 0.031680 -0.054112 -0.077583 0.039629 0.091228 0.097946 0.065046 0.006178 0.025759 -0.070144 -0.001130 0.008176 -0.016159 -0.069503 0.070567 -0.000823 -0.097076 -0.155974 0.008347 -0.103846 0.153331 0.061366 -0.031047 -0.042752 -0.002119 -0.030965 -0.124958 -0.043625 -0.013217 -0.124179 0.011377 0.007628 0.000317 -0.001145 0.069254 0.092306 -0.141364 -0.117887 -0.018867 -0.042792 0.061023 0.014857 -0.008827 -0.107880 0.053225 -0.016799 -0.114474 -0.109796 -0.058827 0.037919 -0.007683 -0.011210 -0.103064 0.036754 -0.072613 -0.014096 0.052318 0.035042 -0.064476 0.020349 -0.168577 0.087940 -0.006427 -0.026215 0.022406 -0.021913 -0.074596 0.027908 -0.030657 -0.084878 0.031282 -0.096000 -0.001417 -0.048275 0.003690 -0.095366 -0.041183 0.089029 0.081516 -0.034574 0.015691 -0.047464 -0.138711 0.062746 0.106771 0.003755 0.064867 -0.072679 -0.039410 -0.001791 0.038090 0.133935 -0.120356 -0.092838 -0.034540 0.047853 0.032793 -0.055048 0.089707 -0.022528 0.054744 -0.069714 -0.025642 -0.112395 -0.023736 -0.068528 -0.009202 -0.079117 0.061951 -0.243701 -0.000970 0.113503 -0.017844 -0.066877 0.041317 -0.003763 0.117222 0.015233 -0.041688 0.103783 0.013353 -0.014819 0.157796 -0.053588 0.004364 -0.046701 -0.074083 0.009499 0.026183 -0.005726 -0.093420 0.109659 -0.047239 0.155537 0.009837 0.169421 0.032702 -0.081312 0.034214 0.029875 0.104125 0.036681 -0.089850 -0.082255 -0.013413 0.070263 -0.118794 -0.065161 0.029959 0.070028 0.000789 0.003023 0.033712 0.077335
p 0.012977 -0.031679 0.030937 -0.081832 -0.038332 0.267576 0.010825 -0.068333 -0.060162 0.016720 -0.003953 0.044328 -0.006577 -0.106121 0.059070 -0.135519 0.010411 0.066199 0.037170 -0.043166 0.053544 0.078586 0.140368 0.004809 0.023669 0.004308 -0.018185 -0.113974 -0.026577 -0.004065 -0.043356 0.067570 -0.147073 0.078894 0.085044 0.073970 0.061374 -0.102262 0.055024 0.058274 -0.154377 -0.046885 -0.008913 -0.054889 0.113283 0.034995 -0.044939 -0.212568 -0.023437 -0.002134 0.043842 -0.010371 0.069667 -0.124259 -0.018984 -0.039819 0.029785 -0.039562 -0.106330 -0.126991 -0.067870 -0.147378 -0.145972 0.052771 -0.027806 -0.107811 0.004348 0.020316 -0.026328 -0.169843 0.087148 -0.002859 0.165969 0.012661 0.091614 -0.078563 0.106405 0.013185 0.112826 -0.006704 -0.030946 0.061267 -0.039550 -0.011662 -0.157083 -0.121073 0.010060 -0.168734 0.083577 -0.063614 0.019836 0.145897 -0.113302 -0.043612 -0.084756 0.024625 0.063834 -0.067168 -0.088011 -0.061949 -0.062014 -0.018964 0.049251 0.100570 0.042363 0.003188 -0.060404 0.111435 -0.042663 0.012120 0.021952 0.088186 0.082031 -0.128185 -0.065581 -0.115573 0.020177 -0.057912 -0.109855 -0.049559 0.021992 -0.075075 -0.006223 0.107846 0.118600 0.040921 0.151898 -0.029272 -0.051938 -0.095813 0.090688 -0.007435 0.169036 0.049243 0.153840 -0.079153 0.014025 0.127972 -0.085867 -0.060073 -0.014163 0.086755 -0.037056 -0.114644 -0.002082 -0.062708 0.004099 -0.066536 0.043354 -0.136876 -0.034782 -0.028218 -0.026757 -0.020017 0.133683 -0.116768 0.032586 0.018682 -0.167345 -0.071401 0.050065 -0.006569 -0.027592 -0.055923 0.006185 0.081929 -0.052189 -0.005364 0.034411 -0.066718 -0.040330 0.031800 0.012145 0.061751 0.029110 -0.050058 -0.116729 0.024094 0.038745 0.064128 0.007601 -0.026867 0.144501 -0.148255 -0.012400 0.033793 -0.050228 -0.053421 -0.043042 -0.020553 -0.120440 0.016005 -0.075380 0.068109 -0.100561 0.001610 0.026459 -0.050902 0.028973 -0.055018
m 0.015741 -0.034444 0.005479 -0.041007 -0.016630 0.136568 0.021842 -0.034077 -0.020613 0.015415 0.000116 0.027858 -0.015851 -0.068723 0.028626 -0.058786 0.038195 0.043561 0.019909 -0.042174 0.039826 0.062797 0.081430 0.003210 0.013427 0.013846 -0.017114 -0.056087 -0.000713 -0.008180 -0.018299 0.067668 -0.074863 0.057864 0.066037 0.033206 0.002667 -0.025998 0.017578 0.038991 -0.089369 -0.039069 0.006553 -0.035064 0.033820 0.015023 -0.024928 -0.094999 -0.009839 0.015209 0.042894 0.008639 0.027926 -0.077778 0.002355 -0.020602 0.008794 -0.019975 -0.046764 -0.077441 -0.011184 -0.064459 -0.073889 0.008570 -0.001237 -0.068551 0.021379 0.021497 -0.027761 -0.086275 0.016402 -0.009518 0.087089 -0.008117 0.067726 -0.047813 0.051029 0.014839 0.052392 -0.028507 -0.006740 0.035744 -0.058405 -0.022068 -0.070066 -0.064076 0.007804 -0.076675 0.029774 -0.048462 0.016129 0.057541 -0.049618 -0.038147 -0.037633 0.010311 0.039339 -0.035465 -0.045491 -0.026313 -0.035507 -0.022600 0.037570 0.063547 0.002785 0.017108 -0.068183 0.082661 -0.028995 0.005289 0.029285 0.042545 0.032254 -0.067172 -0.024048 -0.077591 0.009471 -0.041847 -0.056256 -0.023034 0.014638 -0.042952 0.005368 0.050672 0.083233 0.026620 0.078365 -0.033144 -0.028562 -0.022378 0.068686 -0.015630 0.064768 -0.004544 0.087234 -0.032805 0.005786 0.059993 -0.049093 -0.033782 -0.042622 0.038966 -0.001770 -0.056296 0.033980 -0.038371 0.010553 -0.034001 0.030631 -0.073579 -0.006574 -0.014678 -0.007229 -0.037978 0.058296 -0.091451 0.034446 0.026635 -0.070184 -0.063185 0.047963 -0.010252 0.002266 -0.019103 0.006796 0.061201 -0.021162 -0.022707 0.021179 -0.033703 -0.039276 0.007105 0.015488 0.026075 0.025348 -0.011322 -0.069899 0.028736 -0.018956 0.044727 0.001967 0.004800 0.086546 -0.066783 -0.003069 0.017640 -0.003189 -0.038132 -0.037218 -0.015828 -0.060429 0.038273 -0.044494 0.017408 -0.053291 0.012023 0.000795 -0.012838 0.017055 -0.030586
{ 0.011903 -0.032127 0.033407 -0.084190 -0.043036 0.266122 0.002388 -0.068336 -0.042823 0.014415 -0.003728 0.039648 -0.035459 -0.091596 0.053354 -0.091861 0.036783 0.074211 0.042558 -0.049746 0.053488 0.102722 0.142484 -0.011604 0.015917 0.012861 -0.016695 -0.112008 -0.016610 -0.001223 -0.028697 0.080456 -0.146119 0.085180 0.094599 0.057667 0.016292 -0.058763 0.047442 0.052224 -0.149421 -0.057822 -0.016517 -0.067865 0.076182 0.030762 -0.046563 -0.177740 -0.032775 0.030617 0.069910 -0.000272 0.065691 -0.110587 -0.007792 -0.055328 0.026496 -0.044237 -0.097344 -0.111930 -0.046759 -0.129956 -0.115365 0.016973 -0.021259 -0.127245 0.025748 0.012842 -0.031577 -0.155459 0.053904 -0.006403 0.135920 -0.012750 0.107947 -0.092514 0.080500 0.012840 0.109372 -0.005772 -0.006444 0.072087 -0.083232 -0.034056 -0.138521 -0.121720 0.015248 -0.139279 0.055266 -0.064812 0.030996 0.105716 -0.116251 -0.070730 -0.079794 0.036689 0.060129 -0.042759 -0.114240 -0.052233 -0.089982 -0.040462 0.065541 0.092005 0.015622 0.023816 -0.101458 0.126850 -0.043525 0.000154 0.016510 0.073910 0.053604 -0.131779 -0.050992 -0.105951 0.026220 -0.069224 -0.108850 -0.050348 0.012469 -0.081410 -0.011449 0.108427 0.149549 0.026761 0.142066 -0.035402 -0.065679 -0.075039 0.100551 -0.009323 0.149483 0.014403 0.137235 -0.064967 0.003234 0.146332 -0.102352 -0.075822 -0.035778 0.071777 -0.010005 -0.109057 0.030114 -0.061760 0.019799 -0.075019 0.039758 -0.127324 -0.031086 -0.053482 -0.027193 -0.057498 0.105279 -0.149974 0.038512 0.028443 -0.147275 -0.079146 0.070133 0.001442 0.013242 -0.043894 0.001298 0.110083 -0.046248 -0.015673 0.058243 -0.068708 -0.032584 0.027197 0.008496 0.058306 0.031018 -0.032745 -0.114431 0.061804 0.012430 0.079253 -0.012851 0.014754 0.125629 -0.133993 -0.010100 0.035343 -0.032354 -0.064311 -0.049867 -0.035313 -0.124535 0.029830 -0.057028 0.066046 -0.085675 0.027204 0.018362 -0.037971 0.030915 -0.048124
b 0.002116 -0.042447 -0.017324 -0.082773 -0.076784 0.200771 -0.031310 -0.051409 -0.012057 -0.017511 0.008746 0.060048 -0.019048 -0.038770 -0.012211 -0.084541 0.048325 0.047738 0.019387 -0.055387 -0.001684 0.000370 0.036748 -0.049514 0.064757 -0.044508 -0.064468 -0.110741 -0.035359 0.065913 0.014603 0.003792 -0.063947 0.067361 0.096616 -0.002875 -0.030771 -0.013645 -0.001726 -0.034158 -0.113770 0.004491 -0.059515 -0.110463 0.080034 0.089633 0.010786 -0.128146 -0.016790 -0.016943 0.100114 -0.011275 0.107352 -0.088613 0.010306 -0.054847 0.046235 -0.023164 -0.089861 -0.087329 -0.049105 -0.028568 -0.085783 -0.034986 0.008859 -0.071186 0.023098 0.032556 -0.013448 -0.073317 0.090490 -0.012890 0.028061 -0.040438 0.082731 -0.089569 0.063059 0.027571 0.028557 0.046902 0.017500 0.092273 -0.071727 -0.040332 -0.112714 -0.060066 0.040830 -0.050390 0.055391 -0.027580 0.059282 0.118134 -0.109683 -0.028444 -0.079164 0.039512 0.052093 -0.048668 -0.041511 -0.020101 -0.107418 0.008330 -0.017067 0.082226 -0.054408 -0.050143 -0.076899 0.086568 -0.016045 0.035419 0.005868 0.072681 0.028299 -0.086915 -0.038040 -0.083932 0.033914 -0.046303 -0.053080 -0.080911 0.008437 -0.048203 0.044174 0.148140 0.045535 0.000554 0.023685 0.015872 -0.058007 -0.071899 0.134394 -0.027999 0.122185 0.075312 0.109781 -0.029707 0.038546 0.148827 -0.065531 -0.053003 -0.017020 0.058943 0.001048 -0.036959 -0.022880 -0.040539 0.004408 -0.046540 -0.025798 -0.049175 -0.045297 -0.062076 -0.033087 -0.095820 0.098777 -0.098849 0.012796 0.011402 -0.103101 -0.019968 0.057360 0.032222 0.029560 -0.062379 -0.012649 0.084701 0.001967 0.044938 0.101214 -0.013277 0.041911 0.080814 -0.026864 0.030296 0.009199 -0.068022 -0.042984 0.070021 0.044441 0.038204 -0.026615 0.105517 0.056491 -0.093740 0.016041 -0.012522 -0.043851 -0.015264 -0.076565 -0.056447 -0.078671 -0.006681 -0.064590 0.066866 -0.065646 -0.004190 0.007006 -0.018049 0.014312 -0.051156
E 0.053767 0.016597 0.011678 -0.038200 -0.003891 0.146058 0.017042 -0.037325 -0.042839 0.023731 0.034149 -0.050191 -0.056680 -0.064490 0.052766 0.017739 0.037688 0.015320 0.006596 -0.082083 0.062807 0.032161 0.088938 0.036999 0.003086 0.000682 0.013356 0.001605 0.001360 -0.050134 0.011466 0.078380 -0.111606 0.060974 0.049147 0.057984 -0.003289 0.016406 0.037815 0.099504 -0.055938 -0.034926 0.003665 0.027742 -0.035518 0.000488 -0.024699 -0.069684 -0.043972 0.002125 0.013564 0.045796 -0.008087 -0.027883 0.007146 -0.029246 -0.017584 -0.007311 0.000474 -0.056741 0.019048 -0.069368 -0.070246 -0.028558 -0.004291 -0.099503 0.059338 0.037229 -0.015220 -0.072153 0.006796 -0.001815 0.013962 0.004410 -0.001893 -0.080334 0.032259 -0.012184 0.054251 -0.009754 0.021576 0.031602 -0.069183 -0.040898 -0.043294 -0.060131 0.011094 -0.056503 -0.013741 -0.084678 0.013894 0.007054 -0.059884 -0.081956 -0.042327 0.008797 -0.002816 -0.021247 -0.102873 -0.016763 -0.016361 -0.019793 0.069460 0.040299 0.028919 0.051953 -0.078690 0.055662 -0.015277 -0.027277 0.032192 0.000136 -0.004704 -0.025408 -0.032993 -0.055601 0.015128 -0.058057 -0.019414 0.010872 0.023496 -0.057638 -0.059945 0.023806 0.096035 -0.008474 0.060863 -0.055550 -0.070234 0.041398 0.040610 0.009545 0.051046 -0.056435 0.001461 -0.027926 0.005409 0.072485 -0.067715 -0.065496 -0.014208 0.030483 -0.020844 -0.064613 0.071574 -0.040410 0.050354 -0.051868 0.035421 -0.114546 -0.000651 -0.026030 0.006075 0.000305 0.040232 -0.143050 0.011336 0.068875 -0.049608 -0.062172 0.024520 -0.040678 0.043651 0.031218 -0.017667 0.072132 -0.024634 -0.017001 0.072082 -0.066512 -0.040431 -0.047377 -0.014511 0.004630 0.036002 0.004842 -0.093481 0.042516 -0.050704 0.108996 0.013304 0.007100 0.061675 -0.084641 -0.020937 0.027916 0.041092 -0.030210 -0.027084 -0.030606 -0.022213 0.069250 -0.074027 -0.044030 -0.020343 0.040668 0.006772 -0.008276 0.024770 0.034624
1 0.129045 0.031743 0.037328 -0.014405 -0.027883 0.153234 0.053295 -0.024665 -0.043732 0.024007 0.095442 -0.100875 -0.148136 -0.076306 0.085338 0.110440 0.112716 0.031528 -0.019006 -0.143044 0.107623 0.011882 0.085241 0.092746 0.045206 0.037983 0.012214 0.064345 0.001486 -0.089570 0.064865 0.215566 -0.169215 0.073223 0.076966 0.101651 -0.041778 0.071796 0.040486 0.180709 -0.022890 -0.108661 0.065532 0.080603 -0.138958 -0.016332 -0.006527 -0.025904 -0.094331 0.078969 0.023990 0.112740 -0.054707 -0.008544 0.050555 -0.065455 -0.102378 0.013422 0.032384 -0.080089 0.098816 -0.054382 -0.067324 -0.109865 -0.011292 -0.141612 0.167067 0.059449 -0.068786 -0.058919 -0.094091 -0.054748 -0.080464 -0.011353 -0.017867 -0.086097 -0.007918 -0.002526 0.060164 -0.090245 0.070188 0.032039 -0.151594 -0.105469 0.025727 -0.049423 0.002459 -0.006280 -0.045881 -0.160845 -0.004785 -0.101786 -0.044309 -0.177783 -0.035437 0.013972 -0.059666 0.013399 -0.142824 0.030566 0.031475 -0.059427 0.143667 -0.011444 0.012557 0.119914 -0.173302 0.069883 -0.031494 -0.047451 0.073034 -0.064357 -0.076953 0.051379 -0.048906 -0.057708 -0.012656 -0.097917 0.008638 0.027891 -0.000880 -0.125217 -0.091073 -0.021727 0.153094 -0.014689 0.070312 -0.103602 -0.100499 0.117109 0.001312 0.015024 0.040280 -0.162277 -0.099296 -0.037120 0.003805 0.090317 -0.144466 -0.086121 -0.038420 0.017793 0.015167 -0.073153 0.180876 -0.056426 0.085405 -0.069211 0.029737 -0.165228 0.016788 -0.009162 0.049507 0.008684 0.022039 -0.248778 0.029005 0.186957 0.022647 -0.101230 0.044427 -0.073512 0.114192 0.104699 -0.030479 0.128659 -0.033874 -0.086869 0.094975 -0.074896 -0.090532 -0.138553 -0.061642 -0.012222 0.067411 0.064028 -0.129815 0.064529 -0.123165 0.210157 0.039814 0.060634 0.068662 -0.059746 -0.030412 0.055569 0.168107 0.011839 -0.054824 -0.018095 0.004470 0.163569 -0.138022 -0.152928 0.042702 0.128470 0.032399 0.003576 0.011606 0.115276
N 0.054012 -0.023834 -0.062731 -0.039640 -0.103894 0.052734 -0.048036 0.021998 0.000034 -0.025161 0.033227 0.052859 -0.034261 0.069387 -0.107405 -0.005180 0.097267 0.010685 -0.030365 -0.007766 -0.062377 -0.164420 -0.175992 -0.050473 0.148972 -0.066937 -0.121308 -0.051757 -0.042519 0.159558 0.129407 0.018408 0.026793 0.029615 0.060330 -0.041575 -0.097424 0.022701 -0.055362 -0.143972 -0.016627 0.041221 -0.075983 -0.130687 0.044417 0.154369 0.098633 -0.011953 -0.010100 -0.016925 0.075156 -0.006571 0.126242 -0.020280 0.058614 -0.096406 0.023529 -0.019917 -0.073409 -0.027838 -0.004593 0.130592 -0.025898 -0.182398 0.040194 0.048799 0.074898 -0.003547 -0.020134 0.039323 0.036086 -0.071909 -0.198702 -0.069668 0.041461 -0.022603 -0.037733 0.024074 -0.079847 0.071533 0.052643 0.051904 -0.115183 -0.086741 -0.008115 0.070633 0.051488 0.107059 0.051955 0.027121 0.055783 0.011554 -0.048865 0.018488 -0.087219 0.057864 -0.006345 0.000313 0.051104 0.045990 -0.056255 0.047320 -0.091423 -0.027855 -0.124968 -0.111290 -0.063597 0.001763 0.033280 0.073315 -0.009716 0.020863 -0.092372 0.031978 -0.050843 0.016557 0.038378 0.016557 0.048207 -0.112390 -0.047203 -0.012106 0.085006 0.133152 -0.098309 -0.014999 -0.133635 0.078511 -0.021132 -0.075817 0.064572 -0.014023 0.055558 0.102953 -0.036663 0.024415 0.041706 0.153056 -0.112401 0.021727 0.021231 0.026664 0.065728 0.066973 -0.027089 -0.022559 0.005039 -0.013265 -0.183080 0.084245 -0.068593 -0.018509 -0.055194 -0.111013 0.035889 -0.016635 -0.034565 -0.013213 0.045637 0.062211 0.042785 0.026879 0.055020 -0.044513 0.003784 0.072730 0.057076 0.076212 0.104778 0.069978 0.124760 0.105171 -0.102980 -0.019074 -0.045279 -0.079622 0.077952 0.075652 0.072405 0.009989 -0.005445 0.228890 -0.056796 -0.004771 0.080071 -0.037307 0.030090 0.125302 -0.095192 -0.037615 -0.038852 -0.056374 -0.084761 0.033823 0.041986 0.034572 0.025899 0.008279 -0.001466 0.023038
Q 0.063272 -0.046096 -0.032982 -0.106958 -0.116322 0.361003 -0.009485 -0.053609 -0.094175 -0.007418 0.039905 0.060482 -0.029607 -0.097715 0.001062 -0.119744 0.071320 0.079552 -0.000920 -0.097576 0.002676 -0.071388 0.063958 -0.023963 0.150662 -0.072713 -0.102602 -0.169697 -0.062747 0.096597 0.062120 0.052512 -0.153625 0.117943 0.165828 0.087382 0.002914 -0.113257 0.037125 0.003704 -0.193144 0.003780 -0.063415 -0.132464 0.145896 0.151219 0.019381 -0.275064 -0.036933 -0.051807 0.101148 0.005650 0.129600 -0.174709 0.033698 -0.114256 0.016004 -0.037088 -0.180571 -0.178152 -0.080837 -0.078747 -0.198551 -0.065991 0.001258 -0.091353 0.079949 0.058868 -0.040052 -0.176741 0.156908 -0.043805 -0.000865 -0.047112 0.087505 -0.145990 0.112023 0.025419 0.065276 0.052827 0.031741 0.117317 -0.124699 -0.067448 -0.192499 -0.093251 0.038219 -0.128745 0.113671 -0.093915 0.051789 0.201384 -0.151986 -0.065794 -0.165482 0.043037 0.070731 -0.076834 -0.078145 -0.035549 -0.092590 0.040815 0.006277 0.093592 -0.027264 -0.061361 -0.127503 0.082137 -0.019072 0.065101 0.036639 0.133942 0.017522 -0.110315 -0.132938 -0.130239 0.063218 -0.074063 -0.056491 -0.123287 0.018989 -0.088058 0.030348 0.212311 0.058681 0.026266 0.048604 -0.015190 -0.076779 -0.151552 0.152407 0.004743 0.256592 0.140505 0.119634 -0.083177 0.062266 0.305892 -0.180077 -0.073009 0.032624 0.140994 -0.036321 -0.056606 -0.004038 -0.112093 0.028904 -0.107302 -0.081080 -0.136131 -0.083232 -0.041588 -0.043718 -0.081747 0.192447 -0.170306 -0.000838 0.026805 -0.158592 -0.037133 0.086558 -0.006181 0.001005 -0.086815 -0.015372 0.148039 -0.040460 0.068421 0.175106 -0.057683 0.046699 0.097183 -0.084199 0.021911 0.015662 -0.148507 -0.088210 0.076770 0.086842 0.128963 0.004434 0.120623 0.145709 -0.191189 0.037139 -0.004278 -0.014000 0.044337 -0.119997 -0.064133 -0.134508 0.005149 -0.193300 0.059277 -0.094444 0.043703 0.036958 -0.046672 0.054806 -0.018501
f 0.018169 -0.042062 -0.046952 -0.026260 -0.068317 0.160624 0.036617 -0.015221 -0.075223 -0.013471 0.003732 0.067887 0.051906 -0.080661 -0.009609 -0.076539 -0.000548 0.061404 -0.033614 -0.024476 -0.047960 -0.111418 0.018443 -0.023361 0.095102 -0.047293 -0.055427 -0.106424 -0.045243 0.052265 0.039229 -0.013782 -0.038647 0.020588 0.108079 0.089192 0.039661 -0.143976 0.020089 -0.011997 -0.102828 0.041669 -0.005593 -0.067853 0.118433 0.059333 0.013299 -0.185155 0.011118 -0.076854 0.026916 -0.019999 0.037180 -0.150003 0.016517 -0.040462 -0.010450 -0.021427 -0.143803 -0.125524 -0.076770 -0.036098 -0.120788 0.011151 -0.001866 0.010659 0.036955 0.040640 -0.010423 -0.121930 0.124962 -0.019887 -0.014942 -0.046829 0.036554 -0.045994 0.071626 0.013709 0.036402 0.029267 0.019641 0.043627 -0.027527 -0.006885 -0.111320 -0.027489 -0.006697 -0.109917 0.077006 -0.037674 -0.015851 0.164976 -0.034482 0.010472 -0.091244 -0.005993 0.030917 -0.046513 0.011478 -0.021069 0.015353 0.068615 -0.011692 0.016041 0.014638 -0.020301 -0.042239 -0.036416 -0.007554 0.057936 0.030924 0.129174 0.040909 -0.041287 -0.124676 -0.062128 0.032749 -0.028584 0.001763 -0.062770 0.010759 -0.022984 0.035477 0.100481 -0.014955 0.044350 -0.002312 -0.009569 0.010276 -0.171555 0.043740 0.007206 0.179742 0.151790 0.057205 -0.042517 0.040008 0.198949 -0.105917 0.001707 0.076277 0.101963 -0.048580 0.018554 -0.052271 -0.089599 -0.012896 -0.050999 -0.091054 -0.069271 -0.041360 0.036832 -0.012924 0.014294 0.106738 0.006802 -0.010892 -0.038374 -0.060271 0.026969 0.023393 -0.017926 -0.076760 -0.086180 0.008578 0.050000 -0.074896 0.049185 0.072608 -0.032688 0.018559 0.070129 -0.038853 -0.007204 -0.003584 -0.153486 -0.000896 -0.004621 0.093953 0.055998 0.006557 0.006480 0.109474 -0.088909 0.036083 -0.026825 -0.016564 0.071976 -0.032881 -0.014384 -0.055135 -0.015695 -0.131612 0.048113 -0.063216 0.042161 0.020733 -0.037547 0.034088 0.005990
V 0.030209 -0.051243 -0.040527 -0.104414 -0.118149 0.286727 -0.048638 -0.038795 -0.047059 -0.029879 0.037383 0.079514 -0.027164 -0.027540 -0.045581 -0.108306 0.062013 0.054129 0.003871 -0.072436 -0.027827 -0.116102 -0.032154 -0.068037 0.160642 -0.093018 -0.132441 -0.155210 -0.062931 0.144343 0.068163 -0.012782 -0.067282 0.079555 0.118324 0.013589 -0.023406 -0.066405 -0.000055 -0.071094 -0.152595 0.033803 -0.098243 -0.153737 0.145472 0.183324 0.048356 -0.199317 -0.029784 -0.051288 0.110224 -0.012110 0.172188 -0.118604 0.039067 -0.104461 0.052959 -0.041073 -0.167584 -0.127016 -0.099923 0.012410 -0.148483 -0.087787 0.015453 -0.054872 0.054023 0.027165 -0.022332 -0.096571 0.141408 -0.041362 -0.050000 -0.065728 0.088567 -0.124540 0.076589 0.034087 0.012753 0.091114 0.036235 0.127831 -0.103900 -0.067887 -0.153025 -0.041948 0.060139 -0.034818 0.114671 -0.039248 0.079223 0.176916 -0.149331 -0.024399 -0.150754 0.052138 0.068316 -0.062438 -0.031626 -0.020465 -0.129448 0.051132 -0.055510 0.085706 -0.080125 -0.112830 -0.097098 0.062009 0.019793 0.083967 0.002868 0.099550 -0.000151 -0.078419 -0.090474 -0.085846 0.053201 -0.036790 -0.016928 -0.136072 0.000364 -0.064799 0.074813 0.229860 -0.012920 -0.000084 -0.018736 0.043690 -0.057413 -0.139872 0.171530 -0.019345 0.202342 0.164928 0.098992 -0.043193 0.061772 0.263469 -0.134963 -0.049918 0.030652 0.092351 -0.014243 -0.021803 -0.062978 -0.066391 0.006212 -0.074339 -0.115419 -0.048853 -0.091013 -0.071588 -0.050773 -0.109488 0.165424 -0.124423 -0.018368 0.008398 -0.123691 0.013196 0.077158 0.042361 0.015238 -0.098730 -0.013180 0.119455 0.009320 0.106815 0.172149 0.001784 0.100275 0.145697 -0.099500 0.019391 0.004276 -0.135086 -0.016563 0.084964 0.106011 0.061170 -0.012331 0.186300 0.069128 -0.142907 0.039975 -0.031291 -0.048098 0.055062 -0.121368 -0.073783 -0.102397 -0.039706 -0.144649 0.093673 -0.073952 0.002880 0.018060 -0.036805 0.019457 -0.043146
5 0.009300 -0.013717 -0.033000 -0.035132 -0.021842 0.110927 0.020823 -0.014056 -0.046307 -0.000420 0.029021 0.011042 -0.013140 -0.030590 -0.011243 -0.002864 0.025408 0.028210 -0.009505 -0.076601 -0.024063 -0.063406 0.016319 -0.011359 0.061890 -0.011985 -0.034255 -0.044133 -0.031849 0.037402 0.034116 -0.009226 -0.033813 0.036461 0.081074 0.047797 -0.031174 -0.026886 0.020880 0.033128 -0.062827 0.005429 -0.016201 -0.006903 0.029765 0.072435 0.004537 -0.080226 -0.018163 -0.021571 0.052967 0.032659 0.021084 -0.045772 0.021723 -0.027018 -0.003654 -0.004867 -0.070579 -0.063618 -0.006414 -0.004281 -0.079909 -0.035092 0.008105 -0.022815 0.076825 0.050691 -0.000018 -0.060681 0.051287 -0.000595 -0.064634 -0.037475 -0.003315 -0.058721 0.040488 0.016790 0.000018 0.026832 0.020071 0.041210 -0.053516 -0.032981 -0.052760 -0.031714 0.026732 -0.036157 0.032846 -0.057273 0.026266 0.081592 -0.052213 -0.031468 -0.050859 -0.013652 0.040030 -0.017183 -0.013631 0.007407 -0.040378 0.020467 0.006624 0.022618 -0.020620 -0.000095 -0.077387 0.004235 0.008580 0.014008 0.011080 0.056362 -0.011643 -0.003441 -0.056993 -0.054992 0.032443 -0.045093 0.014221 -0.049510 0.015738 -0.019079 -0.003719 0.055396 -0.001357 -0.000328 0.002808 -0.031173 -0.029658 -0.046497 0.073391 0.019053 0.061880 0.037516 0.013140 -0.021938 0.023964 0.127822 -0.063448 -0.032237 0.038843 0.060339 -0.023339 -0.002325 0.005631 -0.033550 0.013948 -0.035474 -0.041669 -0.054231 -0.029415 -0.020746 -0.004374 -0.033832 0.059347 -0.088599 -0.010980 0.018600 -0.029173 -0.025727 0.032062 -0.005381 0.017903 -0.024597 -0.013934 0.042650 -0.026375 0.037197 0.105907 -0.033099 0.026454 0.013600 -0.038545 -0.026649 0.019116 -0.076009 -0.009920 0.039351 0.010100 0.063148 -0.010513 0.041577 0.057443 -0.056168 0.038181 -0.011084 0.039050 0.046144 -0.034879 -0.046978 -0.020294 0.016339 -0.090587 0.011240 -0.014702 0.020011 -0.025772 0.006801 0.042030 0.020491
2 0.035908 -0.042382 -0.058126 -0.102300 -0.116160 0.324642 -0.021024 -0.075807 -0.094900 -0.027439 0.052359 0.051626 -0.009564 -0.055470 -0.039963 -0.093188 0.048655 0.063707 -0.006125 -0.111591 -0.050202 -0.135363 0.004446 -0.064886 0.154727 -0.113273 -0.121285 -0.156523 -0.080658 0.128034 0.084373 -0.030026 -0.106825 0.085914 0.168752 0.051069 -0.027828 -0.079023 0.019141 -0.020840 -0.159564 0.039897 -0.088809 -0.131330 0.145902 0.188558 0.056794 -0.251139 -0.035041 -0.081196 0.110616 0.022813 0.154658 -0.132873 0.022687 -0.101979 0.045422 -0.027344 -0.171483 -0.144978 -0.077259 -0.023048 -0.187225 -0.092973 0.021513 -0.048842 0.092816 0.072548 -0.003884 -0.139349 0.197777 -0.021857 -0.091143 -0.063705 0.031538 -0.151860 0.103809 0.014154 0.004223 0.100228 0.042284 0.141216 -0.094569 -0.064154 -0.173604 -0.069515 0.066733 -0.089482 0.104825 -0.067630 0.071759 0.239435 -0.160049 -0.035125 -0.153853 0.032007 0.076574 -0.068604 -0.041616 -0.011997 -0.117202 0.078669 -0.044336 0.091484 -0.062223 -0.098008 -0.097334 0.041615 0.012982 0.064379 0.010006 0.134310 0.000943 -0.068714 -0.115819 -0.125534 0.073147 -0.071599 -0.015917 -0.139767 0.021749 -0.052025 0.041243 0.229406 -0.011985 -0.000942 -0.008846 0.003233 -0.086361 -0.146855 0.177826 0.008435 0.247626 0.176261 0.090276 -0.040088 0.084361 0.297841 -0.151353 -0.064939 0.065207 0.138530 -0.043114 -0.022066 -0.058917 -0.076308 0.012970 -0.089072 -0.111224 -0.108850 -0.090419 -0.058337 -0.058603 -0.087150 0.190183 -0.144959 -0.030497 -0.009624 -0.145118 0.001617 0.052742 0.017693 -0.002186 -0.125997 -0.038306 0.099073 -0.010995 0.107371 0.216181 -0.046909 0.100969 0.112723 -0.095845 0.000537 -0.011175 -0.191749 -0.050279 0.085801 0.123921 0.103118 -0.010591 0.161900 0.102601 -0.187425 0.065481 -0.017628 -0.028037 0.077309 -0.124169 -0.102134 -0.079538 -0.042969 -0.189655 0.068752 -0.072963 0.029955 0.008387 -0.045221 0.056155 -0.007233
v 0.031864 0.020035 -0.005405 -0.033074 -0.004021 0.036798 -0.020723 -0.026716 -0.000518 0.005198 0.058522 -0.063546 -0.089798 0.045501 -0.016662 0.084691 0.055282 -0.023212 0.012172 -0.086100 0.015637 -0.033581 -0.036180 0.001678 0.040147 -0.032303 -0.027091 0.055699 -0.011527 0.031985 0.054118 0.024912 -0.029030 0.035688 0.010343 -0.043572 -0.097498 0.125291 -0.012083 0.042597 0.030451 -0.035285 -0.038739 0.037677 -0.080854 0.067891 0.029483 0.058036 -0.064846 0.017352 0.050631 0.072476 0.025834 0.092348 0.017898 -0.024759 0.017005 0.024535 0.051619 0.017577 0.063580 0.049544 -0.001596 -0.106633 0.028997 -0.031025 0.087357 0.049578 0.006159 0.055301 -0.031037 -0.018049 -0.134345 -0.007938 -0.059566 -0.068447 -0.024616 -0.004823 -0.050465 0.020721 0.034879 0.034799 -0.062649 -0.045214 0.025444 0.000779 0.046366 0.084544 -0.033315 -0.036773 0.053011 -0.054299 -0.053274 -0.054365 0.007484 0.019683 -0.008101 0.020292 -0.037083 0.050569 -0.052610 -0.011509 0.001712 -0.000960 -0.070975 -0.009351 -0.054017 0.030563 0.016548 -0.045809 -0.000117 -0.056610 -0.071902 0.069792 0.019676 -0.030890 0.024390 -0.038758 0.032278 -0.022215 0.007063 -0.022924 -0.028962 0.007456 0.004970 -0.058791 -0.038500 -0.011486 -0.091974 0.124443 0.073219 0.007675 -0.046600 -0.077571 -0.069256 0.029032 0.025179 -0.002680 -0.012550 -0.049583 -0.033179 -0.007011 0.031123 -0.014710 0.051397 0.039227 0.028091 -0.012875 -0.005463 -0.014829 -0.004387 -0.072989 -0.000465 -0.072102 0.010457 -0.137889 -0.022453 0.079768 0.023412 -0.024145 0.007824 0.014131 0.108369 0.026416 -0.041433 0.024465 0.063899 0.013041 0.115689 -0.013414 0.035828 -0.053349 -0.050837 -0.027559 0.012580 0.035700 -0.031801 0.084423 -0.054196 0.062421 0.019191 0.131811 -0.060809 -0.003896 0.012555 0.012432 0.078872 0.036917 -0.054101 -0.062248 0.047883 0.030400 -0.041214 -0.061373 0.046437 0.011686 -0.031758 0.017020 0.009538 0.039777
i 0.046761 -0.010170 -0.039535 -0.037577 -0.045866 0.127203 0.009716 -0.027631 -0.049483 -0.004245 0.043011 0.007916 -0.021389 -0.022095 -0.022227 -0.019554 0.043503 0.024407 -0.005872 -0.068567 -0.017533 -0.085226 -0.020519 -0.012303 0.079568 -0.039924 -0.056299 -0.037543 -0.029778 0.059899 0.056905 0.014183 -0.055900 0.043814 0.075097 0.028454 -0.036456 -0.018038 0.012016 0.002364 -0.051941 0.012880 -0.028203 -0.045318 0.034519 0.094352 0.039680 -0.086328 -0.023940 -0.030709 0.039687 0.029596 0.063568 -0.035111 0.016357 -0.053837 0.012903 -0.007099 -0.062696 -0.061995 0.005869 0.008287 -0.084738 -0.076878 0.011662 -0.009190 0.073951 0.039068 -0.007183 -0.056929 0.062439 -0.014675 -0.086672 -0.026718 -0.003256 -0.066176 0.033965 0.002792 -0.010442 0.037744 0.024623 0.054152 -0.063252 -0.054353 -0.046297 -0.010377 0.034186 -0.016378 0.042170 -0.042138 0.031182 0.071808 -0.060773 -0.022085 -0.062674 0.007067 0.021554 -0.032477 -0.017965 0.012204 -0.033139 0.038240 -0.018929 0.021473 -0.035812 -0.035161 -0.061646 0.020170 0.016149 0.026250 0.011357 0.038037 -0.026793 -0.003266 -0.047627 -0.052269 0.034767 -0.025805 0.012279 -0.051577 0.005666 -0.027670 0.009382 0.085297 -0.017137 -0.002428 -0.012749 -0.009465 -0.043243 -0.045588 0.069476 0.010702 0.087161 0.046829 0.004581 -0.007702 0.036731 0.127322 -0.097665 -0.023142 0.027921 0.062243 -0.010743 -0.000425 0.008706 -0.035223 0.010456 -0.035212 -0.063148 -0.046963 -0.035552 -0.009854 -0.032426 -0.042244 0.071321 -0.093223 -0.017293 0.010735 -0.033432 -0.008605 0.022967 -0.007079 0.017629 -0.029105 -0.017214 0.046205 0.005185 0.030686 0.108872 -0.022626 0.040226 0.025047 -0.059354 -0.007701 -0.004728 -0.079647 -0.016442 0.051056 0.025499 0.065996 0.007761 0.090889 0.038737 -0.069019 0.038831 -0.000906 0.028098 0.053445 -0.061466 -0.044548 -0.023111 -0.004543 -0.108451 0.000558 -0.012427 0.031149 0.008699 -0.011053 0.035500 0.028974
g 0.026586 -0.022636 -0.030643 -0.035973 -0.042544 0.123293 0.006454 -0.020959 -0.029215 -0.005899 0.027219 0.012950 -0.039760 -0.024852 -0.009593 0.029851 0.051211 0.037107 -0.014565 -0.049332 -0.012584 -0.067374 -0.006086 -0.027375 0.069460 -0.027372 -0.045883 -0.037796 -0.024970 0.045959 0.056911 0.034297 -0.030651 0.031786 0.074746 0.025179 -0.043039 -0.000042 -0.000676 0.008334 -0.055122 -0.002983 -0.031978 -0.025324 -0.001083 0.057753 0.009377 -0.052751 -0.028447 -0.009609 0.057128 0.022149 0.033236 -0.049726 0.033578 -0.049231 -0.004553 -0.016092 -0.060651 -0.062789 -0.014959 0.016907 -0.055668 -0.068484 0.015304 -0.036764 0.077469 0.028995 -0.016592 -0.038673 0.015954 -0.037165 -0.079226 -0.059827 0.025432 -0.072804 0.001855 0.012504 0.012793 0.021858 0.055941 0.047459 -0.090474 -0.044478 -0.047652 -0.025022 0.019737 -0.004529 0.012125 -0.041816 0.018050 0.030268 -0.045226 -0.038897 -0.056419 0.021379 0.010581 -0.004270 -0.032494 0.012719 -0.029805 0.012552 0.019004 0.000368 -0.039843 0.003562 -0.099283 -0.000446 0.003283 0.007352 0.017667 0.039155 -0.027323 -0.000780 -0.064956 -0.046057 0.038296 -0.045833 0.019178 -0.044701 -0.002778 -0.043976 0.006731 0.064489 0.027356 -0.002306 -0.023856 -0.015691 -0.043882 -0.031746 0.067466 -0.006549 0.064163 0.027652 -0.014762 -0.010226 0.018251 0.144045 -0.081155 -0.035883 0.009980 0.038907 0.012190 0.007955 0.019955 -0.040557 0.019519 -0.050539 -0.067101 -0.038089 -0.021523 -0.044136 0.007431 -0.050702 0.039726 -0.089813 -0.001796 0.031296 -0.006183 -0.001184 0.039963 0.005507 0.034762 -0.029261 -0.004745 0.081074 -0.015444 0.032881 0.110540 -0.022013 0.026577 0.016807 -0.046226 -0.015953 0.017957 -0.058037 -0.016787 0.066992 0.005626 0.074245 -0.000657 0.097195 0.033154 -0.045504 0.018568 -0.016480 0.043661 0.050641 -0.044492 -0.042155 -0.029157 0.027392 -0.089972 0.007423 -0.008552 0.049312 -0.009177 -0.013978 0.017790 0.027655
S 0.135175 0.008436 0.036826 -0.021145 -0.039915 0.227671 0.102903 -0.048056 -0.085277 0.030059 0.115662 -0.088147 -0.148057 -0.115177 0.108734 0.103298 0.123900 0.076059 -0.020072 -0.170447 0.110416 -0.013330 0.109988 0.093836 0.089702 0.054861 -0.010217 0.050503 -0.020375 -0.077886 0.079773 0.251250 -0.204988 0.075768 0.125484 0.150438 -0.038764 0.035923 0.061622 0.223572 -0.053793 -0.147547 0.082546 0.096364 -0.131372 0.000783 -0.022158 -0.083388 -0.116341 0.086951 0.046264 0.131211 -0.058130 -0.042398 0.051949 -0.079759 -0.108218 0.012393 -0.021457 -0.150042 0.102652 -0.078232 -0.129980 -0.114943 -0.021737 -0.145024 0.223635 0.088506 -0.083396 -0.110600 -0.090366 -0.073245 -0.089303 -0.034047 -0.007121 -0.114203 0.017054 0.012330 0.080606 -0.118378 0.084382 0.041875 -0.182558 -0.125909 -0.002427 -0.076414 0.000832 -0.046275 -0.023408 -0.205600 -0.017096 -0.075005 -0.056405 -0.190665 -0.048738 0.007862 -0.038037 0.001478 -0.149112 0.041770 0.051068 -0.056094 0.177983 -0.013233 0.011968 0.145764 -0.235171 0.067087 -0.049187 -0.058153 0.094667 -0.027096 -0.070673 0.062071 -0.099720 -0.106986 -0.001022 -0.137627 0.007022 0.004132 0.005604 -0.158176 -0.093795 -0.014645 0.179340 0.009944 0.098500 -0.133069 -0.117690 0.076631 0.024127 0.024023 0.094908 -0.157719 -0.093628 -0.052700 0.018691 0.145780 -0.200928 -0.096121 -0.033574 0.058048 0.015240 -0.084105 0.201074 -0.078818 0.075556 -0.101421 0.014377 -0.219409 0.011481 -0.003535 0.062108 0.006605 0.056003 -0.300753 0.037888 0.206107 0.018049 -0.120500 0.063471 -0.071009 0.102142 0.073959 -0.017866 0.149286 -0.073299 -0.108042 0.125885 -0.108686 -0.120799 -0.160047 -0.073812 -0.003153 0.084495 0.033504 -0.157394 0.073157 -0.119860 0.260489 0.064045 0.071493 0.125667 -0.076804 -0.010141 0.064190 0.208764 0.054586 -0.065696 -0.026405 -0.017038 0.192354 -0.196270 -0.156972 0.038817 0.162334 0.024004 -0.010798 0.032154 0.144706
$ -0.024780 -0.048713 -0.086233 0.009186 -0.075447 0.045000 0.015043 0.031297 -0.065369 -0.037108 -0.016409 0.101332 0.140473 -0.046206 -0.066213 -0.090846 -0.047053 0.024331 -0.062312 0.017982 -0.125829 -0.209528 -0.060642 -0.061153 0.128633 -0.086556 -0.077240 -0.114790 -0.069470 0.111188 0.059919 -0.135233 0.073156 -0.039057 0.079623 0.064359 0.062443 -0.201602 -0.000826 -0.102007 -0.072291 0.114745 -0.028618 -0.087369 0.184228 0.094181 0.049738 -0.166521 0.053950 -0.131213 -0.002638 -0.058610 0.026618 -0.140972 0.014064 -0.021751 -0.007402 -0.013798 -0.166814 -0.088785 -0.121511 0.034135 -0.083862 0.034077 0.006445 0.114643 -0.010273 0.033108 0.017773 -0.068329 0.179571 -0.011365 -0.079297 -0.044027 0.000107 0.011930 0.066996 0.021970 -0.037051 0.073314 0.004062 0.009443 0.045730 0.028381 -0.090191 0.032894 -0.013926 -0.070851 0.107307 0.011801 -0.023115 0.221348 0.014123 0.092835 -0.074904 -0.039127 0.042546 -0.043842 0.118852 -0.015304 0.046944 0.123385 -0.095062 -0.010628 0.005254 -0.093864 0.048429 -0.130401 0.027451 0.106814 0.005845 0.154865 0.040148 -0.018573 -0.123112 -0.006755 0.026294 0.024893 0.060194 -0.079780 0.007767 0.055004 0.082428 0.097892 -0.158481 0.045429 -0.090716 0.042312 0.085676 -0.243069 0.002479 0.018515 0.173807 0.262104 0.036705 -0.027302 0.053922 0.180725 -0.050758 0.061973 0.154229 0.093467 -0.071667 0.101741 -0.143077 -0.071468 -0.042045 -0.016123 -0.151476 0.016313 -0.070917 0.073948 -0.019951 0.043274 0.094836 0.148790 -0.043214 -0.118983 -0.024683 0.105805 -0.011149 -0.008571 -0.143119 -0.129141 0.005371 -0.028746 -0.064383 0.106419 0.055243 0.029568 0.087945 0.136050 -0.058384 -0.042865 -0.035690 -0.213626 0.102352 -0.067039 0.176624 -0.027287 -0.020113 -0.017033 0.069087 -0.047012 0.061898 -0.071643 -0.077919 0.124004 -0.018595 0.001183 -0.031052 -0.094065 -0.116766 0.080372 -0.058148 0.011277 0.020800 -0.029374 0.012757 -0.005061
u 0.039117 0.012343 0.109933 -0.013004 0.054754 0.065813 0.082111 -0.042862 -0.009046 0.075755 0.020516 -0.076068 -0.095451 -0.105409 0.147836 0.051058 0.056939 0.059053 0.027538 -0.066308 0.149183 0.259228 0.203058 0.116131 -0.118489 0.142791 0.093249 0.077271 0.052993 -0.176075 -0.064581 0.210174 -0.159540 0.062522 -0.006172 0.065211 0.004187 0.087872 0.063433 0.206581 0.002201 -0.168849 0.105855 0.122839 -0.155258 -0.167290 -0.120794 0.015564 -0.036865 0.110956 0.015666 0.053315 -0.112842 0.019015 -0.035205 0.044054 -0.020712 0.023438 0.105645 -0.052864 0.114579 -0.156943 -0.016465 0.051055 -0.038455 -0.153181 0.057283 0.034783 -0.036112 -0.054719 -0.145856 -0.001692 0.191975 0.037881 0.022568 -0.028334 0.008910 0.006702 0.105068 -0.154672 -0.028364 -0.027684 -0.071663 -0.020756 0.033161 -0.094703 -0.021574 -0.091298 -0.094582 -0.098578 -0.029019 -0.157682 -0.010299 -0.109213 0.074531 -0.004513 -0.024748 -0.009270 -0.147161 -0.019621 0.038954 -0.135877 0.191473 0.038591 0.086517 0.191344 -0.126953 0.145968 -0.102818 -0.133173 0.056759 -0.066472 0.022276 -0.010651 0.023591 -0.069511 -0.030207 -0.095314 -0.089776 0.079480 0.026295 -0.084639 -0.116946 -0.130994 0.249270 0.029321 0.179996 -0.118688 -0.097245 0.157643 -0.012200 -0.004693 -0.067200 -0.247515 0.027312 -0.043781 -0.051959 -0.112303 -0.006869 -0.079018 -0.135452 -0.005194 0.038602 -0.127729 0.184966 -0.002096 0.042844 -0.042620 0.192791 -0.149594 0.084778 -0.002658 0.053629 0.010859 -0.035570 -0.158346 0.096899 0.136357 0.004770 -0.172046 0.039662 -0.063325 0.078131 0.103646 0.030988 0.031604 -0.068861 -0.172225 -0.075665 -0.116618 -0.216116 -0.194437 0.096528 0.069378 0.083643 0.178834 -0.166326 0.022117 -0.202029 0.105483 0.038704 -0.111413 0.073607 0.020291 -0.047605 0.091091 0.130231 -0.116494 0.052597 0.016997 -0.008143 0.165903 0.047758 -0.104061 0.006585 0.043914 0.001407 0.031688 0.025959 0.051096
w 0.070061 -0.018465 -0.164505 0.002151 -0.118756 0.034732 -0.037141 0.048655 -0.062238 -0.075126 0.058053 0.037579 0.048733 0.047230 -0.144557 0.013665 0.022444 -0.042107 -0.085173 -0.033329 -0.148649 -0.423472 -0.238797 -0.084998 0.242404 -0.196565 -0.158606 -0.054848 -0.090230 0.208202 0.181557 -0.128118 0.099046 -0.026190 0.094263 0.002865 -0.043137 -0.093668 -0.056832 -0.153621 -0.017214 0.176392 -0.088941 -0.110734 0.113521 0.223391 0.166671 -0.083114 -0.002739 -0.169403 0.007345 0.005686 0.105834 -0.062629 0.090378 -0.102039 -0.038451 -0.002470 -0.139472 -0.053634 -0.077996 0.188145 -0.077834 -0.164219 0.066759 0.148349 0.076937 0.049192 0.011133 0.028266 0.177512 -0.058542 -0.369171 -0.086005 -0.072511 -0.052256 -0.003616 -0.004486 -0.127659 0.150633 0.104776 0.056881 -0.033492 -0.045066 -0.038709 0.126053 0.022621 0.107343 0.095468 0.001856 0.016602 0.169575 0.000616 0.056525 -0.137545 0.001137 -0.013219 -0.007944 0.120865 0.062985 0.031400 0.186797 -0.167100 -0.066789 -0.109575 -0.176371 0.022970 -0.184835 0.106285 0.139419 0.018530 0.090233 -0.085202 0.094510 -0.125012 0.030107 0.056515 0.047629 0.173858 -0.112652 -0.015638 0.036790 0.109620 0.163613 -0.260220 -0.020346 -0.256985 0.077317 0.043418 -0.154967 0.035249 0.016953 0.160702 0.273692 -0.121094 0.039712 0.110024 0.267579 -0.119240 0.053839 0.172036 0.069086 -0.048753 0.170072 -0.124288 -0.067712 -0.007797 -0.012811 -0.292728 0.068141 -0.094672 0.037413 -0.039315 -0.011771 0.093016 0.055150 -0.110755 -0.062241 0.043154 0.177224 -0.010502 0.000444 -0.052268 -0.096585 -0.043035 0.037908 0.040636 0.183022 0.211102 0.080543 0.213308 0.155185 -0.194434 -0.118080 -0.062415 -0.248495 0.136910 0.018112 0.178834 0.041244 0.012235 0.217441 -0.038708 -0.062195 0.083247 -0.102348 -0.005502 0.232100 -0.114818 -0.043360 0.033723 -0.093648 -0.236764 -0.004559 0.009728 0.054702 0.025178 -0.042016 -0.000313 0.069020
R -0.229852 -0.003307 -0.075674 0.196887 0.127599 -0.612373 -0.095256 0.190729 0.123998 -0.094473 -0.167913 0.102665 0.309091 0.173421 -0.160821 -0.039619 -0.269494 -0.157049 -0.045045 0.275460 -0.235256 -0.145239 -0.218523 -0.114494 -0.093968 -0.070756 0.047874 0.013172 0.021676 0.074700 -0.086624 -0.480330 0.477814 -0.253284 -0.260426 -0.156912 0.139948 -0.171276 -0.100429 -0.284553 0.187211 0.257518 -0.024283 0.013520 0.167799 -0.052202 0.043797 0.213137 0.197120 -0.144812 -0.191384 -0.179594 -0.119937 0.093809 -0.033676 0.185521 0.000998 0.036500 0.032073 0.271389 -0.181023 0.203236 0.278727 0.275394 0.012692 0.365424 -0.333488 -0.126517 0.123432 0.244002 0.072584 0.106523 0.003628 0.048592 -0.117855 0.281295 -0.062579 -0.013178 -0.188303 0.103017 -0.105864 -0.159969 0.402752 0.275242 0.125225 0.198553 -0.082926 0.136316 0.020880 0.283509 -0.084572 0.094385 0.289610 0.300045 0.154480 -0.134463 0.033177 0.062535 0.359872 -0.022221 0.109382 0.138831 -0.250449 -0.106629 0.042531 -0.179001 0.445358 -0.347037 0.126333 0.120147 -0.114322 0.022412 0.074247 0.053611 0.122167 0.255217 -0.078513 0.253704 0.157398 0.067806 -0.011577 0.311284 0.132320 -0.166639 -0.430559 0.007996 -0.229077 0.154745 0.352239 -0.121276 -0.226744 0.010295 -0.192334 0.282093 -0.037167 0.074210 -0.039307 -0.298699 0.375971 0.238054 0.191663 -0.127846 -0.109228 0.273838 -0.332110 0.131222 -0.132982 0.202511 -0.042557 0.379968 0.002573 0.115224 0.028937 0.169511 -0.151800 0.620060 -0.080438 -0.310690 0.119139 0.253446 -0.146334 0.079972 -0.279524 -0.093475 0.025521 -0.350472 0.048388 0.160732 -0.252120 0.205926 0.160519 0.187859 0.070013 -0.116467 -0.097356 -0.069193 0.368272 -0.277003 0.200504 -0.426681 -0.075624 -0.265647 -0.193231 0.235198 -0.013617 -0.153831 -0.274879 0.028847 0.187411 0.125237 0.160818 -0.266859 0.270806 0.144787 0.000876 -0.206403 -0.056475 0.021665 -0.092696 -0.161060
# -0.015824 -0.003151 -0.032428 0.010440 0.010291 -0.068776 0.013764 0.028958 0.019008 -0.003324 -0.016068 0.031965 0.028445 0.025204 -0.039687 -0.003464 -0.009174 -0.012899 -0.016196 0.023258 -0.035755 -0.052161 -0.058792 -0.016147 0.007137 0.000520 -0.007323 0.002539 0.015756 0.012478 -0.009470 -0.031744 0.065117 -0.023592 0.006591 -0.012526 -0.013638 -0.000691 -0.022919 -0.038407 0.015553 0.043833 0.017786 -0.005154 0.010000 -0.003597 0.012364 0.032610 0.032740 -0.023119 -0.008081 -0.006960 0.005025 -0.011633 0.018247 0.028278 -0.000810 -0.011431 -0.006334 0.018670 0.003171 0.058325 0.012500 0.002295 0.019665 0.039187 -0.009722 -0.000545 0.006982 0.020499 0.000619 0.012119 -0.029527 -0.022476 0.009881 0.048017 -0.017983 0.003333 -0.020755 0.009966 -0.004632 -0.021071 0.016041 0.004121 0.025472 0.046944 -0.007644 0.023160 0.004227 0.026485 -0.000993 0.009735 0.029980 0.034535 -0.003808 -0.013727 -0.009346 0.008728 0.061723 0.009416 0.007456 0.018221 -0.050385 -0.018468 -0.014348 -0.005981 0.016955 -0.028538 0.024179 0.027050 -0.003107 0.010323 0.009865 0.027919 0.006856 0.025574 0.000795 0.028376 0.027535 0.002896 -0.009805 0.029036 0.039085 -0.003073 -0.053878 -0.006192 -0.053867 0.013731 0.040926 -0.029908 0.002101 -0.013498 -0.045016 0.032758 -0.001967 0.022822 -0.000636 0.003184 0.019554 0.038966 0.011216 -0.015004 0.000492 0.037122 -0.037649 -0.009712 -0.018545 0.038755 -0.049798 0.049457 0.009681 0.031927 -0.003337 0.009031 -0.022615 0.062354 -0.015050 -0.031771 0.040384 0.025333 -0.016417 -0.009308 -0.026574 0.006715 0.007549 -0.012916 0.005576 0.017420 -0.027868 0.038576 0.020519 0.031348 0.008338 -0.026606 -0.008215 -0.026557 0.063169 -0.018320 0.005676 -0.039917 -0.013373 -0.008744 -0.017062 0.030868 0.019152 -0.020863 -0.004929 0.014811 0.005515 0.005431 0.017684 -0.011434 0.008227 0.013492 0.002770 -0.014235 -0.021204 0.011237 -0.013122 -0.005648
6 0.053896 -0.055833 -0.119902 -0.120619 -0.200936 0.325408 -0.056754 -0.029701 -0.087057 -0.058325 0.062194 0.128835 0.029401 0.000979 -0.143625 -0.142131 0.093155 0.068764 -0.052294 -0.094845 -0.130750 -0.290481 -0.162934 -0.109718 0.273101 -0.162590 -0.211199 -0.215778 -0.106396 0.245724 0.172354 -0.082710 -0.045250 0.076426 0.208627 0.030968 -0.071536 -0.096106 -0.022125 -0.180265 -0.168616 0.115741 -0.145165 -0.253242 0.209582 0.305471 0.146286 -0.269043 -0.003840 -0.131673 0.158885 -0.016276 0.251094 -0.172080 0.055289 -0.153074 0.063249 -0.041604 -0.243526 -0.155557 -0.098074 0.107452 -0.203604 -0.209025 0.046650 0.020392 0.103250 0.054462 -0.003830 -0.105392 0.268218 -0.049676 -0.233240 -0.125427 0.063214 -0.124931 0.091013 0.038676 -0.080667 0.179243 0.058501 0.166771 -0.137094 -0.124571 -0.163973 0.031089 0.108988 -0.006628 0.156248 -0.021485 0.111824 0.285008 -0.195063 0.015576 -0.226877 0.061549 0.073250 -0.087054 0.042927 0.005692 -0.163935 0.148416 -0.164563 0.078860 -0.148263 -0.207806 -0.111676 0.012792 0.048009 0.160465 -0.018063 0.163405 -0.050933 -0.048512 -0.147197 -0.066547 0.090951 -0.038561 0.036049 -0.218039 -0.020583 -0.027492 0.131304 0.352051 -0.155622 -0.010679 -0.144055 0.103357 -0.056569 -0.276459 0.211687 -0.003246 0.297507 0.316377 0.084350 -0.023504 0.124698 0.420038 -0.225770 -0.013147 0.119966 0.153641 -0.022934 0.049714 -0.140806 -0.108447 -0.000988 -0.070374 -0.278603 -0.019140 -0.159273 -0.019686 -0.108904 -0.139005 0.218980 -0.079858 -0.082236 -0.064581 -0.103074 0.075066 0.058095 0.031975 -0.002986 -0.159631 -0.031807 0.116430 0.017616 0.186933 0.261866 0.041249 0.213429 0.251831 -0.177219 -0.017233 -0.054558 -0.295961 0.068708 0.093153 0.221807 0.066727 -0.038690 0.304481 0.063022 -0.172597 0.147468 -0.061926 -0.056552 0.175554 -0.177834 -0.114705 -0.110309 -0.124439 -0.228693 0.116897 -0.034933 0.027016 0.026949 -0.021464 0.049443 0.001040
j -0.017571 0.025781 0.225633 0.024190 0.173572 0.040450 0.126025 -0.058419 0.015710 0.118405 -0.059153 -0.100080 -0.078583 -0.203328 0.297930 0.006048 -0.023545 0.084384 0.089704 -0.009729 0.268159 0.579420 0.463771 0.192682 -0.324069 0.277005 0.253770 0.089589 0.135936 -0.383381 -0.242667 0.272532 -0.233812 0.069269 -0.087508 0.117209 0.132139 0.038636 0.129711 0.357968 -0.019865 -0.264440 0.207173 0.223542 -0.189088 -0.391024 -0.276613 0.009520 -0.015267 0.202634 -0.061807 0.020215 -0.252774 -0.005483 -0.094670 0.134986 -0.057189 0.019581 0.176126 -0.033756 0.109479 -0.366303 0.029933 0.293315 -0.107720 -0.258783 -0.067611 -0.012125 -0.055453 -0.134170 -0.240830 0.062384 0.558480 0.123920 0.077116 0.015532 0.046664 -0.011636 0.259298 -0.286061 -0.113281 -0.089578 0.019670 0.081615 0.018337 -0.219043 -0.104598 -0.251660 -0.151281 -0.116207 -0.098493 -0.217703 0.048203 -0.160960 0.161055 -0.034680 -0.002573 -0.006500 -0.247293 -0.111481 0.077645 -0.249122 0.350353 0.091113 0.247929 0.351752 -0.082686 0.222033 -0.179434 -0.208762 0.074119 -0.088286 0.147173 -0.128590 0.081716 -0.084234 -0.090075 -0.105939 -0.221047 0.209203 0.058677 -0.107355 -0.209941 -0.282837 0.459897 0.076377 0.412926 -0.209704 -0.053051 0.224651 -0.103543 -0.002897 -0.128900 -0.402757 0.145065 -0.111157 -0.145622 -0.290637 0.095336 -0.103501 -0.221661 -0.044789 -0.001124 -0.249302 0.263746 0.001223 0.048024 -0.041465 0.447379 -0.242273 0.172252 0.013488 0.113018 0.112996 -0.091134 -0.136200 0.184798 0.158483 -0.078721 -0.292581 0.044122 -0.085658 0.019639 0.166938 0.065723 0.000583 -0.151561 -0.303439 -0.271947 -0.205273 -0.413085 -0.298808 0.258348 0.137665 0.141853 0.328705 -0.287459 -0.061212 -0.309235 0.074653 0.042543 -0.406457 0.166805 0.028002 -0.165481 0.156496 0.078854 -0.328257 0.175267 0.099258 -0.038101 0.248798 0.202317 -0.100634 -0.063213 0.006381 -0.004164 0.022037 0.021357 -0.028071
h -0.022035 -0.043785 -0.057977 -0.044649 -0.077015 0.128009 0.006296 -0.000479 -0.050374 -0.018210 -0.008061 0.114400 0.075504 -0.015838 -0.066706 -0.124449 0.003138 0.056847 -0.020868 -0.012423 -0.091839 -0.112265 -0.047112 -0.062461 0.109342 -0.040959 -0.092806 -0.143337 -0.045372 0.114656 0.041749 -0.087491 0.005213 0.019476 0.111689 0.040596 0.004021 -0.114201 0.005966 -0.096209 -0.100890 0.069917 -0.044679 -0.129835 0.153931 0.121406 0.037342 -0.158533 0.034920 -0.061546 0.075453 -0.036844 0.103508 -0.121053 0.017170 -0.044150 0.034937 -0.031855 -0.165271 -0.087051 -0.064372 0.031350 -0.105693 -0.026844 0.010028 0.039018 0.022590 0.020921 0.004375 -0.084779 0.147134 0.006104 -0.037427 -0.068360 0.058702 -0.018166 0.073154 0.036221 -0.023140 0.072572 -0.005101 0.062247 -0.026867 -0.040130 -0.097482 0.002411 0.030709 -0.056556 0.096941 -0.004221 0.034908 0.189791 -0.066298 0.046196 -0.103037 0.003238 0.076572 -0.046122 0.067321 -0.019335 -0.073924 0.071796 -0.083041 0.047687 -0.047319 -0.082540 -0.038264 -0.011171 0.008994 0.091100 -0.018827 0.133264 0.026405 -0.048783 -0.078093 -0.030124 0.036705 -0.005902 -0.006956 -0.107436 0.004840 0.011454 0.079287 0.156542 -0.079973 0.024632 -0.045272 0.036927 0.027959 -0.213268 0.091012 0.004947 0.141850 0.188965 0.097856 -0.022644 0.040751 0.199891 -0.090336 0.022397 0.075630 0.086010 -0.026696 0.028172 -0.095303 -0.061511 -0.026908 -0.026317 -0.121874 0.001412 -0.073549 0.021393 -0.052198 -0.046534 0.103431 0.030654 -0.025649 -0.082986 -0.057625 0.028929 0.033993 0.024596 -0.059087 -0.101836 0.005552 0.022258 -0.033430 0.084794 0.068715 0.014851 0.082359 0.146604 -0.040602 0.003140 -0.027174 -0.169601 0.057715 0.001739 0.132717 -0.008952 -0.042916 0.058857 0.074783 -0.068140 0.086859 -0.034982 -0.056956 0.079430 -0.050300 -0.038497 -0.073146 -0.081870 -0.074400 0.108739 -0.043647 -0.007323 -0.009244 -0.002773 0.041504 -0.028845
_ -0.004137 0.010690 0.072491 -0.085920 -0.000909 0.166270 -0.072133 -0.074271 0.024772 0.022191 -0.019485 -0.016180 -0.068560 -0.020640 0.047641 -0.075017 0.011139 0.003497 0.077670 -0.011931 0.096412 0.210434 0.129875 0.003825 -0.084762 -0.000650 0.028127 -0.049033 0.032168 -0.040065 -0.084557 0.050144 -0.120375 0.092391 -0.014780 -0.050928 0.011412 0.061052 0.022452 0.025729 -0.076976 -0.047129 -0.050002 -0.055951 0.025666 -0.016873 -0.043676 -0.062211 -0.025856 0.044769 0.037471 -0.008938 0.082377 -0.001462 -0.038997 -0.011637 0.079293 -0.029129 0.033726 0.008620 -0.030003 -0.120524 -0.016484 0.029565 -0.016934 -0.147791 -0.064208 -0.023552 -0.008399 -0.056193 0.015507 0.026142 0.195914 0.059179 0.079102 -0.073347 0.041599 -0.013773 0.087160 0.013776 -0.037489 0.054035 -0.021757 0.002615 -0.088669 -0.107300 0.024738 -0.073232 0.004692 0.000314 0.061652 0.009265 -0.121677 -0.053142 -0.020003 0.063403 0.022214 -0.028950 -0.140129 -0.065900 -0.129318 -0.072144 0.037136 0.112531 0.013773 -0.003430 -0.000333 0.179678 -0.035471 -0.036709 -0.020755 -0.021509 0.050367 -0.139392 0.059233 -0.066775 0.007987 -0.025194 -0.138643 0.001253 0.015861 -0.051531 -0.033808 0.075677 0.156104 -0.028086 0.133834 0.000109 -0.097267 0.071124 0.087584 -0.027961 0.023640 -0.067177 0.136489 -0.032037 -0.023229 -0.026741 0.025945 -0.086075 -0.105975 -0.005845 0.016933 -0.141024 0.028683 0.011678 0.035260 -0.030954 0.126766 -0.066392 0.000669 -0.099618 -0.046915 -0.069654 0.050304 -0.120758 0.032892 0.036803 -0.152300 -0.075277 0.030102 0.020267 0.060791 0.010710 -0.022735 0.062858 0.036364 -0.020208 0.000052 -0.040931 -0.020376 0.007986 0.049841 0.083616 0.007405 0.087173 -0.131795 0.069762 -0.032577 0.010412 -0.020352 0.004041 0.012965 -0.099108 -0.061404 0.048291 -0.086758 -0.163778 -0.031656 -0.032685 -0.074312 0.006551 0.068336 0.052212 -0.075310 -0.051020 0.024195 -0.019127 -0.004632 -0.099814
P 0.064242 -0.037048 -0.032462 -0.103489 -0.093697 0.283032 -0.022329 -0.069548 -0.041121 -0.005745 0.056278 0.024911 -0.081520 -0.030512 -0.022964 -0.040419 0.106699 0.054629 0.019613 -0.108942 0.021317 -0.052598 -0.004943 -0.042933 0.127493 -0.074656 -0.107051 -0.085822 -0.042361 0.099776 0.075215 0.070945 -0.115055 0.102808 0.130728 0.001476 -0.083261 0.027333 -0.002170 -0.006102 -0.121191 -0.026064 -0.077545 -0.106883 0.044609 0.155249 0.046065 -0.137837 -0.066873 -0.011283 0.119102 0.046179 0.140837 -0.066892 0.035216 -0.105108 0.044142 -0.027155 -0.089804 -0.114594 -0.013461 0.000078 -0.127408 -0.143394 0.030660 -0.089267 0.105966 0.057155 -0.028387 -0.080680 0.073968 -0.049809 -0.078411 -0.051067 0.063042 -0.144329 0.049402 0.014719 0.011266 0.048452 0.052515 0.120561 -0.154985 -0.093768 -0.111671 -0.052061 0.067396 -0.011472 0.054946 -0.065470 0.084776 0.095166 -0.150203 -0.076110 -0.113574 0.061296 0.045550 -0.043880 -0.078657 0.007176 -0.116629 0.013590 -0.009351 0.078243 -0.094993 -0.056830 -0.135891 0.107078 -0.003193 0.023064 0.025819 0.050785 -0.034733 -0.044811 -0.059892 -0.113105 0.055075 -0.072990 -0.028548 -0.104906 0.004786 -0.083917 0.034161 0.178047 0.050947 -0.020842 0.001405 0.002148 -0.115965 -0.028225 0.178206 -0.018560 0.151175 0.048492 0.055583 -0.016317 0.062091 0.209675 -0.149295 -0.076563 -0.031961 0.074854 0.019823 -0.050096 0.027775 -0.052219 0.031232 -0.071025 -0.068718 -0.091227 -0.057519 -0.080924 -0.045287 -0.133745 0.132362 -0.212829 -0.005470 0.058643 -0.094009 -0.033252 0.073462 0.017637 0.080876 -0.055248 -0.027550 0.132909 0.034331 0.044147 0.187340 -0.029825 0.055052 0.053340 -0.082654 0.014964 0.009752 -0.074054 -0.078448 0.130284 0.024280 0.114896 0.012740 0.213347 0.051317 -0.132065 0.033154 0.010014 0.020102 0.036240 -0.134353 -0.090858 -0.074890 0.017866 -0.146249 0.019838 -0.039778 0.045589 0.009133 -0.028146 0.024817 -0.003995
H 0.180015 0.065766 0.078584 -0.008175 0.002581 0.140712 0.126606 -0.052549 -0.051457 0.067856 0.164832 -0.189688 -0.248619 -0.066203 0.140140 0.232518 0.177379 0.046530 -0.019509 -0.214631 0.177986 0.055980 0.095133 0.168373 0.028603 0.119807 0.046384 0.188141 0.023824 -0.167536 0.089279 0.358874 -0.242596 0.082934 0.084061 0.126588 -0.118165 0.228020 0.057350 0.309958 0.054682 -0.222361 0.124754 0.200725 -0.325550 -0.078117 -0.032467 0.083227 -0.155366 0.161238 0.042209 0.203692 -0.110637 0.088487 0.047808 -0.050278 -0.120566 0.047694 0.130753 -0.084431 0.250510 -0.045735 -0.067093 -0.196911 -0.014580 -0.192675 0.288947 0.101031 -0.090355 -0.019511 -0.231769 -0.074865 -0.151278 -0.016893 -0.068121 -0.100460 -0.058480 -0.003311 0.057637 -0.175008 0.100877 0.008869 -0.231380 -0.179184 0.124682 -0.043193 0.017711 0.048652 -0.132764 -0.233368 -0.008087 -0.291569 -0.048779 -0.250552 0.020501 0.022769 -0.118781 0.041575 -0.200546 0.089442 0.065786 -0.124194 0.235891 -0.049001 -0.000905 0.234616 -0.293107 0.116844 -0.063407 -0.143761 0.099215 -0.162316 -0.139662 0.159960 -0.031871 -0.076792 -0.013578 -0.165037 0.023785 0.070738 -0.003101 -0.188571 -0.168946 -0.113509 0.247835 -0.042957 0.092749 -0.164888 -0.195029 0.269603 -0.000762 0.025250 -0.070706 -0.371945 -0.199826 -0.008041 -0.006135 0.015446 -0.179331 -0.124316 -0.121697 -0.008458 0.082329 -0.122131 0.319998 -0.029757 0.113079 -0.082895 0.070456 -0.225702 0.067586 -0.016133 0.086222 -0.002462 -0.041999 -0.391854 0.042543 0.308089 0.124438 -0.180463 0.038253 -0.099772 0.228903 0.196778 -0.030308 0.156173 -0.031336 -0.191479 0.106498 -0.126613 -0.188140 -0.294028 -0.058422 -0.003328 0.105546 0.178596 -0.195162 0.114519 -0.269871 0.311333 0.088365 0.110839 0.047171 0.001258 -0.018604 0.108956 0.338962 0.032671 -0.056266 -0.034636 0.055954 0.280966 -0.150150 -0.281708 0.137430 0.182386 0.004046 0.047309 0.025953 0.229690
3 0.070902 -0.004709 -0.040462 -0.080706 -0.092056 0.189608 -0.021510 -0.031408 -0.045108 -0.004203 0.060638 -0.007925 -0.066159 -0.005399 -0.035312 0.000009 0.061373 0.009925 -0.005092 -0.095155 0.002124 -0.114808 -0.041026 -0.020266 0.119392 -0.100236 -0.092228 -0.027322 -0.036182 0.092857 0.080522 0.030892 -0.077703 0.065849 0.076093 -0.007764 -0.063261 0.023315 -0.000967 -0.010130 -0.053779 0.017037 -0.062224 -0.070245 0.024694 0.129247 0.068246 -0.086278 -0.059148 -0.049922 0.073956 0.041770 0.107562 -0.015073 0.026670 -0.088631 0.031421 0.001363 -0.048004 -0.077229 -0.003872 0.022114 -0.085325 -0.130142 0.032885 -0.036690 0.092443 0.062589 0.000137 -0.031933 0.084527 -0.042758 -0.133102 -0.025082 -0.004990 -0.111846 0.028941 0.002851 -0.021609 0.060146 0.056539 0.078804 -0.098493 -0.072625 -0.060311 0.005003 0.049245 0.016235 0.045884 -0.049081 0.054614 0.070763 -0.108828 -0.041615 -0.081863 0.043846 -0.005791 -0.028704 -0.058801 0.031902 -0.058601 0.042720 -0.036523 0.022666 -0.073295 -0.058713 -0.067765 0.042280 0.006279 0.015941 0.025108 0.032867 -0.047844 0.012618 -0.056845 -0.063004 0.050920 -0.039367 0.015151 -0.078225 0.012374 -0.049343 0.019253 0.137373 -0.005194 -0.029928 -0.048552 0.015683 -0.099889 -0.005424 0.107473 -0.001363 0.115049 0.049199 -0.015097 0.004201 0.066223 0.155851 -0.120358 -0.052605 0.008668 0.057830 0.007390 -0.019519 0.011478 -0.030498 0.022906 -0.045418 -0.089025 -0.055277 -0.047327 -0.038947 -0.050644 -0.083230 0.101029 -0.140242 -0.038618 0.050829 -0.037762 0.027344 0.026266 -0.009513 0.070826 -0.021962 -0.038781 0.089120 0.027380 0.048660 0.174795 -0.017963 0.074140 0.022475 -0.094492 -0.003059 -0.007884 -0.068612 -0.051781 0.107641 0.029966 0.113702 0.021338 0.182979 -0.007874 -0.086999 0.030438 0.006434 0.044910 0.075358 -0.110156 -0.077711 -0.020543 -0.001064 -0.147124 -0.021993 -0.026020 0.048671 0.026281 -0.020609 0.018317 0.030679
J -0.073537 -0.011749 -0.028094 -0.009702 -0.011425 -0.064493 -0.095704 0.026910 0.043327 -0.041593 -0.088058 0.089327 0.108432 0.052588 -0.078734 -0.141217 -0.091612 -0.052927 0.024515 0.120883 -0.069408 -0.018016 -0.056994 -0.080094 -0.022828 -0.069527 -0.018606 -0.095625 0.000947 0.074500 -0.064288 -0.166578 0.101695 -0.034358 -0.059310 -0.082541 0.067443 -0.102694 -0.032279 -0.175212 -0.035699 0.124150 -0.061542 -0.128615 0.175201 0.044321 0.035452 -0.040638 0.074250 -0.071649 -0.041218 -0.102466 0.094817 -0.037857 -0.019681 0.009519 0.058038 -0.038382 -0.052162 0.069648 -0.129831 0.021627 0.035927 0.091247 0.005802 0.072102 -0.175456 -0.079040 0.039848 0.007234 0.121720 0.048715 0.093541 0.028474 0.052095 0.059532 0.024843 -0.014375 -0.018930 0.103951 -0.061653 -0.002720 0.124611 0.077203 -0.057698 0.031610 -0.008427 -0.014536 0.078967 0.130250 0.018640 0.145039 0.001675 0.112350 -0.032139 0.009174 0.036412 -0.015925 0.079451 -0.055764 -0.059687 0.059463 -0.143963 0.036951 0.001300 -0.143368 0.175916 -0.023201 0.051050 0.093694 -0.059838 0.051729 0.070930 -0.102569 0.047465 0.060984 -0.003805 0.107707 -0.031170 -0.026978 -0.016630 0.084843 0.089583 0.089288 -0.123125 0.006568 -0.029861 0.108516 0.100944 -0.126395 -0.006881 -0.021741 0.036324 0.181536 0.113105 0.006106 0.002639 -0.013616 0.082165 0.064685 0.051688 -0.017472 -0.044608 0.031003 -0.175765 0.013498 -0.049024 0.061070 -0.038946 0.124521 -0.043026 0.011406 -0.068646 0.009463 0.024845 0.185310 -0.035362 -0.149088 -0.092476 0.092690 -0.034036 0.042237 -0.107364 -0.069521 -0.000992 -0.052831 0.048354 0.099136 -0.073578 0.096435 0.117979 0.176991 0.019002 0.005761 -0.062969 -0.074954 0.093144 -0.062166 0.145395 -0.167575 -0.054799 -0.040289 -0.038047 -0.028133 -0.004875 -0.043111 -0.211045 -0.055274 0.004153 0.023621 -0.046676 -0.155535 0.082267 0.141506 -0.074517 -0.103428 0.019413 -0.031320 -0.036406 -0.140688
U 0.054375 -0.018243 0.071492 -0.046861 -0.026361 0.255197 0.086923 -0.051274 -0.067367 0.051210 -0.000465 0.003144 -0.043602 -0.193130 0.153000 -0.056005 0.034689 0.099000 0.009939 -0.066133 0.121639 0.158970 0.261147 0.083811 -0.023785 0.080073 0.055609 -0.053849 0.010335 -0.135602 -0.052070 0.195892 -0.209633 0.083957 0.092861 0.157059 0.082962 -0.094415 0.087682 0.183970 -0.132445 -0.109755 0.093129 0.031138 -0.001081 -0.117249 -0.115764 -0.185353 -0.038027 0.050558 0.020093 0.009924 -0.067589 -0.156976 -0.001420 -0.021284 -0.062136 -0.020769 -0.059574 -0.171603 -0.005144 -0.219583 -0.123943 0.103338 -0.051889 -0.174358 0.050389 0.050814 -0.063214 -0.192778 -0.011864 -0.024442 0.224511 0.004336 0.098990 -0.073114 0.086180 0.015749 0.187119 -0.116557 -0.004605 0.015352 -0.082837 -0.021567 -0.112027 -0.147784 -0.059006 -0.213969 0.004027 -0.144842 -0.052673 0.030609 -0.048316 -0.121961 -0.046572 0.009230 -0.002389 -0.040840 -0.156502 -0.065095 0.044984 -0.076248 0.185049 0.057315 0.115584 0.165968 -0.136586 0.109666 -0.105911 -0.045230 0.086457 0.069516 0.095290 -0.098718 -0.106484 -0.111681 -0.010374 -0.100617 -0.113812 0.027915 0.032921 -0.130830 -0.075054 -0.002522 0.263354 0.068800 0.204087 -0.114316 -0.058242 -0.042068 0.008213 -0.004083 0.138327 -0.079602 0.105325 -0.105557 -0.023747 0.108291 -0.117776 -0.081450 -0.052251 0.071463 -0.022076 -0.137091 0.120964 -0.111803 0.038838 -0.096936 0.108416 -0.219409 0.031653 0.020757 0.045048 0.046752 0.076591 -0.139832 0.084100 0.107495 -0.097852 -0.122117 0.067730 -0.071255 -0.006968 0.028615 0.024490 0.126931 -0.145540 -0.108077 -0.016898 -0.130140 -0.181974 -0.090012 0.050866 0.064355 0.085753 0.027416 -0.181342 0.007042 -0.074748 0.161040 0.027120 -0.127164 0.190020 -0.100901 -0.061293 0.062441 0.054936 -0.084367 0.009262 0.026360 -0.098585 0.149264 -0.084757 -0.033762 -0.092556 0.083803 0.042675 -0.033552 0.028602 0.016999
7 -0.232778 -0.025953 -0.014064 0.138225 0.109697 -0.393410 -0.081248 0.109668 0.055237 -0.070466 -0.157664 0.110193 0.293825 0.085775 -0.079089 -0.142536 -0.264698 -0.084657 0.000677 0.247676 -0.179632 -0.001763 -0.058246 -0.102372 -0.117278 -0.017580 0.042709 -0.084635 -0.009294 0.063503 -0.131309 -0.415725 0.316726 -0.177239 -0.188280 -0.085016 0.197015 -0.241206 -0.025198 -0.215873 0.064637 0.179993 -0.030977 -0.028146 0.238267 -0.039766 -0.017610 0.031440 0.178222 -0.102059 -0.142477 -0.179465 -0.065445 0.018968 -0.076678 0.146287 0.039470 0.012434 -0.055084 0.170055 -0.203780 0.033393 0.155146 0.306385 -0.042017 0.267296 -0.312764 -0.127682 0.097153 0.085558 0.123720 0.120896 0.172116 0.074274 -0.050446 0.203004 0.031737 0.002903 -0.089551 0.078231 -0.133955 -0.108876 0.357950 0.243706 0.002503 0.066754 -0.062137 -0.024727 0.079895 0.217054 -0.067527 0.179123 0.191205 0.260369 0.110374 -0.118872 0.114106 0.010735 0.252835 -0.081952 0.048954 0.093315 -0.162455 -0.013935 0.089324 -0.156946 0.365197 -0.226573 0.065800 0.088963 -0.115044 0.084823 0.118985 -0.073241 0.095861 0.152988 -0.058732 0.187254 0.034280 0.024280 0.013078 0.246815 0.088396 -0.103110 -0.289458 0.058950 -0.057612 0.099783 0.283248 -0.186083 -0.172647 0.023737 -0.057966 0.267538 0.091248 0.004871 -0.043624 -0.216535 0.308035 0.168868 0.159683 -0.040588 -0.118590 0.161629 -0.286458 0.101743 -0.117424 0.110225 0.039845 0.244221 -0.024531 0.069534 -0.002132 0.134908 -0.062523 0.477584 -0.027047 -0.309164 -0.031310 0.149290 -0.085643 0.087549 -0.287659 -0.144441 0.035932 -0.300338 -0.003369 0.113941 -0.236769 0.116793 0.104724 0.181302 0.098042 -0.023064 -0.078972 -0.075708 0.230600 -0.253127 0.216719 -0.358458 -0.088711 -0.304866 -0.056457 0.113304 -0.001479 -0.103070 -0.305976 -0.037736 0.168381 0.103159 0.033841 -0.256804 0.253742 0.204012 -0.058192 -0.194027 -0.027984 -0.011821 -0.030569 -0.180936
T 0.010190 -0.034245 -0.026990 -0.032522 -0.061905 0.133688 0.012689 0.015552 -0.070845 -0.005719 0.018130 0.052133 0.048293 -0.059599 -0.017050 -0.089204 0.006604 0.044187 -0.026851 -0.048631 -0.036148 -0.063441 0.024073 -0.006872 0.089167 -0.030131 -0.060888 -0.109030 -0.044920 0.070341 0.043100 -0.031798 -0.043258 0.040596 0.080891 0.072209 0.032695 -0.128051 0.030819 -0.031293 -0.098569 0.029293 -0.024925 -0.082017 0.121809 0.089152 0.015601 -0.172195 0.021054 -0.055252 0.044105 -0.024516 0.044945 -0.104859 -0.002011 -0.049528 0.006357 0.002355 -0.127817 -0.105030 -0.056802 -0.040782 -0.104772 -0.007048 -0.015555 0.014796 0.025528 0.025361 -0.004717 -0.099264 0.120587 -0.007522 0.003997 -0.015865 0.024198 -0.043218 0.086385 0.030048 -0.002240 0.027280 -0.004434 0.039047 -0.033200 -0.019249 -0.090964 -0.016398 0.028483 -0.088367 0.089019 -0.039507 0.009288 0.143897 -0.048431 0.009637 -0.070833 -0.018785 0.060124 -0.060499 0.002858 -0.028398 -0.024861 0.048199 -0.018162 0.048356 0.008980 -0.054412 -0.041620 0.002762 -0.011757 0.061568 0.011862 0.100949 0.002869 -0.060528 -0.078499 -0.044774 0.027361 -0.017368 -0.000637 -0.074043 0.021733 0.003161 0.024379 0.098087 -0.036753 0.044545 0.016302 -0.002556 0.007941 -0.143382 0.042526 0.027889 0.156760 0.123453 0.066159 -0.060518 0.039015 0.161160 -0.091866 -0.005028 0.068986 0.106603 -0.048588 0.014881 -0.026650 -0.052578 0.004447 -0.056386 -0.054273 -0.048223 -0.065987 0.028315 -0.033071 -0.025113 0.102667 -0.025441 -0.004625 -0.042731 -0.066378 -0.006517 0.047287 -0.017498 -0.046715 -0.060173 0.010124 0.023162 -0.054040 0.041043 0.072789 -0.032514 0.033918 0.077406 -0.048768 0.012173 -0.000551 -0.111686 -0.001791 -0.012040 0.076033 0.040047 -0.017566 0.012219 0.094298 -0.074601 0.054181 -0.016305 -0.015693 0.052945 -0.040978 -0.026148 -0.074101 -0.040056 -0.097696 0.046816 -0.052851 0.014977 0.029456 0.006204 0.053374 -0.005198
8 -0.128557 -0.031487 -0.128948 0.111906 0.004308 -0.343031 -0.076519 0.117188 0.037603 -0.101102 -0.077240 0.110603 0.230731 0.134498 -0.174915 -0.050947 -0.151338 -0.098987 -0.068456 0.171151 -0.241002 -0.311123 -0.267635 -0.135719 0.081414 -0.121145 -0.071994 -0.054757 -0.064165 0.179766 0.039740 -0.363135 0.342129 -0.176903 -0.076256 -0.085479 0.063191 -0.162044 -0.090716 -0.274258 0.085041 0.235240 -0.067865 -0.069163 0.185771 0.103947 0.105087 0.064533 0.126677 -0.164703 -0.082862 -0.118358 0.012637 0.005971 0.021177 0.057877 -0.001814 0.010634 -0.093089 0.117323 -0.154651 0.221417 0.098390 0.076416 0.036402 0.308214 -0.154293 -0.057496 0.079141 0.148299 0.148660 0.032988 -0.180929 -0.038891 -0.084721 0.152361 -0.030514 0.007660 -0.177563 0.148806 -0.017836 -0.061915 0.223779 0.126664 0.033625 0.172413 -0.028285 0.127611 0.082064 0.175098 -0.038603 0.169948 0.160897 0.236696 0.009511 -0.074935 0.040083 0.030206 0.310676 0.018242 0.066556 0.177059 -0.247264 -0.092163 -0.047947 -0.215912 0.258946 -0.302168 0.126956 0.147484 -0.078175 0.081080 0.015317 0.074623 0.002532 0.160182 -0.012843 0.167379 0.165781 -0.050895 -0.025053 0.203415 0.155429 0.005625 -0.401149 0.014201 -0.266356 0.147561 0.236577 -0.208230 -0.099705 0.007274 -0.017448 0.339125 -0.054476 0.066091 0.039936 -0.022240 0.167038 0.176957 0.203423 -0.027754 -0.073122 0.254551 -0.295182 0.046930 -0.105608 0.108191 -0.198709 0.274937 -0.064972 0.078210 -0.004459 0.077084 -0.035545 0.408695 -0.095125 -0.244476 0.081833 0.236400 -0.085483 0.077842 -0.207482 -0.144579 0.004723 -0.195035 0.047191 0.197408 -0.060068 0.182715 0.216144 0.219006 -0.050506 -0.114606 -0.094836 -0.190348 0.304307 -0.165765 0.247594 -0.258680 -0.052298 -0.031812 -0.115867 0.109895 0.068405 -0.153566 -0.186702 0.154387 0.053397 0.052372 0.080385 -0.230082 0.054742 0.123786 0.018011 -0.109107 -0.033570 -0.015523 -0.048021 -0.063353
D 0.009911 0.008290 -0.146948 0.061460 -0.032612 -0.236868 -0.057529 0.099517 0.035803 -0.071323 0.031561 0.007184 0.039873 0.153121 -0.175383 0.120524 0.004853 -0.094963 -0.085443 0.019391 -0.165488 -0.359870 -0.320484 -0.080397 0.136044 -0.138454 -0.098611 0.056240 -0.034545 0.161581 0.149758 -0.182213 0.241154 -0.093710 -0.028628 -0.098733 -0.099004 0.052688 -0.106259 -0.185150 0.130825 0.183755 -0.074446 -0.028977 -0.016384 0.137450 0.150637 0.161484 0.035070 -0.122217 -0.016835 -0.001075 0.031504 0.083806 0.082616 -0.007024 -0.022696 0.030688 0.004275 0.101004 -0.009361 0.299113 0.088045 -0.149747 0.083785 0.200284 0.027039 0.005720 0.045718 0.204401 0.042555 -0.027407 -0.392068 -0.087647 -0.121855 0.042600 -0.106361 -0.004378 -0.205968 0.132813 0.085965 -0.002595 0.027176 -0.006351 0.115018 0.201392 0.025228 0.247993 -0.008955 0.085460 0.012643 -0.008602 0.091241 0.102528 -0.017062 -0.020422 -0.053565 0.047970 0.186014 0.096769 0.036297 0.141421 -0.188310 -0.117752 -0.130750 -0.144717 0.074176 -0.215044 0.125033 0.089421 -0.026499 -0.018556 -0.118779 0.177551 -0.008064 0.127469 0.022121 0.093434 0.220863 -0.042374 -0.032816 0.106000 0.099752 0.029262 -0.305296 -0.058794 -0.328714 0.103459 0.074171 -0.015261 -0.018990 -0.001956 -0.080975 0.160741 -0.197309 0.106438 0.056067 0.049195 0.038259 0.089648 0.123859 -0.044781 0.007194 0.224823 -0.122599 0.031589 -0.021754 0.071666 -0.242661 0.211897 -0.035982 0.022673 -0.004792 -0.015351 -0.059376 0.164467 -0.103868 -0.068954 0.182487 0.190142 -0.050749 0.027468 -0.000926 -0.025378 -0.025094 -0.061214 0.091051 0.161835 0.109048 0.136198 0.200516 0.103411 -0.128997 -0.137729 -0.061652 -0.120151 0.232726 0.000322 0.084841 -0.075233 -0.011179 0.188078 -0.181706 0.107092 0.072744 -0.121464 0.025690 0.200253 -0.029569 -0.022024 0.137677 -0.095877 -0.063561 -0.026514 0.091034 -0.011618 -0.032915 0.027630 -0.034307 0.065868
4 -0.001318 -0.008918 0.018225 -0.104614 -0.061867 0.235215 -0.087181 -0.080946 -0.006287 -0.016425 0.012696 0.034446 -0.035725 0.007450 -0.016556 -0.130476 0.029344 0.025461 0.055450 -0.046829 0.016924 0.068072 0.036278 -0.036083 0.021702 -0.057959 -0.051432 -0.122044 -0.019644 0.063935 -0.017532 -0.030723 -0.103147 0.096943 0.057673 -0.043665 -0.016345 0.030446 0.006419 -0.049360 -0.106502 0.010052 -0.102181 -0.132413 0.099284 0.108116 0.024130 -0.140569 -0.020752 -0.011707 0.093011 -0.013531 0.170177 -0.041995 -0.023003 -0.043946 0.102691 -0.026100 -0.057614 -0.035809 -0.055241 -0.052530 -0.087081 -0.041276 0.000058 -0.096462 -0.027668 0.002355 -0.003764 -0.069126 0.124815 0.022956 0.077035 0.009268 0.069323 -0.099384 0.076338 0.004969 0.027372 0.085447 -0.018325 0.120341 -0.032552 -0.030449 -0.132022 -0.075627 0.071788 -0.050799 0.063537 0.002315 0.100156 0.118592 -0.172590 -0.023166 -0.088963 0.070073 0.063004 -0.062958 -0.077625 -0.047170 -0.187587 0.002876 -0.043100 0.133099 -0.055903 -0.095613 -0.022610 0.148932 -0.005322 0.031786 -0.039716 0.036560 0.031466 -0.128527 0.013771 -0.082664 0.035253 -0.033116 -0.105560 -0.081254 0.010205 -0.044846 0.024165 0.190346 0.048827 -0.036056 0.056315 0.041219 -0.098775 -0.034231 0.159052 -0.023700 0.113618 0.063028 0.155637 -0.029022 0.031098 0.100928 -0.026416 -0.074123 -0.041640 0.054399 -0.002924 -0.096688 -0.044896 -0.008619 0.014534 -0.042291 0.021944 -0.050225 -0.058023 -0.099921 -0.079940 -0.109409 0.124202 -0.119089 -0.007310 -0.001684 -0.168845 -0.038249 0.037974 0.056290 0.044477 -0.063203 -0.034648 0.061706 0.049282 0.058901 0.090152 -0.023630 0.068045 0.103122 -0.020002 0.067387 -0.019704 -0.036590 -0.071720 0.081568 0.062551 0.006599 -0.029879 0.111252 0.025128 -0.137659 0.009268 0.008130 -0.103362 -0.070291 -0.084437 -0.069677 -0.087075 -0.052823 -0.004678 0.097013 -0.066063 -0.063837 0.016394 -0.022438 0.022152 -0.092458
9 -0.142119 0.075128 0.203737 0.123813 0.265458 -0.389356 -0.001061 0.021175 0.142147 0.063325 -0.147343 -0.115081 0.028021 0.001184 0.180688 0.054130 -0.173061 -0.085135 0.095881 0.192839 0.168249 0.524974 0.263445 0.113734 -0.438132 0.226664 0.307828 0.177533 0.159688 -0.348094 -0.298884 0.029397 0.045281 -0.091286 -0.303537 -0.068678 0.158168 0.087299 0.036908 0.151861 0.155861 -0.128915 0.147894 0.234686 -0.175093 -0.418348 -0.214196 0.275174 0.069442 0.164209 -0.200492 -0.061825 -0.263848 0.177194 -0.130982 0.220447 -0.021783 0.028749 0.303284 0.243136 0.051260 -0.204575 0.269940 0.356003 -0.090314 -0.067858 -0.285642 -0.151275 0.029766 0.094021 -0.269315 0.124294 0.501768 0.189649 -0.015662 0.189024 -0.071812 -0.061089 0.128616 -0.185320 -0.156955 -0.200600 0.241995 0.206050 0.158622 -0.074224 -0.116938 -0.068282 -0.181226 0.108731 -0.114383 -0.291559 0.187295 0.013809 0.277639 -0.054296 -0.050737 0.075851 -0.078738 -0.099123 0.103181 -0.201942 0.173278 -0.002655 0.235991 0.212928 0.215132 0.059720 -0.072101 -0.174066 -0.039957 -0.197790 0.130743 -0.077596 0.250020 0.118487 -0.128321 0.075471 -0.134739 0.277649 0.014594 0.071543 -0.160536 -0.383533 0.210800 0.021640 0.264889 -0.064712 0.099011 0.280781 -0.257013 -0.011130 -0.346001 -0.345627 0.046316 -0.004311 -0.181283 -0.566802 0.350737 0.023488 -0.168306 -0.201065 -0.001593 -0.120126 0.081904 0.149836 -0.007711 0.107079 0.420583 0.043947 0.174500 0.016920 0.094416 0.177342 -0.261832 0.180186 0.109599 -0.011772 0.008444 -0.122557 -0.089373 -0.018328 -0.050629 0.171408 0.051570 -0.182433 -0.015319 -0.214359 -0.432253 -0.027854 -0.262033 -0.209689 0.293595 0.083434 0.046044 0.381236 -0.086674 -0.171910 -0.215965 -0.199397 -0.011070 -0.465954 -0.065098 0.177493 -0.191073 0.093784 -0.100233 -0.357623 0.263476 0.152156 0.065855 0.061512 0.428347 -0.036139 0.003885 -0.125518 -0.025279 0.032627 -0.074756 -0.114651
Z 0.010617 0.145227 0.142607 0.211410 0.272207 -0.639501 0.098250 0.084487 0.167476 0.081724 0.019513 -0.279466 -0.144379 0.129149 0.128006 0.405130 -0.001634 -0.142982 -0.000699 0.051513 0.170069 0.274553 0.006217 0.208306 -0.326440 0.266004 0.281486 0.472803 0.165063 -0.360905 -0.095500 0.207232 0.107924 -0.139151 -0.284777 -0.076208 -0.079003 0.402648 -0.031661 0.247442 0.406517 -0.195080 0.230721 0.431463 -0.543143 -0.402883 -0.104163 0.626331 -0.025857 0.243303 -0.189971 0.132536 -0.376496 0.401049 -0.028981 0.206830 -0.141654 0.110933 0.492120 0.312937 0.347872 0.073636 0.362732 0.024916 -0.018768 0.002801 0.013678 -0.054541 -0.005828 0.331928 -0.526195 0.032255 -0.017378 0.114739 -0.202561 0.226949 -0.267849 -0.056148 -0.048637 -0.266108 -0.010090 -0.262621 0.075153 0.032368 0.463523 0.117412 -0.082075 0.262664 -0.340742 0.010173 -0.118680 -0.659152 0.288706 -0.077734 0.357584 -0.070228 -0.226915 0.185997 -0.013975 0.112495 0.241371 -0.215731 0.199206 -0.207865 0.092122 0.314208 0.042547 -0.039910 -0.024911 -0.249451 0.014660 -0.407094 -0.124565 0.292125 0.263979 0.194733 -0.139027 0.031076 0.093202 0.327051 -0.032851 0.037144 -0.210963 -0.552057 0.118777 -0.073374 0.024785 -0.119420 0.019123 0.557377 -0.321037 0.010502 -0.609388 -0.607124 -0.355183 0.125144 -0.153419 -0.637365 0.270936 0.041654 -0.197855 -0.293872 0.129238 0.002231 0.290853 0.197292 0.052133 0.151531 0.275234 0.101423 0.232604 0.060546 0.173372 0.156493 -0.436016 0.030374 0.063546 0.195523 0.382673 -0.118563 -0.125651 -0.078124 0.171605 0.362233 0.016322 -0.161336 0.062645 -0.296677 -0.320061 0.015995 -0.267748 -0.431907 0.161555 -0.048022 0.065620 0.490415 -0.004839 -0.087118 -0.426454 -0.041596 0.060557 -0.221792 -0.236674 0.379071 -0.119632 0.092702 0.276324 -0.131534 0.214239 0.125561 0.283871 0.233017 0.310628 -0.338901 0.275541 0.021060 -0.070543 0.139533 -0.087791 0.172512
q -0.107080 0.103972 0.053585 0.317393 0.257332 -1.014997 -0.021659 0.247521 0.263366 0.009756 -0.116786 -0.093967 0.086163 0.319499 -0.097804 0.259209 -0.104792 -0.205684 -0.033031 0.313622 -0.043745 0.108040 -0.317902 0.075112 -0.266181 0.175176 0.178242 0.377141 0.164323 -0.129333 -0.068866 -0.113602 0.461037 -0.272463 -0.435616 -0.239066 -0.028654 0.232889 -0.141934 -0.151275 0.499107 0.022066 0.144009 0.237490 -0.299647 -0.296535 0.015832 0.716671 0.135399 0.146002 -0.263314 -0.045497 -0.302346 0.415313 -0.017853 0.246430 -0.076709 0.096168 0.410260 0.471246 0.190217 0.312107 0.538400 0.085037 0.016138 0.336332 -0.209220 -0.188706 0.057786 0.504955 -0.424649 0.046766 -0.086422 0.110797 -0.173047 0.448683 -0.322782 -0.034500 -0.247487 -0.142841 -0.097218 -0.326656 0.266666 0.154608 0.519695 0.329894 -0.106893 0.423741 -0.235251 0.284706 -0.120507 -0.553493 0.448830 0.192008 0.374647 -0.099717 -0.167494 0.213211 0.312809 0.097757 0.254463 -0.088460 -0.085092 -0.275825 0.014090 0.055234 0.352225 -0.229725 0.069470 -0.072837 -0.093310 -0.337523 -0.128470 0.298184 0.315241 0.408268 -0.181067 0.265743 0.176144 0.244523 -0.093404 0.262575 0.003007 -0.519648 -0.279215 -0.046467 -0.229304 0.090048 0.285962 0.321621 -0.434670 0.000353 -0.659162 -0.260530 -0.320994 0.192434 -0.165368 -0.735757 0.412254 0.268444 -0.068404 -0.356572 0.135622 0.233648 0.011810 0.259803 -0.059116 0.302337 0.092089 0.475054 0.160083 0.168294 0.094641 0.159491 -0.481771 0.528944 -0.003905 -0.106348 0.473176 0.115369 -0.166573 0.011893 -0.022996 0.218248 0.073864 -0.371601 0.149148 -0.139818 -0.496897 0.239611 -0.059416 -0.152426 0.155190 -0.088814 -0.080887 0.377143 0.335035 -0.235973 -0.174246 -0.400494 0.007069 -0.233057 -0.414240 0.543471 -0.040300 -0.025847 0.042792 -0.021346 0.266841 0.218590 0.304684 -0.062153 0.494566 -0.132170 0.287233 -0.114935 -0.058199 0.155279 -0.150056 0.017744
~ -0.072184 0.051429 0.018249 0.168838 0.134912 -0.573559 -0.024428 0.137078 0.163160 -0.011682 -0.053350 -0.053506 0.019995 0.203164 -0.059377 0.171545 -0.046975 -0.118827 -0.008692 0.164058 -0.043518 0.041741 -0.186091 0.023491 -0.138133 0.097253 0.095892 0.210458 0.090730 -0.041487 -0.023474 -0.076807 0.270381 -0.151075 -0.241301 -0.162072 -0.059359 0.174173 -0.094878 -0.096262 0.290473 0.008562 0.052907 0.122455 -0.201409 -0.147461 0.008784 0.446120 0.065722 0.104145 -0.110611 -0.035031 -0.148876 0.258606 0.002495 0.115673 -0.040537 0.067567 0.230201 0.273499 0.131619 0.201833 0.319508 0.022397 0.009442 0.188746 -0.104565 -0.110451 0.023843 0.319797 -0.258115 0.019189 -0.081423 0.031837 -0.092663 0.226199 -0.198548 -0.005337 -0.151775 -0.068336 -0.023527 -0.163579 0.134505 0.070154 0.303191 0.176689 -0.047393 0.282662 -0.145160 0.156560 -0.053011 -0.345830 0.250745 0.101851 0.216670 -0.036431 -0.081136 0.125409 0.170986 0.082461 0.104578 -0.049444 -0.043720 -0.164943 -0.038428 0.019637 0.155518 -0.133910 0.042264 -0.044290 -0.060610 -0.200195 -0.087986 0.169328 0.191441 0.228189 -0.075895 0.142965 0.105989 0.128259 -0.055159 0.132263 0.008579 -0.278152 -0.140590 -0.037223 -0.151931 0.055397 0.151092 0.199660 -0.218824 -0.002091 -0.404819 -0.179387 -0.188960 0.111191 -0.091336 -0.401397 0.235665 0.130918 -0.053277 -0.206788 0.099010 0.145164 0.032316 0.164465 -0.041932 0.149853 0.041873 0.300769 0.091565 0.043969 0.062701 0.041888 -0.294833 0.260077 -0.000786 -0.033682 0.277299 0.061884 -0.072010 0.052235 0.027075 0.125573 0.034964 -0.183012 0.103304 -0.066879 -0.233827 0.135083 -0.003883 -0.075868 0.070130 -0.046217 -0.034752 0.215794 0.194640 -0.095171 -0.115340 -0.216983 -0.008763 -0.065623 -0.254143 0.328953 -0.024739 -0.032464 0.052072 -0.003596 0.135652 0.110633 0.171216 -0.027294 0.283843 -0.075968 0.172628 -0.074046 -0.051482 0.097611 -0.070061 0.014427
F -0.082109 0.049671 0.001211 0.151945 0.132846 -0.518504 -0.000390 0.114573 0.129326 -0.005375 -0.067587 -0.038711 0.064348 0.155699 -0.046345 0.133996 -0.095118 -0.117014 -0.018405 0.165194 -0.046247 0.016404 -0.151168 0.014913 -0.142690 0.065781 0.102467 0.196601 0.069428 -0.064104 -0.053229 -0.109222 0.258887 -0.168555 -0.217603 -0.123247 -0.005359 0.097707 -0.074829 -0.077340 0.259630 0.043586 0.062498 0.128783 -0.138102 -0.152119 -0.003240 0.370031 0.069986 0.037855 -0.139255 -0.040831 -0.156693 0.210278 -0.019149 0.134712 -0.024503 0.050982 0.198631 0.240100 0.079532 0.156987 0.278356 0.076380 0.009504 0.189364 -0.120543 -0.082277 0.054626 0.261182 -0.185271 0.031987 -0.051512 0.048071 -0.106086 0.219933 -0.155515 -0.018893 -0.113876 -0.044303 -0.036665 -0.164475 0.175295 0.100745 0.242582 0.158032 -0.062345 0.204514 -0.120144 0.149836 -0.073772 -0.240897 0.234682 0.129036 0.202561 -0.058028 -0.090376 0.104943 0.169705 0.060775 0.144306 -0.015317 -0.059894 -0.152793 0.013428 0.025156 0.197759 -0.161086 0.037328 -0.043201 -0.050003 -0.141519 -0.028380 0.151837 0.150520 0.197855 -0.076519 0.139343 0.101824 0.132386 -0.033378 0.139526 0.007963 -0.262109 -0.151334 -0.023083 -0.131440 0.052514 0.146312 0.139740 -0.215317 0.003277 -0.332890 -0.108130 -0.165739 0.111450 -0.072151 -0.373360 0.237017 0.130479 -0.007148 -0.181624 0.052333 0.133251 -0.025620 0.137870 -0.053364 0.155438 0.038286 0.247057 0.092173 0.077074 0.055132 0.098254 -0.253754 0.303511 -0.014782 -0.068979 0.235054 0.097785 -0.107848 0.026239 -0.020996 0.093220 0.033330 -0.202899 0.059327 -0.046527 -0.227052 0.115854 -0.015770 -0.072545 0.082601 -0.054550 -0.040190 0.153273 0.181213 -0.116215 -0.068046 -0.206437 -0.001853 -0.135518 -0.210780 0.279716 -0.033668 -0.031455 0.008289 -0.001366 0.151400 0.102934 0.173248 -0.040823 0.236760 -0.057310 0.121257 -0.071803 -0.044108 0.066257 -0.074198 0.010180
c -0.079185 0.047641 0.020428 0.146275 0.134296 -0.482001 0.002730 0.101252 0.120270 0.008644 -0.059079 -0.049408 0.053565 0.144638 -0.028828 0.134402 -0.089770 -0.111712 -0.007843 0.152992 -0.027802 0.042352 -0.118178 0.024622 -0.156873 0.076975 0.111510 0.192888 0.061236 -0.075776 -0.063573 -0.077868 0.220269 -0.151394 -0.209669 -0.114793 -0.002196 0.104276 -0.061192 -0.055476 0.240998 0.018931 0.065928 0.137342 -0.140901 -0.164453 -0.014402 0.351787 0.058501 0.057199 -0.136120 -0.030053 -0.153950 0.206092 -0.023691 0.122211 -0.032144 0.041400 0.195005 0.226092 0.082996 0.121635 0.261910 0.078696 0.004146 0.157361 -0.113314 -0.081911 0.040501 0.237587 -0.192453 0.032521 -0.020568 0.061458 -0.099912 0.205656 -0.149143 -0.022924 -0.089510 -0.055132 -0.038346 -0.167233 0.161364 0.093382 0.231042 0.131273 -0.064779 0.173948 -0.117640 0.135812 -0.078507 -0.245791 0.213619 0.109434 0.192706 -0.055473 -0.084897 0.103007 0.144794 0.055179 0.136565 -0.037443 -0.036206 -0.143039 0.024517 0.037069 0.175112 -0.132896 0.030996 -0.050826 -0.045132 -0.149890 -0.028484 0.133142 0.146832 0.177255 -0.070029 0.121185 0.076525 0.133591 -0.028401 0.122273 -0.011388 -0.261804 -0.117165 -0.019764 -0.090540 0.034152 0.130928 0.151893 -0.208617 0.001205 -0.319345 -0.135346 -0.154195 0.095492 -0.072518 -0.361234 0.224791 0.116746 -0.023678 -0.169044 0.051689 0.105093 -0.001779 0.132743 -0.044002 0.137352 0.058878 0.212311 0.094131 0.062539 0.053722 0.088321 -0.241775 0.253106 -0.002884 -0.049589 0.209825 0.070969 -0.099721 0.019319 -0.017200 0.104278 0.027893 -0.178979 0.060298 -0.060651 -0.223107 0.101575 -0.027156 -0.092081 0.087560 -0.042365 -0.034474 0.168006 0.140667 -0.110904 -0.077885 -0.184438 0.000342 -0.141107 -0.192334 0.253477 -0.041070 -0.010969 0.017188 -0.020131 0.143251 0.098673 0.149429 -0.027975 0.226213 -0.061354 0.115247 -0.065805 -0.033520 0.059457 -0.066633 0.011313
<unk> 0.006652 -0.004824 -0.001931 -0.012207 -0.011945 0.041982 -0.002429 -0.006191 -0.010760 -0.001800 0.005641 0.005391 -0.003832 -0.012692 0.000617 -0.013122 0.009001 0.008815 -0.000443 -0.015823 0.001084 -0.005017 0.010073 -0.002046 0.016390 -0.007337 -0.011595 -0.020190 -0.006573 0.008197 0.007459 0.004094 -0.018264 0.014655 0.019762 0.010434 0.000271 -0.011010 0.004721 0.003352 -0.023787 -0.000078 -0.006069 -0.013785 0.015786 0.017194 0.001801 -0.033717 -0.003474 -0.005227 0.013039 0.002637 0.013554 -0.019569 0.004172 -0.010699 0.000877 -0.003047 -0.020039 -0.020544 -0.009702 -0.008982 -0.024091 -0.006321 -0.000242 -0.013633 0.009541 0.007861 -0.004437 -0.020811 0.018696 -0.002644 0.000935 -0.005781 0.008533 -0.017821 0.014772 0.003260 0.005643 0.005275 0.002452 0.015164 -0.014771 -0.007694 -0.021256 -0.011640 0.006044 -0.015227 0.012345 -0.013593 0.007883 0.024973 -0.019256 -0.010762 -0.018857 0.002942 0.009798 -0.009404 -0.011094 -0.006224 -0.014396 0.003906 0.002217 0.015363 -0.002419 -0.005879 -0.016374 0.012098 -0.001029 0.007400 0.004227 0.014134 0.001274 -0.012936 -0.013485 -0.015546 0.005060 -0.010073 -0.004768 -0.014035 0.002723 -0.009582 0.001544 0.024235 0.007092 0.001963 0.007672 -0.003546 -0.009438 -0.014820 0.019468 0.000072 0.029674 0.015481 0.015196 -0.010574 0.007006 0.035497 -0.018920 -0.009950 0.003474 0.016660 -0.006510 -0.007399 -0.000964 -0.012309 0.005675 -0.012655 -0.006173 -0.018437 -0.010437 -0.005662 -0.004251 -0.009255 0.023618 -0.023224 0.000729 0.004510 -0.019951 -0.008738 0.011085 -0.002044 -0.000217 -0.009862 -0.003145 0.015843 -0.004843 0.007762 0.021070 -0.007263 0.003995 0.011661 -0.009808 0.001242 0.003977 -0.015470 -0.010713 0.007208 0.007849 0.015060 -0.001828 0.012315 0.017979 -0.023751 0.004768 -0.000511 -0.003323 0.001639 -0.013498 -0.009627 -0.013841 0.001407 -0.021442 0.005954 -0.011139 0.004222 0.002902 -0.003681 0.005633 -0.003233
