I 0.137194 -0.009312 0.014697 -0.168668 -0.104755 0.482894 -0.057548 -0.101536 -0.112768 0.009555 0.122663 -0.078185 -0.179099 -0.110793 0.058836 -0.001136 0.139276 0.026557 0.010252 -0.199988 0.101436 -0.017727 0.128966 0.030720 0.121009 -0.084162 -0.077894 -0.113474 -0.064422 0.038073 0.086505 0.177734 -0.284357 0.197084 0.188269 0.078466 -0.047132 0.032909 0.050323 0.112861 -0.212832 -0.059116 -0.077950 -0.069112 0.032947 0.141920 0.013939 -0.285891 -0.101185 -0.021006 0.125046 0.086468 0.153928 -0.113864 0.056198 -0.149606 -0.001897 -0.032324 -0.091220 -0.180365 -0.030184 -0.138244 -0.258811 -0.182489 0.000716 -0.242146 0.150635 0.076224 -0.061354 -0.161840 0.116302 -0.060662 -0.022700 -0.023394 0.034449 -0.252339 0.091037 -0.018481 0.096807 0.036270 0.067428 0.166557 -0.221462 -0.124795 -0.198538 -0.143426 0.080374 -0.102205 0.057581 -0.170304 0.083001 0.097446 -0.228948 -0.195767 -0.203109 0.065114 0.025270 -0.065930 -0.244761 -0.035639
t 0.064558 -0.042855 0.004977 -0.108889 -0.083124 0.442614 0.014342 -0.072811 -0.106471 -0.003806 0.035148 0.056560 -0.000702 -0.158580 0.039991 -0.180641 0.068670 0.112662 0.012648 -0.104252 0.049955 0.027759 0.130338 0.001852 0.120315 -0.042573 -0.075058 -0.197652 -0.035245 0.029691 0.018340 0.084524 -0.219984 0.138649 0.180130 0.126238 0.042158 -0.143519 0.066856 0.054738 -0.244967 -0.049302 -0.032613 -0.113756 0.163910 0.111770 0.003320 -0.361291 -0.020801 -0.053188 0.079726 0.012102 0.121491 -0.228592 0.006413 -0.085013 0.008723 -0.042456 -0.173142 -0.219191 -0.091857 -0.150537 -0.263622 -0.020651 -0.018738 -0.127216 0.042896 0.048526 -0.048444 -0.253996 0.184602 -0.013821 0.121182 -0.025375 0.101886 -0.144454 0.164482 -0.004613 0.094438 0.013470 -0.016235 0.135438 -0.107283 -0.034716 -0.219814 -0.120925 0.039977 -0.202630 0.118365 -0.096092 0.059521 0.237794 -0.186867 -0.115125 -0.182739 0.035999 0.102899 -0.106302 -0.130702 -0.084513
s 0.054258 -0.021699 0.013106 -0.099510 -0.044281 0.361011 -0.013951 -0.065670 -0.089792 0.005837 0.021237 0.023562 -0.009155 -0.118222 0.035810 -0.174055 0.030517 0.056639 0.041577 -0.075403 0.068486 0.051799 0.116289 0.006454 0.073110 -0.047665 -0.057166 -0.158358 -0.020850 0.029306 -0.021608 0.058237 -0.190218 0.129728 0.113208 0.080809 0.055454 -0.126087 0.062063 0.048844 -0.208670 -0.029189 -0.035807 -0.096119 0.162466 0.101561 0.003846 -0.300833 -0.015250 -0.052693 0.032485 0.013364 0.123230 -0.157067 -0.009181 -0.068213 0.033730 -0.043229 -0.122405 -0.151826 -0.087106 -0.152722 -0.213747 -0.000649 -0.016581 -0.104621 -0.001654 0.029261 -0.029114 -0.214457 0.165600 0.011494 0.144359 0.030833 0.079354 -0.117665 0.146116 -0.019039 0.088542 0.019358 -0.037136 0.103468 -0.062196 -0.012543 -0.194125 -0.110458 0.031659 -0.183935 0.123562 -0.071091 0.060640 0.215775 -0.158940 -0.081578 -0.155329 0.024565 0.104034 -0.095995 -0.122565 -0.089368
@ 0.026482 -0.025352 -0.022272 -0.092096 -0.026665 0.308709 -0.031203 -0.078730 -0.038740 -0.034240 0.037164 -0.009671 -0.042342 -0.112322 0.026244 -0.042931 0.034012 0.028030 0.019350 -0.159821 0.035454 0.006175 0.132646 -0.026714 0.038207 -0.098596 -0.021284 -0.108989 -0.019800 -0.016631 -0.005986 -0.014208 -0.116463 0.102270 0.115118 0.040403 -0.010405 -0.015276 0.024950 0.098293 -0.171691 0.009436 -0.057305 -0.027278 0.062045 0.089972 0.007894 -0.205487 -0.037382 -0.073533 0.073544 0.050153 0.057849 -0.122621 0.010816 -0.036647 0.009741 -0.012512 -0.052785 -0.096736 -0.090606 -0.084156 -0.153763 0.001338 0.025970 -0.154732 0.019491 0.079893 0.000948 -0.130074 0.150557 0.018042 0.049664 -0.021532 0.013842 -0.180412 0.113740 -0.016289 0.056605 0.054373 0.035647 0.144201 -0.050162 0.011296 -0.160415 -0.126291 0.049735 -0.111720 0.031654 -0.080376 0.065175 0.196485 -0.147110 -0.118890 -0.102164 -0.000067 0.056034 -0.079680 -0.136191 -0.037593
n 0.018616 -0.021131 0.037620 -0.099398 -0.070445 0.294223 -0.078037 -0.055905 -0.023758 0.005970 0.001553 0.056432 -0.029181 -0.030138 -0.025858 -0.170497 0.075720 0.074723 0.050517 -0.044521 0.043005 0.141665 0.061381 -0.020423 0.050951 -0.021718 -0.077289 -0.174778 0.013594 0.065361 0.005004 0.016847 -0.138940 0.134388 0.076991 -0.012953 -0.004361 -0.023136 0.030186 -0.055429 -0.158577 -0.027162 -0.087694 -0.178835 0.132643 0.116041 0.018564 -0.202946 0.005744 0.032150 0.097408 -0.014926 0.171156 -0.097963 -0.017365 -0.068390 0.086289 -0.027618 -0.092867 -0.066734 -0.053964 -0.060599 -0.115119 -0.059179 -0.011355 -0.104011 -0.027727 -0.023399 -0.029578 -0.116826 0.112946 0.008671 0.137795 -0.000314 0.120983 -0.090183 0.092274 0.006897 0.011964 0.041548 -0.052548 0.122326 -0.093390 -0.049449 -0.128996 -0.077817 0.071283 -0.076051 0.081878 -0.010123 0.114438 0.115599 -0.180626 -0.061333 -0.108894 0.069032 0.105197 -0.067328 -0.098083 -0.087181
l 0.013311 -0.032283 0.046403 -0.075696 -0.021834 0.351169 0.022546 -0.096322 -0.072184 -0.010672 0.016726 0.019870 -0.031443 -0.163403 0.113354 -0.136558 0.010572 0.083826 0.041886 -0.109281 0.067660 0.146571 0.266285 0.034147 -0.032453 0.026443 0.035283 -0.171022 -0.024564 -0.078313 -0.075228 0.061957 -0.210660 0.119488 0.139627 0.133551 0.072615 -0.099861 0.082255 0.147393 -0.211414 -0.050802 0.009071 -0.041841 0.095581 -0.003207 -0.074484 -0.276427 -0.018850 0.010549 0.060028 0.010725 0.035663 -0.191920 -0.014609 -0.028150 -0.011072 -0.031905 -0.116943 -0.148166 -0.072639 -0.221774 -0.189041 0.093189 -0.054423 -0.184101 0.002703 0.038172 -0.052995 -0.221545 0.112143 0.042235 0.231386 0.002065 0.084484 -0.131547 0.141382 0.004510 0.166573 -0.019479 -0.006310 0.108915 -0.032827 0.004711 -0.203896 -0.211890 -0.002030 -0.246189 0.060649 -0.119054 0.022982 0.176607 -0.133419 -0.125011 -0.109233 0.008609 0.078204 -0.077622 -0.175582 -0.083963
k 0.081517 -0.037075 0.000618 -0.098237 -0.091349 0.426262 0.002049 -0.041166 -0.092900 -0.021086 0.035360 0.039573 -0.039773 -0.176300 0.071052 -0.157639 0.051238 0.078203 0.025748 -0.122165 0.071933 -0.004113 0.177256 0.014849 0.124788 -0.049515 -0.056622 -0.189721 -0.043234 0.020243 -0.003622 0.098378 -0.216583 0.135837 0.166634 0.145375 0.061758 -0.184254 0.072753 0.080001 -0.260659 -0.025952 -0.006415 -0.112954 0.173702 0.107972 -0.009849 -0.344887 -0.039413 -0.029597 0.050226 0.007134 0.086685 -0.235381 0.049593 -0.119018 -0.049695 -0.046945 -0.187757 -0.214011 -0.110695 -0.175922 -0.239752 0.005805 -0.033097 -0.153230 0.037022 0.047482 -0.073657 -0.246842 0.158823 -0.022782 0.126573 -0.011101 0.122281 -0.147999 0.158028 0.004651 0.144619 -0.001301 0.011745 0.119094 -0.102035 -0.035637 -0.218778 -0.142229 -0.004930 -0.197881 0.135999 -0.141245 0.026954 0.232414 -0.139326 -0.147339 -0.193281 0.019513 0.081429 -0.089303 -0.152521 -0.076020
r -0.064502 -0.028155 0.034848 -0.049062 -0.016489 0.229285 -0.023858 -0.055527 -0.076613 -0.019719 -0.026932 0.044518 0.071433 -0.128855 0.063332 -0.137850 -0.059932 0.066059 0.013365 -0.018031 -0.018809 0.077211 0.188701 -0.031035 -0.013501 0.013756 0.007066 -0.182269 -0.069110 0.001976 -0.062100 -0.076305 -0.088267 0.031211 0.064117 0.105041 0.123085 -0.196296 0.082799 0.043830 -0.180234 0.002558 -0.035307 -0.033551 0.177640 0.032321 -0.076416 -0.264581 0.032855 -0.047151 0.016931 -0.047081 0.018069 -0.155978 -0.059070 -0.001489 0.029280 -0.024838 -0.154240 -0.107956 -0.150540 -0.187147 -0.149182 0.143376 -0.070722 -0.071779 -0.050133 -0.006927 0.007915 -0.202846 0.158730 0.048665 0.201777 0.005810 0.046817 -0.073540 0.137881 0.012051 0.098785 0.039476 -0.046898 0.059582 0.049653 0.058174 -0.182126 -0.147251 0.013172 -0.229971 0.096611 -0.029421 0.008935 0.231555 -0.088473 -0.008415 -0.066058 -0.039116 0.119181 -0.081571 -0.070474 -0.106720
d 0.057889 -0.044588 -0.049399 -0.133281 -0.124952 0.430249 0.008816 -0.096239 -0.108559 0.003053 0.078268 0.052535 -0.035087 -0.080463 -0.020686 -0.089013 0.116879 0.117968 -0.014305 -0.156861 -0.019469 -0.089967 0.021209 -0.034369 0.184800 -0.082571 -0.133248 -0.167796 -0.059988 0.113643 0.115582 0.023392 -0.171133 0.131782 0.232468 0.074088 -0.064739 -0.010231 0.029979 0.007803 -0.178524 -0.013951 -0.100795 -0.134579 0.090196 0.178363 0.042225 -0.277444 -0.047325 -0.059422 0.172537 0.044419 0.169556 -0.149260 0.024309 -0.101969 0.056085 -0.019543 -0.167922 -0.208926 -0.024053 -0.012889 -0.249692 -0.163732 0.020830 -0.099275 0.146620 0.113437 -0.026183 -0.150346 0.182412 -0.045355 -0.089445 -0.099042 0.045404 -0.188688 0.122468 0.021696 -0.004019 0.067449 0.039916 0.183920 -0.180188 -0.126892 -0.184317 -0.075064 0.092722 -0.070940 0.073157 -0.117430 0.105702 0.174290 -0.222714 -0.089552 -0.178860 0.054663 0.098351 -0.090940 -0.078295 -0.025970
z 0.111190 0.005360 0.013302 -0.099342 -0.088153 0.316013 0.009895 -0.105717 -0.077298 -0.003072 0.167303 -0.088833 -0.201489 -0.009225 0.031227 0.100807 0.152067 0.060245 0.003753 -0.219764 0.060237 -0.052584 0.013359 0.032988 0.120511 -0.016224 -0.086285 -0.003164 -0.043818 0.035293 0.120781 0.150744 -0.209638 0.119386 0.165422 0.039870 -0.134484 0.176089 0.031477 0.131638 -0.057822 -0.099809 -0.032875 0.002475 -0.124404 0.123075 0.045943 -0.094421 -0.131600 0.059832 0.163805 0.152128 0.118749 0.035136 0.038778 -0.109638 0.012256 0.017227 -0.015956 -0.113867 0.110383 -0.000441 -0.173708 -0.257902 0.009830 -0.172694 0.249419 0.102658 -0.039602 -0.046197 0.000653 -0.056982 -0.192111 -0.066117 -0.037443 -0.202790 0.021465 0.017775 -0.008308 -0.010399 0.096867 0.160774 -0.217829 -0.195569 -0.037883 -0.066245 0.110123 0.033626 -0.010114 -0.168772 0.094397 -0.047591 -0.185950 -0.188802 -0.098804 0.045462 0.001807 -0.024031 -0.165812 0.066854
p 0.020550 -0.047394 0.047927 -0.102805 -0.038787 0.395363 0.008501 -0.079679 -0.075190 0.004038 0.001362 0.069647 -0.018180 -0.150398 0.082024 -0.219122 0.020609 0.094685 0.065729 -0.075494 0.078815 0.129999 0.206286 0.016067 0.035366 0.017522 -0.024556 -0.196580 -0.035384 -0.003142 -0.082559 0.091384 -0.208424 0.120741 0.127012 0.114869 0.091981 -0.163105 0.080746 0.092159 -0.246832 -0.071300 -0.008587 -0.086929 0.185141 0.071832 -0.055059 -0.312895 -0.020652 0.017147 0.052502 -0.004360 0.107930 -0.196690 -0.018855 -0.055273 0.027171 -0.057474 -0.165445 -0.175993 -0.105197 -0.208605 -0.224729 0.075860 -0.049220 -0.156342 -0.005966 0.014801 -0.056670 -0.255581 0.127197 0.010657 0.264309 0.019326 0.143269 -0.103731 0.163657 0.017150 0.164434 -0.023584 -0.053169 0.109674 -0.045421 -0.005230 -0.231017 -0.188163 0.014421 -0.238425 0.142428 -0.098372 0.042762 0.220113 -0.156506 -0.094549 -0.140265 0.022639 0.122731 -0.097703 -0.127450 -0.095312
m 0.026156 -0.054227 0.006003 -0.048873 -0.013417 0.197865 0.036791 -0.032958 -0.020261 0.013160 0.001981 0.048658 -0.033344 -0.098859 0.035789 -0.092136 0.064459 0.070167 0.036489 -0.069814 0.060030 0.106164 0.118454 0.009638 0.016618 0.029036 -0.028202 -0.094972 0.012862 -0.010582 -0.036116 0.101984 -0.101630 0.087482 0.098477 0.046860 0.000379 -0.038287 0.025298 0.060128 -0.138895 -0.054530 0.016916 -0.060647 0.049457 0.027680 -0.029795 -0.132182 -0.006402 0.039437 0.061963 0.019357 0.042542 -0.120656 0.011715 -0.026418 0.003126 -0.027046 -0.068918 -0.107252 -0.012003 -0.082126 -0.106174 0.007183 -0.000092 -0.103739 0.029235 0.020475 -0.054474 -0.126538 0.013458 -0.001592 0.142319 -0.019930 0.112310 -0.064528 0.076033 0.025216 0.073384 -0.056543 -0.009558 0.065606 -0.093238 -0.032808 -0.095323 -0.095277 0.013023 -0.107053 0.050655 -0.073611 0.031624 0.079540 -0.062460 -0.074784 -0.058977 0.008716 0.070763 -0.051271 -0.068815 -0.034963
{ 0.013823 -0.051649 0.048848 -0.113810 -0.054341 0.407735 -0.009215 -0.082933 -0.049329 0.004733 -0.004964 0.071313 -0.065553 -0.126107 0.065825 -0.147917 0.070739 0.115355 0.074889 -0.079125 0.074032 0.170018 0.213692 -0.021584 0.029277 0.028300 -0.028650 -0.201911 -0.014929 0.014097 -0.049900 0.107906 -0.210188 0.132635 0.149464 0.080052 0.012931 -0.094550 0.072619 0.069392 -0.244437 -0.082443 -0.030374 -0.120175 0.128896 0.067166 -0.062047 -0.266609 -0.038486 0.076340 0.106142 0.002939 0.105783 -0.177334 0.004417 -0.085949 0.024160 -0.066057 -0.163665 -0.152813 -0.072029 -0.175129 -0.172790 0.017990 -0.037717 -0.194846 0.026765 -0.003503 -0.066686 -0.229625 0.071657 0.004093 0.218719 -0.035083 0.176830 -0.132902 0.119384 0.016460 0.151393 -0.017492 -0.014562 0.130210 -0.125554 -0.046259 -0.200528 -0.184938 0.022815 -0.186986 0.090054 -0.093852 0.059257 0.150502 -0.159036 -0.140192 -0.133637 0.043475 0.116060 -0.051164 -0.172289 -0.080819
b -0.003055 -0.059856 -0.023545 -0.113193 -0.107722 0.302006 -0.059043 -0.064820 0.004612 -0.036872 0.013442 0.095581 -0.043305 -0.054163 -0.023144 -0.128566 0.092833 0.085076 0.038787 -0.091775 0.001940 0.032740 0.065862 -0.070391 0.088526 -0.054245 -0.096819 -0.179589 -0.036748 0.098634 0.014751 -0.005208 -0.097287 0.110212 0.145645 -0.021731 -0.058051 -0.000066 -0.000635 -0.059767 -0.171814 0.012046 -0.099239 -0.179146 0.109777 0.133889 0.018584 -0.178012 -0.019410 0.001554 0.160792 -0.019210 0.160902 -0.135851 0.024956 -0.081681 0.059983 -0.024357 -0.130198 -0.122261 -0.063553 -0.033088 -0.119271 -0.060492 0.012338 -0.121636 0.023825 0.037730 -0.034591 -0.099185 0.122774 -0.010028 0.065702 -0.073167 0.139193 -0.137244 0.096917 0.042974 0.034057 0.061896 0.029180 0.160412 -0.113924 -0.063346 -0.155541 -0.090847 0.065026 -0.048837 0.070528 -0.040769 0.100999 0.148754 -0.161371 -0.068411 -0.114049 0.059892 0.094690 -0.072231 -0.070559 -0.031782
E 0.094879 0.027403 0.017051 -0.060136 0.003224 0.235919 0.022915 -0.042962 -0.070491 0.026623 0.068201 -0.090412 -0.096409 -0.097207 0.087226 0.030844 0.056034 0.011783 0.005999 -0.149421 0.102068 0.040041 0.137074 0.068976 0.007115 -0.005567 0.024659 -0.005014 0.003937 -0.080625 0.020831 0.113029 -0.174898 0.102907 0.078906 0.102151 -0.002408 0.021143 0.061726 0.172066 -0.099051 -0.049199 0.007720 0.053074 -0.055101 0.008983 -0.035967 -0.124537 -0.068236 -0.008900 0.022729 0.080186 -0.011513 -0.041170 0.021927 -0.046983 -0.036231 -0.008118 0.005367 -0.085872 0.022755 -0.105861 -0.131537 -0.053781 -0.008650 -0.167032 0.096109 0.060512 -0.021069 -0.108453 0.023848 0.004742 0.017755 0.011312 -0.020346 -0.134388 0.059651 -0.019003 0.081545 -0.017711 0.032362 0.062341 -0.103545 -0.065040 -0.070817 -0.093096 0.023211 -0.084453 -0.019505 -0.138682 0.029416 0.014277 -0.091432 -0.152172 -0.084223 -0.006413 0.002782 -0.039801 -0.172130 -0.023339
1 0.216185 0.035279 0.063019 -0.036860 -0.061483 0.250870 0.083988 -0.024719 -0.080763 0.024502 0.170206 -0.156435 -0.241265 -0.111696 0.140014 0.177356 0.160008 0.033002 -0.043480 -0.234737 0.165974 -0.027126 0.117973 0.153078 0.096516 0.041152 0.011277 0.096822 -0.012074 -0.122928 0.116691 0.342996 -0.260990 0.113553 0.126181 0.176743 -0.053907 0.084076 0.053702 0.287134 -0.048818 -0.178625 0.116404 0.128128 -0.192578 -0.005632 -0.000375 -0.075452 -0.164904 0.108167 0.053269 0.175938 -0.074129 -0.006337 0.100069 -0.117986 -0.173892 0.018772 0.040388 -0.138995 0.132150 -0.087143 -0.129530 -0.182934 -0.030385 -0.223827 0.282020 0.105302 -0.101679 -0.075652 -0.132992 -0.107898 -0.148429 -0.006291 -0.045023 -0.134023 -0.007899 0.007532 0.098218 -0.152619 0.095845 0.050460 -0.228174 -0.169495 0.020755 -0.075233 0.005978 -0.014723 -0.044643 -0.253913 -0.011922 -0.147390 -0.060990 -0.299096 -0.077376 -0.001555 -0.106476 0.022346 -0.215947 0.069198
N 0.078977 -0.028407 -0.083552 -0.074306 -0.178168 0.119388 -0.090959 0.025137 -0.006988 -0.017776 0.042463 0.084741 -0.063160 0.099941 -0.164745 -0.011085 0.165075 0.041334 -0.037397 0.008628 -0.082081 -0.234776 -0.254746 -0.075136 0.241593 -0.096509 -0.199362 -0.085613 -0.058284 0.261437 0.213337 0.043720 0.006800 0.058444 0.094383 -0.075859 -0.149060 0.033992 -0.071871 -0.257453 -0.027831 0.059831 -0.141548 -0.233319 0.081454 0.227288 0.142178 -0.030515 -0.017800 -0.000521 0.123835 -0.040876 0.212284 -0.033256 0.087450 -0.168880 0.051403 -0.034815 -0.133418 -0.057921 -0.012069 0.182851 -0.032095 -0.294342 0.051575 0.072495 0.106298 -0.025897 -0.034910 0.058453 0.041617 -0.131749 -0.278618 -0.110982 0.096229 -0.031318 -0.058556 0.031823 -0.111267 0.114547 0.069813 0.074517 -0.202399 -0.156296 -0.024379 0.111603 0.079776 0.166302 0.081682 0.047884 0.068016 -0.019279 -0.083946 0.045059 -0.134164 0.119532 -0.020764 0.005130 0.069126 0.057760
Q 0.091498 -0.058740 -0.051401 -0.131419 -0.156559 0.519489 -0.020701 -0.053844 -0.128859 -0.021751 0.060824 0.083503 -0.045779 -0.138111 -0.005437 -0.169629 0.109398 0.120800 0.002679 -0.137719 0.000795 -0.108102 0.088421 -0.022309 0.233604 -0.100666 -0.149438 -0.263931 -0.081957 0.149613 0.091550 0.060233 -0.218831 0.173801 0.245155 0.131997 0.000202 -0.169405 0.056381 -0.009029 -0.285687 0.009353 -0.100565 -0.200402 0.216443 0.226103 0.039967 -0.389812 -0.039004 -0.055718 0.133938 0.005110 0.178816 -0.262544 0.063736 -0.169830 0.000958 -0.041971 -0.270905 -0.251967 -0.119071 -0.102315 -0.289806 -0.111820 -0.006117 -0.110573 0.102853 0.072145 -0.072429 -0.245018 0.218662 -0.064941 -0.002796 -0.073911 0.130295 -0.201296 0.163429 0.028152 0.084184 0.066794 0.047629 0.180367 -0.177435 -0.096347 -0.274933 -0.131194 0.050169 -0.162692 0.170927 -0.137989 0.067754 0.266573 -0.202192 -0.114237 -0.252618 0.058427 0.115866 -0.106190 -0.109423 -0.051916
f 0.032865 -0.056640 -0.071480 -0.012747 -0.106654 0.246743 0.080574 -0.009491 -0.123209 -0.021524 0.005356 0.102347 0.095531 -0.141161 -0.005810 -0.107472 -0.006790 0.119361 -0.063848 -0.040478 -0.087985 -0.186688 0.037063 -0.017926 0.149216 -0.060449 -0.075121 -0.171006 -0.066775 0.063656 0.067958 -0.025811 -0.065643 0.020758 0.176348 0.177788 0.066791 -0.242667 0.042365 -0.010394 -0.159351 0.064369 0.007540 -0.102322 0.175322 0.069600 0.023507 -0.285987 0.030185 -0.112156 0.023291 -0.031372 0.021502 -0.255241 0.025845 -0.057713 -0.039249 -0.023724 -0.236246 -0.209826 -0.115941 -0.061963 -0.189305 0.018009 -0.018040 0.040381 0.066268 0.064335 -0.025520 -0.205497 0.190251 -0.026987 -0.038569 -0.085057 0.053002 -0.054396 0.114310 0.015413 0.060636 0.032467 0.038282 0.061828 -0.041599 -0.015447 -0.163868 -0.033968 -0.024275 -0.180690 0.112479 -0.064793 -0.051962 0.239426 -0.034991 0.011813 -0.141252 -0.014278 0.032933 -0.072632 0.015275 -0.030614
V 0.033602 -0.072287 -0.055537 -0.143969 -0.162345 0.430126 -0.086287 -0.053675 -0.052266 -0.046772 0.053754 0.116516 -0.052292 -0.038269 -0.070966 -0.159107 0.108137 0.090564 0.022012 -0.102392 -0.027215 -0.151917 -0.044932 -0.100834 0.239361 -0.126089 -0.203749 -0.233678 -0.079114 0.220605 0.093700 -0.026171 -0.098405 0.122565 0.166477 -0.003097 -0.041516 -0.081194 0.000577 -0.123399 -0.227776 0.046346 -0.166205 -0.235119 0.209769 0.274575 0.073079 -0.275568 -0.042062 -0.044303 0.159867 -0.024736 0.258395 -0.172479 0.067500 -0.160401 0.072730 -0.059444 -0.248010 -0.182837 -0.148435 0.029639 -0.215671 -0.143528 0.019190 -0.082288 0.061840 0.016804 -0.049939 -0.126497 0.182298 -0.063764 -0.052204 -0.104882 0.150081 -0.181765 0.110989 0.042704 0.012173 0.125058 0.052390 0.204070 -0.160210 -0.107001 -0.219190 -0.060692 0.087926 -0.013159 0.163497 -0.053361 0.114992 0.219749 -0.211034 -0.048659 -0.220293 0.085239 0.116682 -0.087135 -0.045362 -0.037158
5 0.004341 -0.010840 -0.050777 -0.062229 -0.025502 0.184274 0.047411 -0.016394 -0.081682 0.006098 0.045672 0.011368 -0.023401 -0.048277 -0.013265 0.009542 0.030724 0.051532 -0.013426 -0.123771 -0.043100 -0.101336 0.036281 -0.014475 0.095948 -0.005837 -0.048830 -0.070817 -0.050195 0.057774 0.048677 -0.025914 -0.057015 0.054542 0.129934 0.087704 -0.052577 -0.041617 0.048119 0.068465 -0.097090 0.007025 -0.025864 0.008894 0.035349 0.104191 -0.006577 -0.127756 -0.033931 -0.034673 0.088333 0.055293 0.023574 -0.059641 0.022278 -0.036793 -0.000025 -0.006495 -0.116324 -0.107704 -0.006542 -0.013970 -0.137398 -0.053562 0.007211 -0.036106 0.136837 0.086807 0.011035 -0.103403 0.080221 0.007185 -0.107456 -0.063355 -0.015172 -0.096715 0.068904 0.025848 0.003772 0.044803 0.032216 0.069150 -0.081604 -0.057138 -0.086745 -0.056906 0.045373 -0.066753 0.050844 -0.098264 0.048121 0.125800 -0.084856 -0.059839 -0.088258 -0.038767 0.082176 -0.030899 -0.032038 0.011604
2 0.036090 -0.055061 -0.086152 -0.143632 -0.160219 0.483457 -0.039465 -0.104027 -0.136463 -0.037840 0.073788 0.068284 -0.003059 -0.080136 -0.066465 -0.126847 0.075424 0.096860 -0.007406 -0.161719 -0.079224 -0.195207 0.010280 -0.092728 0.239970 -0.168105 -0.179106 -0.243820 -0.115572 0.193815 0.127182 -0.076025 -0.157806 0.132152 0.253811 0.069143 -0.046734 -0.105724 0.031734 -0.038480 -0.233820 0.058096 -0.149660 -0.185591 0.216065 0.276144 0.083667 -0.369949 -0.041598 -0.113223 0.159333 0.031591 0.217334 -0.191728 0.031949 -0.144070 0.064135 -0.025474 -0.251842 -0.215492 -0.116264 -0.028807 -0.285796 -0.139342 0.030052 -0.053310 0.125189 0.110568 -0.003120 -0.195420 0.298852 -0.034711 -0.133753 -0.097745 0.034175 -0.229807 0.162577 0.008099 -0.015338 0.148332 0.060261 0.228453 -0.134910 -0.091516 -0.263910 -0.104577 0.101621 -0.115632 0.148982 -0.100241 0.109218 0.336514 -0.241523 -0.063021 -0.230857 0.042427 0.136126 -0.104048 -0.063323 -0.025993
v 0.046469 0.027491 -0.007378 -0.084218 0.001773 0.087975 -0.039121 -0.053729 -0.009206 0.013486 0.098769 -0.108578 -0.159003 0.077486 -0.022352 0.139618 0.085130 -0.048548 0.029299 -0.142866 0.040044 -0.046972 -0.049775 -0.004624 0.066278 -0.063292 -0.048252 0.092868 -0.019977 0.059942 0.081009 0.037438 -0.060544 0.073752 0.026453 -0.081153 -0.158543 0.213986 -0.020523 0.084700 0.044518 -0.067669 -0.076234 0.077814 -0.127787 0.122145 0.039009 0.071204 -0.123192 0.017510 0.101072 0.121784 0.057553 0.174241 0.025381 -0.045782 0.040405 0.037276 0.085160 0.022216 0.095694 0.067979 -0.023578 -0.173608 0.056764 -0.068730 0.144984 0.095099 0.028612 0.093579 -0.039547 -0.039504 -0.204894 0.001648 -0.109159 -0.135452 -0.029542 -0.009142 -0.075748 0.041051 0.049042 0.074004 -0.100981 -0.073439 0.015075 -0.016837 0.092096 0.134946 -0.045059 -0.071587 0.107954 -0.066929 -0.114304 -0.101178 -0.007527 0.019957 0.025505 0.020434 -0.076799 0.085503
i 0.073807 -0.005450 -0.055145 -0.066169 -0.074619 0.206244 0.012856 -0.032904 -0.083090 0.004888 0.072937 0.002762 -0.037854 -0.034162 -0.031842 -0.018545 0.066932 0.038714 -0.011261 -0.112118 -0.025857 -0.132588 -0.028689 -0.006673 0.130249 -0.058626 -0.087073 -0.053642 -0.045090 0.099895 0.094121 0.022684 -0.100403 0.073800 0.112921 0.046171 -0.057170 -0.024493 0.030446 0.004123 -0.075663 0.015814 -0.051135 -0.065288 0.051790 0.141710 0.057926 -0.136563 -0.037642 -0.046554 0.062826 0.042513 0.098231 -0.036003 0.017786 -0.085058 0.031211 -0.001901 -0.094370 -0.102153 0.013899 0.004942 -0.138650 -0.126442 0.010883 -0.010546 0.121376 0.065810 -0.003138 -0.085442 0.097440 -0.029035 -0.136686 -0.033809 -0.014597 -0.105320 0.059541 0.005295 -0.020685 0.057936 0.029092 0.086495 -0.102856 -0.098758 -0.073454 -0.011015 0.060882 -0.021974 0.070584 -0.072874 0.049248 0.091527 -0.104239 -0.035790 -0.097340 0.006234 0.036722 -0.056780 -0.038144 0.017798
g 0.045106 -0.028579 -0.043476 -0.058417 -0.065451 0.219080 0.013414 -0.028727 -0.053403 -0.003215 0.042964 0.018114 -0.074202 -0.044640 -0.004520 0.061561 0.085824 0.075026 -0.024287 -0.075069 -0.018002 -0.105907 0.003411 -0.036434 0.108471 -0.036280 -0.071658 -0.062568 -0.029423 0.074234 0.096953 0.050561 -0.060049 0.052693 0.113457 0.046906 -0.063536 -0.006392 0.013867 0.019430 -0.088286 0.000616 -0.056481 -0.032697 -0.012656 0.078924 0.001957 -0.092616 -0.051479 -0.009761 0.094000 0.027522 0.041705 -0.076856 0.058874 -0.080640 -0.009892 -0.026426 -0.104516 -0.108762 -0.029147 0.018264 -0.094043 -0.108800 0.014616 -0.070643 0.129501 0.040512 -0.026912 -0.060047 0.014364 -0.059777 -0.118844 -0.104894 0.040340 -0.124273 0.002395 0.017232 0.028096 0.030523 0.090598 0.083219 -0.151562 -0.081427 -0.079300 -0.040044 0.026209 -0.010109 0.005842 -0.063601 0.016043 0.022368 -0.065171 -0.069818 -0.094488 0.029673 0.008243 -0.006700 -0.069284 0.021571
S 0.223437 -0.007584 0.059634 -0.041543 -0.071087 0.368723 0.191550 -0.074540 -0.153681 0.034094 0.197852 -0.129610 -0.234848 -0.172240 0.186788 0.167716 0.163908 0.122503 -0.036859 -0.258054 0.163803 -0.074677 0.147767 0.151153 0.157860 0.079757 -0.022896 0.083437 -0.043191 -0.102151 0.128862 0.404519 -0.313796 0.097447 0.203368 0.262202 -0.047275 0.023982 0.089427 0.366425 -0.085700 -0.252424 0.153809 0.166818 -0.190804 0.008921 -0.028381 -0.154757 -0.206046 0.123250 0.079545 0.209089 -0.084880 -0.051664 0.089212 -0.133955 -0.173443 0.009923 -0.045913 -0.259276 0.145179 -0.128587 -0.235190 -0.191507 -0.050956 -0.211337 0.383095 0.152042 -0.122527 -0.166118 -0.138815 -0.136249 -0.168941 -0.046372 -0.030961 -0.169702 0.026945 0.027165 0.142109 -0.208325 0.120890 0.062285 -0.267342 -0.204540 -0.022990 -0.119491 -0.005170 -0.089394 -0.007708 -0.316131 -0.043200 -0.112462 -0.070372 -0.309585 -0.094229 -0.013037 -0.067518 0.003460 -0.221658 0.104681
$ -0.043611 -0.059767 -0.131662 0.036810 -0.127671 0.076959 0.060127 0.038878 -0.116583 -0.040301 -0.036378 0.150611 0.254098 -0.107135 -0.084276 -0.123109 -0.087421 0.070985 -0.108259 0.037613 -0.207801 -0.339043 -0.071489 -0.082163 0.202862 -0.117905 -0.106584 -0.162902 -0.113597 0.146313 0.100356 -0.207754 0.098109 -0.081216 0.131031 0.142360 0.105196 -0.329848 0.019702 -0.150061 -0.105347 0.168298 -0.032610 -0.121805 0.267784 0.104216 0.068519 -0.256302 0.091519 -0.202548 -0.029058 -0.093593 -0.004555 -0.247374 0.006457 -0.026662 -0.019196 -0.015545 -0.271902 -0.174214 -0.184131 0.028767 -0.138092 0.062679 -0.005832 0.211245 -0.001748 0.065068 0.024035 -0.140132 0.281225 -0.021876 -0.144621 -0.078551 0.000965 0.028301 0.110786 0.023463 -0.045057 0.109897 0.026021 -0.000128 0.066556 0.031362 -0.137095 0.053995 -0.044513 -0.138661 0.154830 0.010515 -0.075609 0.326538 0.022491 0.168558 -0.101092 -0.045583 0.031516 -0.073931 0.174951 -0.026330
u 0.084193 -0.000610 0.165552 -0.022605 0.092316 0.116048 0.146367 -0.046209 -0.020104 0.086433 0.059143 -0.101044 -0.171930 -0.148454 0.228866 0.059353 0.091467 0.099539 0.037473 -0.129255 0.219281 0.385958 0.290745 0.186747 -0.186439 0.224156 0.135446 0.088569 0.088222 -0.259847 -0.101395 0.327270 -0.240595 0.100731 0.008252 0.122025 0.005964 0.120748 0.090328 0.346141 -0.012006 -0.259236 0.190163 0.182290 -0.229740 -0.231920 -0.172239 -0.003661 -0.054775 0.161280 0.048635 0.101973 -0.149877 0.022483 -0.044460 0.071575 -0.039554 0.035638 0.153566 -0.085105 0.179646 -0.227238 -0.055305 0.063153 -0.061343 -0.255857 0.113599 0.058430 -0.060072 -0.095289 -0.206912 0.013997 0.296664 0.048969 0.021642 -0.049304 0.023985 0.025772 0.163089 -0.254950 -0.049593 -0.017557 -0.109726 -0.028956 0.053340 -0.145823 -0.015793 -0.151011 -0.127085 -0.152414 -0.014728 -0.215272 -0.010698 -0.205394 0.091188 -0.042078 -0.011267 -0.024627 -0.233456 -0.007864
w 0.114457 -0.003655 -0.251001 -0.009442 -0.209402 0.083349 -0.047576 0.050782 -0.122709 -0.075789 0.081320 0.024739 0.096844 0.035709 -0.192931 0.066462 0.017863 -0.056716 -0.143804 -0.028343 -0.214820 -0.695612 -0.350631 -0.114381 0.399198 -0.323847 -0.241085 -0.029361 -0.152773 0.312775 0.307037 -0.172520 0.109435 -0.046721 0.140066 0.016837 -0.053382 -0.143845 -0.066689 -0.245386 -0.004800 0.262902 -0.153952 -0.145435 0.149747 0.297951 0.246580 -0.134497 -0.025205 -0.287338 -0.011529 -0.015179 0.135107 -0.088706 0.136429 -0.175602 -0.052333 0.002678 -0.207347 -0.129123 -0.128553 0.247969 -0.134482 -0.260396 0.096317 0.254187 0.129070 0.097888 0.033312 0.040606 0.274195 -0.135546 -0.603295 -0.119203 -0.122881 -0.095031 -0.003348 -0.027715 -0.177052 0.242993 0.182224 0.059907 -0.066352 -0.095646 -0.085625 0.205903 0.014394 0.152423 0.131655 -0.006695 -0.037363 0.216822 -0.013128 0.127931 -0.202448 0.040390 -0.083589 -0.019011 0.166168 0.095108
R -0.363373 -0.000914 -0.131783 0.267233 0.146148 -0.835458 -0.126790 0.205019 0.156843 -0.104471 -0.293915 0.162839 0.517344 0.178280 -0.233437 -0.067797 -0.410790 -0.206588 -0.071310 0.418819 -0.358721 -0.228644 -0.268082 -0.220922 -0.126212 -0.140898 0.063030 0.031318 -0.008826 0.090856 -0.122155 -0.706992 0.679903 -0.378618 -0.356551 -0.214075 0.216100 -0.283963 -0.133246 -0.418823 0.244098 0.387600 -0.063693 0.014231 0.266755 -0.080741 0.052158 0.268786 0.282298 -0.257500 -0.295985 -0.267853 -0.200655 0.069388 -0.080144 0.266506 0.019626 0.037994 0.003650 0.343477 -0.303307 0.252083 0.396603 0.454666 0.037874 0.543572 -0.492772 -0.150209 0.196396 0.270863 0.160604 0.146797 -0.010473 0.058421 -0.147699 0.369833 -0.074420 -0.037009 -0.244017 0.211431 -0.109816 -0.250797 0.571127 0.415521 0.127729 0.258455 -0.143406 0.121601 0.026729 0.409142 -0.151006 0.239798 0.366328 0.516207 0.243249 -0.139279 0.016156 0.074497 0.516891 -0.065669
# -0.018375 0.005247 -0.047230 -0.006724 -0.001188 -0.061975 0.034595 0.042715 0.016757 0.014655 -0.029227 0.056865 0.036889 0.019868 -0.053929 -0.005851 -0.006509 -0.000614 -0.028242 0.027544 -0.054273 -0.084161 -0.074868 -0.021621 0.016663 0.002870 -0.014372 0.004295 0.027458 0.016487 -0.016663 -0.029297 0.074603 -0.025650 0.023346 -0.005307 -0.021062 -0.008150 -0.017764 -0.047749 0.012339 0.071644 0.031726 -0.008241 0.013942 -0.020334 0.005798 0.028397 0.046138 -0.044041 -0.001664 -0.012448 0.012860 -0.036199 0.025091 0.043889 0.015852 -0.028343 -0.022437 -0.001760 0.007592 0.071288 0.001548 0.002511 0.034074 0.039810 0.007781 0.013929 0.007006 0.006116 0.010528 0.024925 -0.038069 -0.046736 0.034031 0.067013 -0.014311 0.010870 -0.018261 0.016626 -0.007574 -0.026858 0.006066 -0.008789 0.028077 0.068492 -0.012973 0.010668 0.007228 0.025003 0.002157 0.022511 0.025710 0.053379 -0.017741 -0.012286 -0.023148 0.002331 0.080047 0.005850
6 0.058328 -0.067658 -0.181300 -0.163391 -0.302594 0.477598 -0.088134 -0.040436 -0.122147 -0.067621 0.078492 0.191972 0.073890 -0.000866 -0.227301 -0.200142 0.154318 0.128766 -0.082344 -0.114043 -0.199539 -0.425730 -0.251209 -0.156800 0.423401 -0.225984 -0.316894 -0.317321 -0.150512 0.365375 0.273719 -0.139071 -0.076933 0.109247 0.321261 0.039091 -0.122318 -0.116415 -0.028455 -0.318194 -0.234028 0.165694 -0.247884 -0.390914 0.295231 0.427980 0.220889 -0.375996 0.011526 -0.180398 0.234633 -0.049074 0.364606 -0.265340 0.071802 -0.232154 0.096735 -0.050926 -0.363312 -0.246136 -0.128697 0.173465 -0.301246 -0.344552 0.070773 0.067370 0.137538 0.067447 -0.012022 -0.146425 0.388585 -0.086620 -0.353680 -0.203987 0.107610 -0.165667 0.139648 0.042171 -0.144755 0.270571 0.083755 0.239196 -0.209087 -0.200930 -0.232874 0.074243 0.160841 0.023921 0.212288 -0.009021 0.148076 0.366592 -0.291496 0.057982 -0.321019 0.116933 0.109914 -0.132269 0.084915 -0.002173
j -0.003813 -0.000205 0.338277 0.046325 0.282101 0.059200 0.207106 -0.049767 0.035764 0.125978 -0.066456 -0.116440 -0.145142 -0.299897 0.446275 -0.040640 -0.029902 0.120665 0.132035 -0.061036 0.389134 0.895858 0.697743 0.295106 -0.508070 0.428357 0.391216 0.068575 0.210513 -0.579592 -0.392886 0.414448 -0.317345 0.115314 -0.114989 0.207486 0.203596 0.015874 0.179094 0.594925 -0.079713 -0.399359 0.367455 0.324733 -0.249201 -0.550672 -0.409165 -0.023638 -0.004541 0.304215 -0.070588 0.065248 -0.372160 -0.049989 -0.117877 0.228866 -0.119449 0.028969 0.250491 -0.034030 0.157859 -0.535137 0.025090 0.471363 -0.169054 -0.430681 -0.092772 -0.010587 -0.102782 -0.221024 -0.341411 0.133496 0.881861 0.178167 0.114548 0.023592 0.079164 0.009421 0.395291 -0.466332 -0.189310 -0.110708 0.047811 0.170037 0.032581 -0.356420 -0.156445 -0.412254 -0.201186 -0.176539 -0.095796 -0.254356 0.097173 -0.307610 0.219762 -0.112146 0.034955 -0.008868 -0.376347 -0.155217
h -0.050857 -0.047672 -0.082251 -0.049974 -0.116411 0.206665 0.029114 0.014986 -0.081929 -0.017408 -0.022140 0.185695 0.131483 -0.027645 -0.102611 -0.196613 0.003101 0.128010 -0.029939 -0.012046 -0.155947 -0.152415 -0.057313 -0.086613 0.163601 -0.028718 -0.138623 -0.233644 -0.055235 0.163997 0.058063 -0.155453 -0.005994 0.021576 0.181277 0.084239 0.007281 -0.176472 0.034193 -0.157792 -0.148162 0.111811 -0.068286 -0.212042 0.226040 0.157929 0.047698 -0.233778 0.073372 -0.066732 0.112298 -0.065768 0.146010 -0.199021 0.010772 -0.060766 0.059849 -0.047028 -0.277335 -0.147014 -0.081670 0.045525 -0.161204 -0.043992 0.003427 0.073712 0.037899 0.018532 -0.001576 -0.154654 0.219859 0.029015 -0.048321 -0.128487 0.107314 -0.009671 0.123047 0.053475 -0.037044 0.109296 -0.006705 0.102259 -0.050256 -0.084526 -0.133686 0.010894 0.044462 -0.091820 0.141833 -0.016672 0.049995 0.268912 -0.109396 0.074440 -0.160015 0.014771 0.132612 -0.072630 0.099689 -0.043125
_ -0.001077 0.008376 0.110108 -0.126822 0.025103 0.251746 -0.158020 -0.104293 0.070543 0.005191 -0.016705 -0.031171 -0.140140 -0.008864 0.049932 -0.136871 0.051817 -0.028472 0.139466 -0.044325 0.172815 0.369134 0.198210 0.004081 -0.134486 -0.008858 0.039189 -0.107040 0.067334 -0.056884 -0.145283 0.069605 -0.174977 0.176520 -0.022120 -0.121350 0.000737 0.126542 0.014357 0.034322 -0.143393 -0.066489 -0.092832 -0.105405 0.050811 0.017441 -0.047193 -0.088545 -0.029660 0.096908 0.063982 0.004897 0.159198 -0.002703 -0.032196 -0.020110 0.104779 -0.040131 0.071980 0.061401 -0.045750 -0.155245 -0.018950 0.031433 -0.014094 -0.259602 -0.135291 -0.058015 -0.036662 -0.057736 0.016919 0.056018 0.336756 0.099166 0.131805 -0.126214 0.059509 -0.026893 0.111175 0.016731 -0.064359 0.118550 -0.035053 0.025660 -0.128313 -0.180297 0.052289 -0.066973 0.010161 -0.001411 0.139174 0.013777 -0.187036 -0.133488 -0.044010 0.090581 0.071815 -0.035787 -0.224313 -0.115948
P 0.092306 -0.051648 -0.039216 -0.156549 -0.129614 0.431360 -0.052562 -0.087669 -0.046326 -0.006523 0.083968 0.034404 -0.145033 -0.036301 -0.036942 -0.051812 0.175160 0.086399 0.044197 -0.163431 0.049288 -0.043460 -0.000765 -0.057754 0.187847 -0.107874 -0.164878 -0.130055 -0.044320 0.159750 0.107657 0.101456 -0.176876 0.168051 0.184900 -0.024622 -0.131297 0.057886 -0.000117 -0.017821 -0.178484 -0.042729 -0.131567 -0.164843 0.063200 0.234204 0.067739 -0.195303 -0.103509 0.009370 0.185975 0.065217 0.212612 -0.076362 0.060976 -0.162446 0.067152 -0.032410 -0.120673 -0.158261 -0.016459 0.003329 -0.178405 -0.228712 0.046537 -0.147238 0.146673 0.074910 -0.043571 -0.096548 0.089592 -0.079915 -0.088750 -0.070523 0.102402 -0.218055 0.073214 0.019633 0.008419 0.058800 0.067409 0.197013 -0.240309 -0.145532 -0.160680 -0.076700 0.107844 0.013350 0.077261 -0.097199 0.136016 0.105074 -0.221829 -0.138859 -0.168045 0.086556 0.091149 -0.062939 -0.129331 0.010237
H 0.303423 0.076636 0.129493 -0.053558 -0.020655 0.258400 0.220869 -0.070188 -0.115559 0.091907 0.295061 -0.284103 -0.407590 -0.084198 0.236428 0.358457 0.245055 0.065986 -0.047563 -0.352513 0.267500 0.016530 0.118304 0.274128 0.072360 0.168343 0.056943 0.282526 0.019823 -0.229327 0.153043 0.566798 -0.383268 0.125728 0.148669 0.233047 -0.166480 0.318918 0.083860 0.510141 0.074296 -0.360114 0.219982 0.322991 -0.475728 -0.099934 -0.049296 0.066005 -0.273105 0.213418 0.107338 0.321133 -0.135574 0.161325 0.082265 -0.092881 -0.173708 0.062837 0.185782 -0.167574 0.368249 -0.081963 -0.162383 -0.328002 -0.037039 -0.313487 0.503477 0.189666 -0.117136 -0.023576 -0.324283 -0.138207 -0.266504 -0.014366 -0.137933 -0.162841 -0.073161 0.023431 0.107226 -0.287677 0.131115 0.025237 -0.346566 -0.300183 0.158725 -0.066465 0.044354 0.045113 -0.161051 -0.371095 -0.003489 -0.423922 -0.082388 -0.410402 -0.006931 -0.008284 -0.185616 0.049070 -0.308624 0.183526
3 0.113611 -0.013220 -0.064217 -0.129241 -0.133543 0.301255 -0.036042 -0.045297 -0.067690 -0.009121 0.103065 -0.024783 -0.110277 -0.012796 -0.052000 0.005013 0.097830 0.007563 0.000551 -0.159080 0.023300 -0.169866 -0.056448 -0.021465 0.188225 -0.164840 -0.145197 -0.034058 -0.048497 0.143535 0.120458 0.055346 -0.136069 0.117795 0.128025 -0.022203 -0.102655 0.049200 -0.006904 -0.014139 -0.087732 0.014997 -0.101866 -0.108326 0.035199 0.208013 0.117856 -0.138657 -0.098805 -0.070551 0.119362 0.069520 0.168967 -0.012570 0.050866 -0.151243 0.037421 0.012176 -0.059691 -0.121220 -0.000864 0.024787 -0.139580 -0.219911 0.056818 -0.058610 0.138348 0.107988 0.002651 -0.036443 0.126876 -0.081774 -0.195670 -0.016857 -0.012499 -0.182780 0.056257 -0.004846 -0.034138 0.081691 0.085534 0.131968 -0.158560 -0.117956 -0.105461 0.002310 0.084623 0.037158 0.075476 -0.087167 0.082247 0.103039 -0.172310 -0.079808 -0.129540 0.064630 0.004374 -0.049840 -0.100385 0.056371
J -0.118474 -0.004881 -0.045585 -0.011013 -0.028815 -0.073834 -0.185071 0.038750 0.080280 -0.064396 -0.147724 0.139146 0.171678 0.064867 -0.138932 -0.241837 -0.118349 -0.086703 0.049515 0.176812 -0.098596 -0.001759 -0.066646 -0.131806 -0.020732 -0.115864 -0.035870 -0.172300 0.002805 0.114319 -0.105032 -0.262099 0.139221 -0.030485 -0.084066 -0.145566 0.098403 -0.157586 -0.042376 -0.299745 -0.084648 0.206521 -0.118247 -0.236067 0.291160 0.086188 0.066739 -0.071729 0.131702 -0.094456 -0.074993 -0.163303 0.163768 -0.096857 -0.022382 -0.000049 0.084819 -0.059105 -0.096951 0.113369 -0.207705 0.032227 0.059645 0.144131 0.015097 0.102636 -0.305133 -0.141212 0.040973 -0.008095 0.198973 0.083969 0.169265 0.038036 0.117609 0.083000 0.047481 -0.034606 -0.035710 0.180630 -0.089061 0.006949 0.179020 0.123400 -0.094625 0.040886 -0.014727 -0.011648 0.127230 0.188250 0.037276 0.242830 -0.019469 0.167520 -0.061542 0.044714 0.065211 -0.022963 0.113873 -0.126507
U 0.097751 -0.038426 0.107228 -0.041967 -0.039206 0.372970 0.153587 -0.042591 -0.095264 0.048395 0.012618 0.021297 -0.067796 -0.292140 0.235866 -0.095536 0.044667 0.156753 0.001694 -0.116028 0.162089 0.215029 0.385514 0.137120 -0.033914 0.123640 0.095977 -0.104694 0.016058 -0.205657 -0.080984 0.297428 -0.292410 0.107430 0.147187 0.268294 0.131883 -0.180436 0.125098 0.286566 -0.214138 -0.162788 0.174196 0.040834 0.014847 -0.183376 -0.160352 -0.286819 -0.044063 0.085060 0.026398 0.021298 -0.118240 -0.273567 0.025360 -0.027225 -0.138061 -0.026672 -0.109038 -0.262361 -0.019740 -0.317812 -0.195865 0.162456 -0.098808 -0.257218 0.083872 0.074027 -0.109855 -0.286254 -0.011995 -0.036187 0.338607 -0.005526 0.150048 -0.081604 0.129145 0.032346 0.283965 -0.201974 -0.013873 0.014674 -0.106231 -0.020111 -0.158712 -0.219081 -0.107008 -0.327657 0.016378 -0.219115 -0.089806 0.049153 -0.035404 -0.221232 -0.086210 -0.010353 -0.018388 -0.050558 -0.230526 -0.082687
7 -0.377540 -0.030475 -0.026148 0.213873 0.144145 -0.544888 -0.123135 0.117287 0.063868 -0.096926 -0.260872 0.169493 0.485754 0.082406 -0.121820 -0.240402 -0.404402 -0.102037 0.007004 0.373472 -0.285101 0.017975 -0.036760 -0.188042 -0.169253 -0.023881 0.053029 -0.149746 -0.046228 0.090665 -0.204573 -0.646273 0.459815 -0.271044 -0.265650 -0.112442 0.309540 -0.390149 -0.015811 -0.327796 0.068497 0.275525 -0.068508 -0.057025 0.380930 -0.044497 -0.033125 0.018293 0.280364 -0.152779 -0.232854 -0.261756 -0.111286 -0.020968 -0.148603 0.219323 0.069682 0.017892 -0.130938 0.229692 -0.325771 0.015763 0.221479 0.496988 -0.069543 0.413716 -0.476695 -0.189795 0.142612 0.050489 0.218244 0.195137 0.262197 0.101281 -0.056309 0.278643 0.062304 -0.004748 -0.134170 0.158624 -0.167365 -0.158079 0.525808 0.370369 -0.025685 0.065133 -0.101443 -0.095583 0.133285 0.306315 -0.101626 0.341679 0.245331 0.428975 0.166881 -0.143566 0.192192 0.006247 0.366004 -0.167175
T 0.010248 -0.049807 -0.042410 -0.032251 -0.093981 0.199232 0.043634 0.029786 -0.117220 -0.003658 0.028564 0.076010 0.092007 -0.104134 -0.023963 -0.134396 0.003747 0.086611 -0.044105 -0.073292 -0.062095 -0.095291 0.045712 0.001338 0.136520 -0.027082 -0.089669 -0.166531 -0.070321 0.104262 0.065174 -0.047162 -0.072405 0.051251 0.134498 0.133291 0.049999 -0.206397 0.056946 -0.049505 -0.149618 0.034763 -0.032575 -0.128044 0.182748 0.125839 0.026467 -0.258005 0.044617 -0.074551 0.056658 -0.037370 0.049524 -0.168052 -0.019549 -0.073551 0.009493 0.014935 -0.203746 -0.175442 -0.074686 -0.073500 -0.165217 -0.019285 -0.033839 0.051866 0.046309 0.037782 -0.007806 -0.170862 0.182454 -0.009921 0.002699 -0.023419 0.035653 -0.050803 0.138931 0.041286 -0.003517 0.032306 -0.004133 0.049627 -0.055641 -0.039622 -0.130748 -0.017457 0.043556 -0.146694 0.142619 -0.062121 0.000330 0.210663 -0.068221 0.027882 -0.097693 -0.031530 0.093410 -0.096855 0.006154 -0.039247
8 -0.211246 -0.029029 -0.203521 0.153704 -0.032166 -0.454921 -0.098301 0.108085 0.026282 -0.114772 -0.152879 0.167115 0.396526 0.146290 -0.245875 -0.071979 -0.242804 -0.107974 -0.105731 0.295662 -0.373148 -0.495355 -0.370656 -0.233412 0.137071 -0.195254 -0.118518 -0.060214 -0.130130 0.264433 0.071340 -0.537865 0.473409 -0.286235 -0.096760 -0.111279 0.107828 -0.259388 -0.110900 -0.428238 0.129161 0.356177 -0.129935 -0.102099 0.275236 0.124309 0.142119 0.075499 0.181014 -0.277619 -0.143969 -0.199272 0.005063 -0.029697 -0.002572 0.074121 0.025870 0.001974 -0.174863 0.114191 -0.251036 0.286736 0.125732 0.130215 0.058057 0.486433 -0.222268 -0.068947 0.130501 0.157861 0.245149 0.025206 -0.287527 -0.076007 -0.103963 0.208111 -0.036227 -0.006385 -0.233011 0.262030 0.007764 -0.116894 0.317100 0.174770 0.005905 0.241940 -0.067584 0.135133 0.112411 0.259873 -0.105288 0.277874 0.196321 0.431804 0.026489 -0.046255 0.021068 0.032361 0.454116 0.004329
D 0.025286 0.028645 -0.232555 0.051563 -0.084352 -0.290652 -0.079379 0.106404 0.021037 -0.064182 0.041759 -0.007594 0.065874 0.196677 -0.247221 0.219609 0.013993 -0.121431 -0.142956 0.035361 -0.238695 -0.591189 -0.475503 -0.127464 0.231357 -0.240229 -0.164870 0.128399 -0.065502 0.247448 0.267749 -0.248078 0.311605 -0.130770 -0.027374 -0.146305 -0.154353 0.097892 -0.143376 -0.284664 0.205551 0.277224 -0.147386 -0.035264 -0.052472 0.180871 0.213487 0.214414 0.020074 -0.226340 -0.009567 -0.022520 0.052483 0.125414 0.113097 -0.039266 -0.002593 0.037422 0.003255 0.091706 -0.019830 0.415587 0.103770 -0.252514 0.142145 0.289041 0.072751 0.037157 0.090085 0.285423 0.079636 -0.079526 -0.627558 -0.141089 -0.183787 0.020892 -0.150118 -0.016533 -0.286701 0.231494 0.159322 -0.011238 -0.007725 -0.053107 0.131654 0.312939 0.042605 0.359699 -0.038270 0.120286 -0.017226 -0.031316 0.096431 0.197232 -0.029571 0.013653 -0.129353 0.052677 0.256274 0.144537
4 -0.010887 -0.015491 0.028241 -0.145437 -0.065472 0.344506 -0.176878 -0.115436 0.026588 -0.047878 0.027763 0.046111 -0.070880 0.032104 -0.046889 -0.220657 0.079846 0.019110 0.104246 -0.090520 0.046276 0.160210 0.057314 -0.050161 0.026919 -0.082304 -0.076638 -0.215148 -0.015483 0.093394 -0.042311 -0.066649 -0.151782 0.181346 0.093183 -0.103564 -0.043740 0.092716 -0.006895 -0.089002 -0.174323 0.014016 -0.180294 -0.217776 0.152995 0.190902 0.050174 -0.198757 -0.014990 0.015742 0.148624 -0.009275 0.280142 -0.063651 -0.021024 -0.060454 0.141273 -0.025737 -0.066070 -0.017630 -0.072794 -0.054025 -0.127591 -0.078786 0.009199 -0.164034 -0.080784 -0.013864 -0.027101 -0.077017 0.182517 0.048455 0.156163 0.020494 0.114877 -0.156468 0.120281 0.003341 0.014785 0.124425 -0.037508 0.218603 -0.047250 -0.031336 -0.194418 -0.127771 0.126048 -0.026221 0.092161 -0.000529 0.193365 0.159756 -0.269698 -0.074804 -0.139600 0.107400 0.142062 -0.094545 -0.118303 -0.090940
9 -0.194228 0.083312 0.301087 0.169397 0.405848 -0.529582 -0.034517 0.015622 0.219119 0.047715 -0.208098 -0.153191 0.017033 -0.008287 0.264549 0.009004 -0.241437 -0.154750 0.157852 0.241066 0.261726 0.827620 0.420236 0.147008 -0.669659 0.321233 0.459327 0.189361 0.230887 -0.525236 -0.477653 0.048820 0.065457 -0.098646 -0.433654 -0.102124 0.246769 0.101918 0.042047 0.264844 0.154419 -0.183070 0.232643 0.319527 -0.209179 -0.560280 -0.312691 0.340588 0.112255 0.232910 -0.282257 -0.060893 -0.344205 0.203486 -0.178923 0.328928 -0.046583 0.024576 0.432229 0.384288 0.046938 -0.314984 0.370638 0.569700 -0.128429 -0.176027 -0.451050 -0.235850 0.020803 0.093596 -0.357671 0.228505 0.812273 0.284332 -0.004452 0.241094 -0.087068 -0.080881 0.207556 -0.268781 -0.238682 -0.261462 0.370386 0.357575 0.207550 -0.164390 -0.162648 -0.146620 -0.243237 0.152408 -0.111126 -0.317972 0.256742 -0.036953 0.374473 -0.098662 -0.030262 0.104156 -0.144049 -0.180410
Z 0.076756 0.192091 0.219060 0.225106 0.360508 -0.829256 0.170706 0.086981 0.189019 0.119253 0.080645 -0.414611 -0.277228 0.182466 0.228978 0.587864 -0.002189 -0.218539 -0.015274 0.009016 0.273594 0.355287 0.015696 0.313077 -0.463352 0.362430 0.395299 0.697161 0.221612 -0.526605 -0.121766 0.376702 0.097617 -0.170570 -0.381151 -0.066924 -0.105318 0.584297 -0.041589 0.451743 0.564228 -0.304131 0.372674 0.653851 -0.795816 -0.559152 -0.170534 0.817605 -0.101126 0.299064 -0.210244 0.232261 -0.490132 0.597762 -0.036576 0.281549 -0.179132 0.134611 0.712203 0.404885 0.505863 0.069099 0.449035 0.019747 -0.017923 -0.098895 0.113324 -0.023730 0.007228 0.444887 -0.725438 0.040559 -0.050784 0.173655 -0.319357 0.264065 -0.371402 -0.042451 -0.018429 -0.387159 -0.013744 -0.364936 0.076432 0.014615 0.630148 0.139494 -0.088062 0.310245 -0.471893 -0.034614 -0.135193 -0.892800 0.364021 -0.151864 0.474374 -0.122004 -0.349903 0.242347 -0.073373 0.196759
q -0.126512 0.133366 0.074468 0.384873 0.292556 -1.366622 -0.029433 0.281814 0.332098 0.053410 -0.182411 -0.100645 0.113226 0.439511 -0.149518 0.336397 -0.132096 -0.267864 -0.044784 0.467887 -0.052318 0.130454 -0.470759 0.064512 -0.342648 0.215494 0.202588 0.555226 0.209045 -0.148646 -0.060838 -0.090115 0.613587 -0.371744 -0.600339 -0.351335 -0.042213 0.318854 -0.207726 -0.242222 0.703901 0.026532 0.196099 0.283995 -0.390116 -0.394511 0.021407 0.966119 0.155569 0.181681 -0.337790 -0.072847 -0.364117 0.581101 -0.043193 0.318946 -0.047782 0.097094 0.546209 0.631521 0.263751 0.428359 0.767516 0.109812 0.048415 0.452993 -0.254931 -0.252039 0.096397 0.668527 -0.582786 0.034451 -0.148378 0.154489 -0.197490 0.616300 -0.470283 -0.030235 -0.320110 -0.162129 -0.134941 -0.495226 0.316386 0.184711 0.701099 0.465148 -0.143699 0.542597 -0.304556 0.400772 -0.164159 -0.718346 0.578597 0.341885 0.524696 -0.075614 -0.275426 0.299715 0.447778 0.134933
~ -0.103858 0.070206 0.024510 0.215946 0.166722 -0.834289 -0.037424 0.161784 0.228227 0.002711 -0.094061 -0.062410 0.019623 0.304906 -0.090336 0.247847 -0.064681 -0.164399 -0.005550 0.269358 -0.063952 0.056184 -0.283781 0.006405 -0.203240 0.133551 0.122527 0.334947 0.131678 -0.039594 -0.019030 -0.083159 0.386260 -0.224946 -0.360853 -0.265010 -0.093374 0.270134 -0.144107 -0.161600 0.448569 0.016264 0.064399 0.156124 -0.300492 -0.215715 0.002415 0.658860 0.073089 0.149435 -0.138959 -0.070564 -0.185690 0.398828 -0.008414 0.154456 -0.021394 0.082875 0.330039 0.395726 0.203412 0.294884 0.492952 0.034036 0.028505 0.264225 -0.138588 -0.164496 0.044618 0.468359 -0.387765 0.013650 -0.129212 0.037664 -0.112129 0.321986 -0.311704 0.006354 -0.208943 -0.076698 -0.028350 -0.262305 0.175606 0.084441 0.443201 0.260135 -0.067153 0.403127 -0.217061 0.237925 -0.078036 -0.501827 0.353057 0.199715 0.332442 -0.013100 -0.139453 0.188966 0.255909 0.130079
F -0.124117 0.075457 -0.003074 0.217360 0.190599 -0.816405 0.008112 0.149164 0.191047 0.008602 -0.117649 -0.053291 0.104692 0.240349 -0.069016 0.206058 -0.154688 -0.184845 -0.031313 0.270816 -0.070762 0.017604 -0.241950 0.006634 -0.229184 0.092784 0.155466 0.336511 0.099470 -0.105203 -0.076902 -0.150111 0.400072 -0.270777 -0.346218 -0.199385 -0.006345 0.157269 -0.122360 -0.122031 0.424781 0.072900 0.100912 0.198676 -0.222520 -0.242856 -0.016082 0.583730 0.093404 0.039536 -0.212126 -0.069504 -0.237499 0.337896 -0.042306 0.208820 -0.014343 0.066316 0.312962 0.371828 0.131103 0.238711 0.454182 0.133097 0.028805 0.289380 -0.176291 -0.118965 0.098360 0.398382 -0.290111 0.044458 -0.097023 0.077238 -0.159665 0.338352 -0.252477 -0.020504 -0.162546 -0.049523 -0.048566 -0.281103 0.265174 0.152625 0.375283 0.247107 -0.099109 0.300001 -0.195952 0.233431 -0.120839 -0.352671 0.353806 0.244077 0.332540 -0.067696 -0.164486 0.162733 0.270450 0.096413
c -0.121370 0.068806 0.026399 0.215160 0.195517 -0.759278 0.007232 0.138404 0.176955 0.023094 -0.098852 -0.066672 0.091451 0.230177 -0.047832 0.198494 -0.148058 -0.180434 -0.013621 0.246684 -0.048542 0.050310 -0.194659 0.021533 -0.247070 0.108161 0.166168 0.315363 0.084361 -0.114308 -0.094671 -0.115694 0.345714 -0.240794 -0.332893 -0.185630 0.001939 0.159025 -0.101059 -0.094391 0.386847 0.040755 0.103505 0.206224 -0.213180 -0.252043 -0.027978 0.546275 0.080709 0.071769 -0.207738 -0.052101 -0.225875 0.326338 -0.043583 0.186137 -0.034724 0.050211 0.296037 0.352284 0.128538 0.188526 0.423049 0.138224 0.018859 0.241479 -0.170704 -0.123485 0.070294 0.362258 -0.293185 0.051256 -0.045555 0.098664 -0.151168 0.316623 -0.239726 -0.026096 -0.128673 -0.064107 -0.054423 -0.280660 0.250701 0.145363 0.355128 0.205142 -0.101845 0.253651 -0.182040 0.212149 -0.125219 -0.350264 0.322713 0.206517 0.305189 -0.072021 -0.145302 0.159744 0.238417 0.085676
<unk> 0.012593 -0.007352 -0.002933 -0.020983 -0.020135 0.079996 -0.003638 -0.010104 -0.019421 -0.004079 0.011728 0.008127 -0.009031 -0.023988 0.002127 -0.021890 0.017706 0.017885 0.000038 -0.029996 0.003228 -0.008312 0.019584 -0.001777 0.030892 -0.011867 -0.020535 -0.037412 -0.010422 0.014424 0.013082 0.007808 -0.035279 0.027727 0.037432 0.020415 -0.000428 -0.018850 0.009880 0.008137 -0.044542 -0.001966 -0.011315 -0.023574 0.026969 0.030453 0.003687 -0.062301 -0.006392 -0.006881 0.023525 0.006343 0.023978 -0.036623 0.009048 -0.019703 -0.000790 -0.004297 -0.036863 -0.039023 -0.016860 -0.016689 -0.047433 -0.013999 -0.001708 -0.025331 0.018257 0.013931 -0.009792 -0.038080 0.032703 -0.004897 0.002885 -0.011481 0.015327 -0.033081 0.027394 0.004407 0.010124 0.007375 0.004861 0.030067 -0.027707 -0.014623 -0.039070 -0.021852 0.010505 -0.026157 0.022160 -0.025737 0.014553 0.040897 -0.034885 -0.023972 -0.036121 0.004806 0.019395 -0.017135 -0.023154 -0.011046
