I 0.197128 -0.008604 0.010112 -0.247466 -0.183131 0.695490 -0.100524 -0.153242 -0.167769 -0.015640 0.181668 -0.158641 -0.267053 -0.173089 0.034877 -0.001832 0.228272 -0.023547 0.031027 -0.324570 0.134210 -0.020839 0.198932 0.059665 0.177734 -0.136149 -0.120711 -0.235470 -0.118664 0.054445 0.134276 0.241618 -0.442779 0.332350 0.321349 0.105891 -0.090491 0.078303 0.044914 0.109876 -0.340035 -0.044816 -0.151848 -0.141211 0.116564 0.285677 0.043975 -0.464081 -0.111019 -0.028136
t 0.102472 -0.062911 -0.000675 -0.167283 -0.127354 0.623673 0.032384 -0.086790 -0.159517 -0.020739 0.035539 0.093340 0.043154 -0.282150 0.036634 -0.297689 0.109615 0.167566 0.026077 -0.188060 0.087766 0.036262 0.183434 -0.002636 0.185838 -0.077619 -0.107899 -0.328490 -0.072975 0.041289 0.064020 0.126205 -0.327748 0.208434 0.273196 0.216839 0.055869 -0.239340 0.081361 0.041017 -0.382042 -0.070539 -0.048760 -0.190918 0.305064 0.205780 0.025873 -0.561450 -0.003819 -0.099689
s 0.075324 -0.040937 0.016880 -0.179203 -0.066170 0.525549 -0.021631 -0.107214 -0.143602 0.010487 -0.008151 0.040114 0.026120 -0.228681 0.033005 -0.299382 0.049761 0.070172 0.091742 -0.132872 0.133936 0.093662 0.184992 -0.003782 0.114500 -0.101872 -0.076785 -0.266615 -0.067107 0.059405 -0.013086 0.092677 -0.299645 0.219551 0.184422 0.135716 0.066994 -0.205455 0.073851 0.039667 -0.349342 -0.062338 -0.075102 -0.155868 0.322854 0.198049 0.016150 -0.496492 -0.017850 -0.109696
@ -0.002141 -0.021930 -0.032341 -0.155906 -0.045343 0.477882 -0.045896 -0.114701 -0.070378 -0.073971 0.054122 -0.019166 -0.030122 -0.205695 0.019090 -0.066245 0.047204 0.017876 0.051477 -0.309588 0.048844 -0.007664 0.233361 -0.062592 0.047926 -0.183885 -0.021814 -0.203023 -0.062307 -0.034169 -0.016010 -0.086221 -0.176196 0.157466 0.205469 0.074770 -0.027455 -0.021465 0.020363 0.121169 -0.311773 0.019518 -0.123821 -0.050646 0.166052 0.182348 0.024794 -0.336089 -0.037586 -0.147234
n 0.023789 -0.029446 0.065509 -0.187190 -0.126004 0.451111 -0.129743 -0.095370 -0.014896 0.005902 -0.038090 0.093279 -0.031588 -0.043856 -0.066788 -0.274301 0.124177 0.109547 0.120435 -0.086340 0.076526 0.245918 0.079681 -0.053449 0.080745 -0.078644 -0.107604 -0.273088 0.012493 0.133062 0.014818 0.024820 -0.224109 0.207789 0.115048 -0.068781 -0.040415 0.001337 0.034803 -0.118018 -0.224632 -0.057649 -0.148810 -0.282052 0.240738 0.209888 0.076950 -0.319300 -0.003379 0.068113
l -0.015270 -0.053327 0.058036 -0.117866 -0.048443 0.539797 0.043878 -0.145368 -0.129720 -0.032315 0.002693 0.065079 0.011739 -0.290899 0.158958 -0.257265 0.010514 0.125561 0.076544 -0.175010 0.082347 0.172496 0.406482 0.024045 -0.012563 0.013675 0.034523 -0.320765 -0.090460 -0.080869 -0.089733 0.027366 -0.323233 0.186137 0.241191 0.236416 0.105309 -0.179132 0.103144 0.163570 -0.355897 -0.064688 -0.032180 -0.086507 0.232815 0.033527 -0.118124 -0.456067 0.005259 -0.036305
k 0.143227 -0.072909 -0.014940 -0.137783 -0.122641 0.600981 0.027252 -0.039403 -0.134110 -0.030062 0.020975 0.071777 -0.026766 -0.317293 0.097120 -0.282880 0.075884 0.109685 0.047039 -0.167103 0.138523 -0.007878 0.268738 0.021461 0.178287 -0.082844 -0.060725 -0.305802 -0.073589 0.004820 0.016263 0.164138 -0.334441 0.210942 0.252621 0.263685 0.097235 -0.314571 0.068100 0.092402 -0.414783 -0.048615 -0.004994 -0.188295 0.309800 0.176624 -0.025090 -0.518701 -0.039086 -0.067056
r -0.118361 -0.066053 0.039795 -0.110754 -0.010796 0.373632 -0.018066 -0.147800 -0.145309 -0.044506 -0.050527 0.074677 0.142978 -0.248054 0.108305 -0.220475 -0.086670 0.119875 0.027277 -0.058114 0.001572 0.100321 0.308431 -0.084919 -0.015946 0.018789 0.004606 -0.296391 -0.161189 0.014808 -0.082503 -0.105034 -0.138678 0.043183 0.121413 0.196692 0.170431 -0.298584 0.103168 0.072405 -0.323666 -0.030341 -0.064887 -0.032207 0.313537 0.069118 -0.127548 -0.435522 0.047319 -0.102315
d 0.081438 -0.052740 -0.077830 -0.216901 -0.211337 0.640951 0.019164 -0.137118 -0.152138 -0.019017 0.138798 0.065116 -0.050825 -0.144136 -0.036543 -0.123053 0.212642 0.164113 -0.011817 -0.307025 -0.034460 -0.114452 0.054559 -0.047181 0.282533 -0.115204 -0.204004 -0.283192 -0.108408 0.164502 0.181393 0.026010 -0.263357 0.202755 0.365146 0.105912 -0.121696 0.009829 0.051615 0.010112 -0.268123 -0.007298 -0.152118 -0.192054 0.158344 0.307664 0.076463 -0.428923 -0.046528 -0.066494
z 0.154972 0.009716 0.013669 -0.130796 -0.184901 0.475060 -0.001283 -0.156112 -0.097143 -0.058300 0.291796 -0.165745 -0.302319 0.003092 0.007231 0.168181 0.255135 0.046563 0.003568 -0.377015 0.031454 -0.081447 0.027613 0.043098 0.203772 -0.025464 -0.180654 -0.077118 -0.093662 0.073314 0.185445 0.162957 -0.317295 0.178678 0.300618 0.039294 -0.220469 0.286475 0.050214 0.163276 -0.097757 -0.095598 -0.072051 -0.035892 -0.131020 0.267830 0.106332 -0.173626 -0.146662 0.120849
p 0.010330 -0.089201 0.064372 -0.172535 -0.057310 0.588665 0.017400 -0.133516 -0.115777 -0.011192 -0.040254 0.135048 0.015054 -0.266919 0.104512 -0.389718 0.014220 0.139164 0.132486 -0.123907 0.135009 0.183116 0.308884 -0.012919 0.068675 0.003420 -0.042283 -0.331336 -0.096799 0.022530 -0.117652 0.099502 -0.312875 0.183205 0.194722 0.193282 0.127015 -0.269852 0.094805 0.094821 -0.403591 -0.117896 -0.030693 -0.148931 0.369090 0.153030 -0.075782 -0.499957 -0.015060 0.009855
m 0.032237 -0.083238 0.012486 -0.095035 -0.053256 0.335362 0.060509 -0.029779 -0.035599 0.023157 -0.010230 0.100542 -0.037360 -0.182887 0.042193 -0.171091 0.096880 0.115893 0.066340 -0.118666 0.085501 0.150691 0.189024 -0.002363 0.051402 0.026673 -0.065170 -0.172505 0.011873 0.014580 -0.044822 0.117298 -0.169723 0.145020 0.149020 0.078413 -0.008766 -0.085856 0.050013 0.059799 -0.230641 -0.075112 0.003793 -0.112469 0.123561 0.062908 -0.049428 -0.235045 0.006740 0.047375
{ 0.010515 -0.092754 0.068374 -0.174419 -0.081874 0.599726 -0.016424 -0.111781 -0.053804 -0.018262 -0.039976 0.134924 -0.075311 -0.203358 0.078438 -0.258974 0.118162 0.173132 0.137619 -0.130115 0.113226 0.252006 0.318862 -0.062164 0.066903 0.029188 -0.047819 -0.339979 -0.030031 0.051340 -0.065152 0.121560 -0.307711 0.211362 0.222472 0.117853 -0.008220 -0.142753 0.077799 0.060348 -0.384477 -0.122709 -0.057246 -0.202081 0.253738 0.138353 -0.091200 -0.415449 -0.038131 0.130195
b -0.017190 -0.085439 -0.021896 -0.210039 -0.181096 0.482183 -0.078413 -0.092969 0.036908 -0.057961 0.002366 0.158591 -0.072291 -0.093598 -0.019645 -0.221629 0.159532 0.123763 0.097666 -0.153184 0.022734 0.073181 0.126399 -0.116548 0.152741 -0.084235 -0.137783 -0.293037 -0.051888 0.150810 -0.003837 -0.026176 -0.165304 0.171982 0.212847 -0.061586 -0.105209 0.028713 0.001805 -0.099289 -0.253573 0.013105 -0.149041 -0.255125 0.177595 0.199569 0.016297 -0.276471 -0.025755 0.031816
E 0.145003 0.045643 0.001963 -0.090381 -0.019801 0.372378 0.031152 -0.065542 -0.123761 0.024842 0.106644 -0.148015 -0.122158 -0.171466 0.088022 0.043129 0.105408 -0.013591 0.005459 -0.264342 0.122114 0.028692 0.203172 0.104683 0.019775 -0.033786 0.017430 -0.068750 -0.025199 -0.108608 0.068736 0.133688 -0.282439 0.184365 0.182801 0.182625 -0.019481 0.029840 0.074504 0.209806 -0.199385 -0.034637 -0.040381 0.031531 -0.020962 0.091326 -0.027580 -0.224201 -0.071798 -0.052549
1 0.366200 0.039322 0.067577 0.032611 -0.115152 0.336526 0.127177 0.009385 -0.103676 0.010683 0.289254 -0.254815 -0.342941 -0.181135 0.155336 0.260779 0.271302 0.003520 -0.115159 -0.332408 0.183963 -0.074867 0.133169 0.259040 0.168474 0.062068 -0.023351 0.084168 -0.013666 -0.193593 0.238524 0.505829 -0.394840 0.185770 0.239795 0.301738 -0.060663 0.101529 0.042583 0.375035 -0.086326 -0.210355 0.152387 0.123417 -0.249302 0.048223 0.012744 -0.109195 -0.165941 0.144562
N 0.198538 -0.037437 -0.126370 -0.141311 -0.278943 0.199620 -0.124519 0.027796 0.031767 -0.023399 0.079369 0.090976 -0.183291 0.186973 -0.233939 -0.000412 0.275404 0.079619 -0.053692 0.033960 -0.087126 -0.285500 -0.382506 -0.066650 0.318798 -0.093371 -0.260532 -0.107608 -0.015774 0.333270 0.292913 0.172168 -0.030843 0.091638 0.093148 -0.161459 -0.226497 0.081760 -0.094136 -0.338168 0.017619 0.109150 -0.137713 -0.334514 0.042937 0.301651 0.222253 -0.034583 -0.051330 0.104021
Q 0.159335 -0.095836 -0.092340 -0.205190 -0.226589 0.729443 -0.001702 -0.070780 -0.177595 -0.037517 0.076198 0.119995 -0.058553 -0.246380 -0.016399 -0.274217 0.165317 0.174881 0.011451 -0.194602 0.033297 -0.145235 0.146572 -0.027815 0.321841 -0.141699 -0.191751 -0.404827 -0.129221 0.195408 0.139713 0.121302 -0.329233 0.249593 0.346893 0.214619 -0.003698 -0.281804 0.057731 -0.020086 -0.428271 0.013012 -0.127064 -0.287729 0.355807 0.337302 0.051717 -0.566835 -0.034725 -0.071410
f 0.073361 -0.100865 -0.142638 -0.022286 -0.144105 0.352128 0.178176 -0.021685 -0.209383 -0.019386 0.017784 0.169514 0.181329 -0.290087 0.010873 -0.177449 -0.012942 0.217317 -0.130214 -0.050582 -0.100268 -0.310503 0.068660 -0.024413 0.213116 -0.065523 -0.094258 -0.251856 -0.115538 0.046207 0.130291 0.026198 -0.100085 0.001066 0.261802 0.328038 0.122722 -0.429615 0.054957 0.005130 -0.258171 0.082980 0.047526 -0.122338 0.258059 0.058170 -0.004363 -0.427412 0.056067 -0.206745
V 0.071367 -0.122898 -0.085746 -0.262538 -0.246253 0.658649 -0.099972 -0.097530 -0.047171 -0.079172 0.084100 0.167635 -0.112828 -0.064404 -0.103393 -0.255230 0.173607 0.134143 0.061970 -0.174651 0.004717 -0.194493 -0.048989 -0.154200 0.337533 -0.161034 -0.276851 -0.357895 -0.104191 0.292382 0.106217 -0.009266 -0.155563 0.180803 0.219457 -0.025567 -0.067434 -0.111678 -0.014130 -0.167522 -0.337441 0.062725 -0.200662 -0.335799 0.326568 0.418997 0.105211 -0.418128 -0.076436 0.002239
5 -0.006293 -0.010692 -0.087402 -0.125638 -0.057500 0.323796 0.097605 -0.046710 -0.152622 -0.005676 0.102460 0.006032 -0.035745 -0.094446 -0.016007 0.038830 0.062555 0.086558 -0.031569 -0.252817 -0.075172 -0.169844 0.094630 -0.027444 0.142613 0.009782 -0.093588 -0.120956 -0.094941 0.081959 0.078728 -0.048023 -0.094022 0.072493 0.219943 0.155403 -0.101392 -0.079247 0.092470 0.122933 -0.181596 0.026953 -0.045277 0.030121 0.075050 0.191348 -0.017195 -0.217719 -0.040361 -0.048294
2 0.041792 -0.059428 -0.130515 -0.234116 -0.234824 0.696356 -0.048811 -0.162245 -0.204654 -0.090713 0.134016 0.066525 -0.004225 -0.124980 -0.095248 -0.168397 0.113426 0.138643 0.007651 -0.300766 -0.103861 -0.276049 0.048689 -0.146717 0.327872 -0.242034 -0.246292 -0.372452 -0.186713 0.264116 0.178118 -0.135832 -0.227032 0.174346 0.364812 0.097076 -0.083919 -0.152499 0.050440 -0.040119 -0.345385 0.103034 -0.205168 -0.246992 0.359574 0.434337 0.130257 -0.561174 -0.053475 -0.140436
v 0.043366 0.065763 0.020372 -0.134522 -0.024394 0.205449 -0.082368 -0.073100 -0.027610 -0.024894 0.197572 -0.209838 -0.274000 0.150745 -0.048424 0.233823 0.149136 -0.102977 0.070357 -0.307679 0.026682 -0.042963 -0.023501 0.004133 0.112793 -0.111306 -0.104143 0.090482 -0.032986 0.118302 0.104608 -0.017617 -0.122467 0.143515 0.077959 -0.149319 -0.259870 0.344073 -0.002483 0.137729 0.031107 -0.080912 -0.154995 0.095646 -0.134281 0.279559 0.089927 0.040830 -0.176747 0.067296
i 0.109870 -0.000549 -0.086400 -0.113670 -0.119543 0.298886 0.035246 -0.060270 -0.133514 0.001869 0.116787 -0.014238 -0.051884 -0.064374 -0.051961 -0.022112 0.100633 0.050442 -0.007999 -0.195824 -0.034625 -0.172125 -0.013387 -0.007134 0.171468 -0.076870 -0.123997 -0.079372 -0.065591 0.132711 0.138346 0.041091 -0.161381 0.100497 0.170521 0.068162 -0.093792 -0.040217 0.065503 0.015426 -0.114223 0.033437 -0.074173 -0.089725 0.097135 0.228569 0.087621 -0.213823 -0.045805 -0.050700
g 0.076039 -0.055231 -0.081883 -0.087376 -0.100574 0.336262 0.027696 -0.031137 -0.066940 -0.018501 0.099995 0.009319 -0.133406 -0.080786 -0.021020 0.119643 0.158325 0.104683 -0.062364 -0.146035 -0.031938 -0.155909 0.025910 -0.048216 0.164483 -0.032397 -0.110696 -0.123451 -0.038000 0.090574 0.152466 0.091307 -0.088656 0.090594 0.185004 0.073012 -0.109098 -0.003875 0.008301 0.037339 -0.160807 0.015193 -0.083352 -0.047428 -0.027151 0.125773 -0.015963 -0.140385 -0.052780 0.013890
S 0.367630 -0.048322 0.050958 0.061748 -0.142051 0.477596 0.290264 -0.020011 -0.212182 -0.006586 0.376135 -0.204735 -0.309448 -0.286113 0.207159 0.247454 0.277922 0.143831 -0.148802 -0.403401 0.163680 -0.181239 0.178870 0.245119 0.294468 0.132525 -0.110150 0.038615 -0.089363 -0.146500 0.291760 0.564605 -0.444522 0.142461 0.356615 0.467337 -0.045810 -0.049246 0.093726 0.483380 -0.163088 -0.314111 0.220700 0.168022 -0.218755 0.106839 -0.021378 -0.230635 -0.203172 0.179897
$ -0.015227 -0.091811 -0.233560 0.030359 -0.143636 0.116664 0.165582 0.014928 -0.223849 -0.033656 -0.021432 0.230527 0.398181 -0.243006 -0.055678 -0.182795 -0.122544 0.171562 -0.189354 0.060714 -0.237260 -0.529786 -0.076859 -0.107932 0.270709 -0.124559 -0.121759 -0.184779 -0.173597 0.142936 0.168226 -0.203580 0.149064 -0.160414 0.165945 0.285900 0.189640 -0.549265 0.035818 -0.141555 -0.162018 0.215882 0.012644 -0.093102 0.334055 0.074869 0.038665 -0.365379 0.098310 -0.344727
u 0.063059 -0.041824 0.242122 0.007131 0.079002 0.187480 0.213150 -0.032201 -0.038845 0.104386 0.066043 -0.094376 -0.156265 -0.277476 0.283396 0.036837 0.147330 0.139267 0.039904 -0.199745 0.234210 0.527339 0.402386 0.239373 -0.182774 0.276036 0.104721 0.034827 0.064312 -0.278172 -0.091717 0.398638 -0.363324 0.166868 0.092862 0.196290 -0.019305 0.148498 0.131392 0.397987 -0.064989 -0.378552 0.189688 0.193870 -0.244998 -0.266568 -0.229163 -0.062065 0.009742 0.156060
w 0.278314 0.013242 -0.418558 -0.022605 -0.277825 0.105497 -0.024375 0.065498 -0.212152 -0.098867 0.208633 -0.057370 0.066469 0.025473 -0.252848 0.150481 0.051430 -0.091577 -0.258919 -0.061949 -0.239940 -1.027095 -0.473740 -0.090658 0.522080 -0.416272 -0.290136 0.005487 -0.183484 0.314106 0.464821 -0.101426 0.133221 -0.075777 0.216025 0.073098 -0.036640 -0.247142 -0.101032 -0.259687 -0.016725 0.413437 -0.141091 -0.168008 0.130090 0.406489 0.340932 -0.186286 -0.083522 -0.394741
R -0.520919 0.004567 -0.181925 0.276564 0.308057 -1.027333 -0.134151 0.173975 0.122702 -0.076454 -0.423590 0.263974 0.725991 0.193181 -0.195046 -0.087750 -0.647079 -0.176851 -0.086301 0.609876 -0.384219 -0.336921 -0.293073 -0.353723 -0.236888 -0.207262 0.172141 0.172742 -0.011759 0.063761 -0.243921 -0.898889 0.957230 -0.578183 -0.551261 -0.261500 0.370625 -0.469173 -0.157586 -0.418169 0.289064 0.427951 -0.037464 0.154623 0.299813 -0.262255 -0.006883 0.344550 0.243186 -0.447827
# -0.018234 0.007031 -0.087441 -0.058775 -0.020607 -0.028470 0.074966 0.038224 0.009890 0.044369 -0.047670 0.106935 0.048864 -0.009648 -0.070978 -0.035731 0.009031 0.008983 -0.045898 0.008150 -0.066538 -0.137009 -0.083669 -0.030712 0.042545 0.016512 -0.021421 -0.006957 0.041811 -0.000545 -0.029703 -0.003319 0.092117 -0.019378 0.073258 0.017475 -0.036596 -0.028290 -0.009595 -0.053815 -0.024842 0.111878 0.057137 -0.012592 0.029464 -0.026379 -0.012209 -0.007865 0.063278 -0.072340
6 0.144593 -0.067102 -0.281452 -0.314923 -0.466323 0.663539 -0.102979 -0.071493 -0.136115 -0.098508 0.141359 0.250649 0.059348 0.016957 -0.320525 -0.263228 0.271355 0.192239 -0.122379 -0.216059 -0.244123 -0.581595 -0.372760 -0.192570 0.574358 -0.259513 -0.405529 -0.434866 -0.184460 0.448733 0.391156 -0.112310 -0.105531 0.123244 0.410303 0.023340 -0.194651 -0.130993 -0.027653 -0.427303 -0.274233 0.277397 -0.267391 -0.520393 0.370128 0.612999 0.342453 -0.514723 -0.004999 -0.169956
j -0.123510 -0.074422 0.515383 0.146613 0.374624 0.113548 0.293526 -0.008764 0.023984 0.182989 -0.202612 -0.031553 -0.026329 -0.584442 0.604788 -0.182715 -0.064509 0.190984 0.196295 -0.068602 0.469636 1.265651 1.027487 0.351004 -0.627238 0.515139 0.474065 -0.032356 0.186993 -0.691810 -0.498051 0.467825 -0.486334 0.214543 -0.055045 0.382104 0.280701 -0.069953 0.230927 0.713326 -0.238796 -0.643863 0.390971 0.356641 -0.178077 -0.745405 -0.604566 -0.124878 0.110348 0.277321
h -0.043724 -0.077517 -0.150477 -0.166448 -0.206272 0.375190 0.093484 -0.022371 -0.134327 0.002811 -0.035554 0.314511 0.195975 -0.097112 -0.114849 -0.307012 0.038397 0.242843 -0.047358 -0.053934 -0.202216 -0.231909 -0.054819 -0.142723 0.243582 -0.016136 -0.202959 -0.335302 -0.106891 0.230963 0.090718 -0.164723 -0.026592 0.013384 0.268134 0.134798 -0.011020 -0.294095 0.077572 -0.193418 -0.222702 0.166657 -0.054724 -0.271819 0.333735 0.222395 0.057366 -0.381767 0.078889 -0.093681
_ -0.041903 0.024721 0.205294 -0.232001 0.006081 0.419802 -0.280387 -0.171213 0.135454 0.002723 -0.103755 -0.038612 -0.215498 0.000463 0.032717 -0.252395 0.078917 -0.089263 0.304149 -0.084527 0.269896 0.604884 0.311346 -0.022275 -0.186635 -0.097668 0.069845 -0.218841 0.081601 -0.025678 -0.249276 0.040414 -0.307261 0.324952 0.007823 -0.240043 -0.044857 0.264238 -0.005669 -0.024486 -0.244085 -0.115990 -0.209957 -0.222334 0.186343 0.096846 -0.019058 -0.187912 -0.050234 0.159565
P 0.135904 -0.067505 -0.039492 -0.235411 -0.205036 0.623397 -0.084783 -0.088232 -0.024086 -0.038574 0.132872 0.024728 -0.247989 -0.032021 -0.079737 -0.066957 0.280671 0.101269 0.099584 -0.284999 0.082153 -0.007527 0.017845 -0.080723 0.270282 -0.161139 -0.238083 -0.218904 -0.038044 0.229927 0.137608 0.122054 -0.269031 0.260589 0.261780 -0.080029 -0.220616 0.119196 -0.003421 -0.039299 -0.253500 -0.051629 -0.186641 -0.256039 0.115374 0.387494 0.121804 -0.285278 -0.133679 0.089299
H 0.479467 0.094770 0.162623 0.041183 -0.141908 0.346895 0.309572 -0.028579 -0.143692 0.068831 0.525715 -0.450521 -0.581193 -0.119209 0.241441 0.548904 0.434222 0.020380 -0.164094 -0.567335 0.242283 -0.049176 0.112448 0.444071 0.182629 0.253254 -0.041486 0.294646 -0.006906 -0.302385 0.339709 0.772718 -0.572988 0.208804 0.333247 0.390480 -0.254583 0.442314 0.104823 0.646340 0.083585 -0.415982 0.274684 0.341316 -0.625922 0.008432 -0.006750 0.073451 -0.270419 0.316635
3 0.186537 -0.011991 -0.093765 -0.198947 -0.211800 0.444316 -0.039589 -0.040988 -0.091850 -0.024743 0.170293 -0.082007 -0.186198 -0.021183 -0.100088 0.015165 0.161011 -0.031112 0.029621 -0.266966 0.057108 -0.224766 -0.064790 -0.008260 0.274818 -0.270573 -0.206646 -0.062800 -0.056306 0.193398 0.172055 0.087099 -0.231270 0.191795 0.212918 -0.059025 -0.170888 0.085550 -0.013016 -0.027229 -0.137425 0.029190 -0.154292 -0.168797 0.070718 0.359387 0.204348 -0.218422 -0.147155 -0.076494
J -0.143569 -0.003376 -0.060760 -0.117656 -0.023892 -0.032563 -0.277901 -0.009301 0.110882 -0.044891 -0.298924 0.228778 0.216139 0.073039 -0.166386 -0.415187 -0.181480 -0.109621 0.147346 0.276051 -0.038119 0.043554 -0.057121 -0.204651 -0.057771 -0.196866 0.025695 -0.215470 0.020056 0.135707 -0.202249 -0.297877 0.155581 -0.010786 -0.139937 -0.231494 0.146126 -0.216457 -0.074755 -0.402483 -0.151414 0.252149 -0.147564 -0.335795 0.438885 0.100817 0.090903 -0.151812 0.096579 -0.122050
U 0.175892 -0.098558 0.111111 0.005966 -0.078137 0.522773 0.261811 -0.003530 -0.145521 0.065228 -0.011611 0.104780 -0.008932 -0.538784 0.317371 -0.228184 0.087310 0.245395 -0.035679 -0.132530 0.201233 0.228661 0.528889 0.205099 0.018662 0.158479 0.101581 -0.237755 -0.018372 -0.289279 -0.026183 0.420420 -0.449844 0.180846 0.279764 0.500359 0.214371 -0.359056 0.137484 0.343951 -0.369242 -0.217397 0.233841 -0.010391 0.086568 -0.235888 -0.245143 -0.443660 0.010266 0.037369
7 -0.578037 -0.076027 -0.026970 0.194857 0.291351 -0.637007 -0.137171 0.009824 -0.014246 -0.088742 -0.405957 0.289020 0.726656 0.044449 -0.041270 -0.370530 -0.650025 -0.017417 0.051024 0.579362 -0.289891 0.032676 0.033750 -0.356415 -0.282068 -0.049482 0.107386 -0.123692 -0.132448 0.157361 -0.358627 -0.856128 0.651256 -0.427799 -0.418470 -0.129433 0.482256 -0.628029 0.006995 -0.328216 0.046920 0.255900 -0.064472 0.043031 0.538739 -0.176205 -0.122581 -0.039720 0.265062 -0.303478
T 0.032647 -0.095904 -0.081869 -0.077221 -0.136218 0.302638 0.121785 0.014376 -0.205743 0.002983 0.044726 0.121404 0.168490 -0.207012 -0.014536 -0.215265 0.001046 0.169578 -0.064877 -0.097066 -0.054445 -0.133548 0.080843 -0.004810 0.176485 -0.027531 -0.132248 -0.229605 -0.114566 0.148846 0.106288 -0.019452 -0.124525 0.046615 0.190426 0.222945 0.065262 -0.348617 0.098394 -0.059634 -0.219779 0.031780 -0.023282 -0.161721 0.266917 0.165549 0.032588 -0.385515 0.065678 -0.136767
8 -0.242541 -0.029530 -0.312582 0.132059 -0.011936 -0.549606 -0.110494 0.071763 -0.032607 -0.126568 -0.159475 0.217017 0.499763 0.190672 -0.245434 -0.071610 -0.366449 -0.070972 -0.188608 0.415362 -0.436832 -0.742134 -0.476025 -0.324659 0.161604 -0.219964 -0.124908 -0.001031 -0.191209 0.295746 0.075596 -0.639370 0.665234 -0.448568 -0.178918 -0.109938 0.217528 -0.426759 -0.118633 -0.451824 0.172689 0.475975 -0.086368 -0.043973 0.294047 0.086585 0.147995 0.078781 0.138663 -0.391834
D 0.111712 0.081337 -0.377433 0.034411 -0.118398 -0.383249 -0.094517 0.128927 0.011346 -0.074931 0.159959 -0.093972 -0.016177 0.334159 -0.333150 0.426977 0.051571 -0.174882 -0.254836 0.024103 -0.328298 -0.889256 -0.694934 -0.126000 0.295447 -0.291280 -0.209548 0.253751 -0.030335 0.264741 0.370980 -0.257190 0.444620 -0.203731 -0.052606 -0.240829 -0.214293 0.184757 -0.174388 -0.313680 0.338635 0.450191 -0.157638 0.013841 -0.224283 0.216774 0.299977 0.344296 -0.029570 -0.293299
4 -0.064409 0.011968 0.079273 -0.305184 -0.143388 0.560327 -0.299277 -0.234526 0.072992 -0.080705 -0.023883 0.070454 -0.115612 0.088462 -0.083621 -0.364763 0.107848 -0.002467 0.259839 -0.146217 0.087222 0.294526 0.100319 -0.114168 0.021848 -0.177455 -0.094452 -0.348370 -0.048650 0.184662 -0.126170 -0.152308 -0.262225 0.279856 0.135154 -0.250877 -0.103103 0.226838 -0.016196 -0.190752 -0.235279 0.021960 -0.311966 -0.345958 0.309579 0.331744 0.130942 -0.323308 -0.049058 0.057145
9 -0.379440 0.084672 0.498285 0.212922 0.557781 -0.595767 -0.143247 -0.019416 0.275148 0.100852 -0.423548 -0.132450 0.089049 -0.073412 0.374247 -0.088010 -0.375360 -0.213003 0.287431 0.365371 0.362556 1.219946 0.651928 0.140579 -0.894091 0.342732 0.621851 0.168803 0.238575 -0.619168 -0.688849 -0.016834 0.019174 -0.039532 -0.537956 -0.125253 0.347249 0.139924 0.044995 0.305508 0.080084 -0.349636 0.188013 0.347998 -0.139062 -0.759801 -0.459637 0.341169 0.156390 0.213199
Z 0.085897 0.283397 0.356574 0.389499 0.408659 -1.057312 0.178960 0.137913 0.243413 0.169767 0.165508 -0.610453 -0.419463 0.287467 0.286012 0.878631 0.034038 -0.358218 -0.091048 -0.014007 0.247898 0.473509 0.019139 0.484891 -0.585356 0.498060 0.442867 0.910811 0.286614 -0.681877 -0.117303 0.477411 0.070408 -0.171291 -0.408104 -0.059699 -0.147078 0.857781 -0.013427 0.600205 0.745534 -0.384015 0.427371 0.818038 -1.116915 -0.723892 -0.226860 1.092770 -0.080090 0.375724
q -0.110915 0.195237 0.139622 0.520418 0.382797 -1.796868 -0.099922 0.362589 0.461967 0.154716 -0.262383 -0.124097 0.067541 0.715540 -0.188572 0.510497 -0.183024 -0.309886 -0.102154 0.769565 -0.085183 0.198451 -0.739216 0.108169 -0.444470 0.285203 0.247001 0.877787 0.369548 -0.152384 -0.068325 0.002052 0.831416 -0.514892 -0.882361 -0.570873 -0.039262 0.475614 -0.235826 -0.290059 1.056703 0.003983 0.288973 0.382470 -0.688434 -0.643839 0.048215 1.360647 0.126185 0.272570
~ -0.142963 0.104573 0.060611 0.314360 0.222228 -1.178196 -0.106682 0.235368 0.360499 0.039827 -0.128896 -0.086279 -0.042729 0.547473 -0.116834 0.402312 -0.104077 -0.223452 -0.032063 0.473954 -0.126788 0.096251 -0.448215 0.013145 -0.282718 0.200670 0.163553 0.557781 0.256803 -0.015958 -0.047650 -0.090922 0.572394 -0.334078 -0.574691 -0.474840 -0.134855 0.432651 -0.176929 -0.210111 0.720227 0.019769 0.097164 0.221013 -0.548109 -0.384761 0.002945 1.007559 0.064527 0.265210
F -0.186632 0.129072 0.005665 0.342359 0.308914 -1.230211 -0.017935 0.222639 0.287492 0.043894 -0.171645 -0.073913 0.115165 0.442119 -0.078178 0.352119 -0.261839 -0.262412 -0.074079 0.475049 -0.125968 0.012931 -0.407332 0.016834 -0.348435 0.148960 0.231357 0.589894 0.192153 -0.146155 -0.139922 -0.219121 0.638071 -0.432265 -0.563090 -0.341666 0.012954 0.252750 -0.156855 -0.147139 0.697608 0.109463 0.163259 0.319321 -0.437635 -0.435006 -0.035728 0.936037 0.094980 0.057567
c -0.191988 0.108699 0.050650 0.343928 0.305365 -1.137251 -0.024181 0.206588 0.264148 0.066959 -0.147579 -0.086244 0.112041 0.425724 -0.060635 0.328769 -0.255005 -0.257282 -0.043529 0.439191 -0.101075 0.050987 -0.336046 0.030102 -0.370991 0.159869 0.237392 0.539225 0.151360 -0.140127 -0.162575 -0.180567 0.552721 -0.379651 -0.535935 -0.321012 0.020983 0.244556 -0.128133 -0.127524 0.627460 0.066885 0.155888 0.312861 -0.389129 -0.438300 -0.048599 0.862486 0.083246 0.101994
<unk> 0.023817 -0.014168 -0.008038 -0.046321 -0.042155 0.147557 -0.000906 -0.023745 -0.035947 -0.006807 0.018973 0.014671 -0.012323 -0.054159 0.001843 -0.041803 0.035259 0.030794 0.002325 -0.057606 0.008862 -0.014628 0.039774 -0.006214 0.053557 -0.023698 -0.036118 -0.071484 -0.025904 0.024381 0.026480 0.019741 -0.068639 0.048846 0.071128 0.037575 -0.004487 -0.036010 0.014524 0.010450 -0.084761 -0.003630 -0.021944 -0.043058 0.059516 0.060481 0.006958 -0.116809 -0.009519 -0.015186
